1000 20
1000 0.43116403 0.8287773 -0.20463513 -0.2069725 0.043101195 0.111149676 -1.0789151 -0.5369212 -0.1394952 -0.975312 0.10382931 -0.48777044 0.38061455 -0.35939592 0.2391753 0.3448617 0.62297606 0.18479328 0.3021483 -0.009392731
999 0.308554 -0.92947215 -0.6385822 -0.14644484 -0.6107141 0.4911466 -0.51521105 -0.19602247 -0.4565904 -0.30643272 -0.27312508 -0.81969863 -0.15377343 -0.12446911 0.24634011 0.06638632 0.58377475 -0.88473165 -0.22316085 -0.32762894
998 -0.38824257 0.90125775 -0.08421788 -0.19131798 -0.42773363 0.58688664 0.3860686 -0.9092778 0.06993718 -0.28135788 -0.96450996 -0.3806369 -0.4819551 -0.14834216 0.39568594 0.12298826 0.2978917 -0.38034156 -0.26007652 0.39435056
997 -0.29369396 0.14590879 0.18107706 0.2066054 0.19657892 1.2267635 -0.71230584 -0.4809952 -0.384839 0.007793062 -0.19295654 -0.27609614 0.05870327 0.26903483 0.3849015 -0.48587206 0.40206322 -0.26905438 1.0978564 0.31730124
996 0.5455815 -0.52681273 -0.7260854 -0.37491348 -0.426668 0.64934283 0.03985542 -0.014486707 -0.07124512 -0.57334435 -0.19205713 -0.527253 -0.54760796 0.07642757 0.22496079 0.15302628 0.28713772 -1.2575679 0.099971294 -0.13291913
995 -0.072024904 -0.2114011 -0.2899945 0.011614576 -0.10437003 0.6566946 0.6060677 -1.2263584 -0.4993501 -0.6583641 0.09073296 0.3776539 0.39176542 -0.69913334 0.58873045 1.0465382 0.40829292 -0.073567025 0.24222386 -0.4616332
993 0.3203335 0.111508764 0.13912384 0.8874569 0.09854003 0.28882593 0.110031664 -0.5144618 0.53288335 -0.21704942 -0.46959445 -0.015495225 0.44606963 0.014177793 -0.3639985 0.16445139 1.4118483 -0.71128243 0.067828014 -0.5019296
994 0.122397654 -0.5125834 0.40010196 -0.03616534 0.06370656 0.6555863 -0.3783561 -0.20015539 0.10837637 -0.7384209 -1.1372384 -0.34914008 0.16558129 -0.40612078 0.6556526 -0.31633723 -0.20859969 0.07519641 -0.4503208 -0.37761822
992 0.20497993 0.11450563 0.33586374 -0.28909007 0.38924456 0.6028008 -0.38284034 0.62394005 0.40518323 -0.8932697 -1.0996908 -0.505249 -0.18121827 -0.29675016 0.70642364 -0.37979195 0.26308796 0.15669325 0.024248404 -0.61820465
990 -0.2409071 0.2398497 0.17578739 -0.53491884 0.0053006015 0.28621632 0.19428754 -0.081828736 1.0504972 -0.010187532 -0.34968042 -0.32270116 0.39270177 -0.94968915 0.7696005 0.5641582 0.78830886 -0.6187272 0.8187678 0.47071698
991 -0.101070486 0.8687901 -0.46403342 0.5500821 0.09744551 0.07867466 -0.7190398 -0.46166578 0.29288313 -0.78478897 -0.07278822 -0.8900305 -0.12603007 -0.62709755 0.0035479518 0.68901294 0.4465335 0.23205541 0.37649018 0.036187533
988 -0.5834808 -0.28518382 -0.055727147 -0.3584369 -0.46109456 0.70578986 0.054722313 -0.62592274 -0.4342611 -0.69638294 -0.26140797 0.07230854 0.4266852 -0.9864632 0.58899504 1.2553563 0.21253307 -0.3264578 -0.09471459 -0.32525182
989 0.39485928 -0.10753778 -0.30852437 -0.053412117 -0.17361894 0.7490202 -0.20674002 -0.750886 0.49367833 -0.40417466 -0.5479062 0.34443656 1.0500003 0.13550775 -0.5117172 -0.134254 1.0423921 -0.5000076 -0.15557942 -0.2619506
987 -0.25378966 0.12081978 -0.26222107 0.45002538 0.061083455 1.2705252 -0.68399006 0.029887227 -0.71663475 -0.16615628 -0.54816675 0.10241308 -0.08242951 0.35314918 0.37986642 -0.18866558 0.65437126 -0.23759499 0.69980395 0.7844976
985 0.017708465 0.546058 -0.31238794 0.47427276 0.1467551 0.17483248 -0.49030426 -0.54194105 0.09717872 -0.68835056 -0.64985996 0.6159972 0.7373617 -0.101264425 0.03262314 -0.031714134 0.85772026 -1.0797902 -0.25321317 -0.23382424
986 -0.784355 -0.411354 -0.24208382 0.1710127 -0.6784187 0.6126706 -0.111939505 -0.48567262 0.3157377 -1.0472554 -0.11876949 0.5151597 0.19706267 -0.6162891 0.64531255 1.0513003 0.3904694 0.11252069 0.058914267 -0.53885216
984 0.044951875 -0.25933513 0.27870694 -0.010211699 -0.81755245 0.42719674 -0.3465881 -0.97064507 -0.62797445 -0.97423273 -0.60101295 0.8203401 0.121164486 -0.40654057 0.39371315 0.7979211 0.42739 -0.05389586 0.21359561 -0.8059659
983 -0.41998422 -0.045492828 -0.01956379 0.48901185 -0.24405818 1.316534 -0.4391964 0.026162772 -0.20534974 -0.17750143 0.3782973 -0.12556106 -0.58298624 -0.09060584 0.5786967 0.04298328 0.60389334 -0.18132062 1.417016 0.117005065
982 0.1791169 0.18338767 0.017005172 -0.36385557 -0.36374384 0.13259113 -0.35689482 0.10988229 0.46313047 0.22750564 -0.8143137 0.32552013 0.43746522 -0.645524 0.9348635 0.39492163 0.6762865 -0.7997927 1.1167448 0.3481592
981 -0.11749009 0.18516822 0.08875988 -0.59774387 -0.26990786 0.31001672 -0.09672981 -0.10659327 0.9048925 0.38821974 -0.95343614 0.11830506 0.2007058 -0.78124416 1.2827009 0.33112302 0.75156826 -0.5063576 0.2883888 0.13733347
980 0.25861374 0.63792634 0.106711 0.12168417 -0.5099646 1.2456449 0.69434065 -0.7080988 0.35665256 0.08910826 -0.41248506 -0.15343092 -0.07117065 -0.3139715 0.39699125 -0.45376316 0.7305664 0.19740991 -0.10347527 0.37667626
979 0.45093372 -0.14044029 0.24637261 1.0456364 0.15331163 0.82241404 -0.44503 -0.26208255 0.35667372 -0.21188655 -0.36980197 0.48322028 0.7885546 -0.32040653 0.20728475 0.08495157 0.90909064 -0.5728482 -0.35316136 0.2703656
977 0.3228285 0.5579759 -0.63397294 0.031171853 0.32643515 0.35646114 -0.6418855 -0.63864017 0.44534066 -0.98693925 0.45698622 -0.4607234 0.0025890854 0.0063574747 0.05339733 0.3110243 0.30291373 0.019429177 0.8487762 -0.85147226
976 -0.22470869 0.869619 0.40004224 -0.25493893 -0.39205262 1.3435795 0.023813969 -0.7168221 0.12058464 0.2892318 -0.54157937 -0.89022034 -0.5121534 0.054557275 0.38617095 0.053616032 0.3258102 -0.29992068 -0.029878343 0.10441429
975 -0.036678065 -0.3633569 -0.3413175 -0.22073127 -0.42197588 0.7046571 -0.87850565 0.12416332 0.12683389 -0.36921856 -0.19096442 -0.81798184 -0.37375015 -0.022794584 0.7889049 -0.2492194 0.098576054 -1.0999185 -0.21709695 -0.09115855
974 0.09330317 -0.11172772 0.33570603 -0.2725588 -0.30903074 0.20244955 -0.24985886 -0.4079948 0.3466247 -0.66783214 -0.922243 -0.53410465 0.32327408 0.50238204 1.1604807 -0.48239797 0.4746316 0.36871192 -0.11401464 -0.7261805
973 1.0564681 0.9806008 -1.0018349 -0.1995218 0.057756957 0.36171305 -0.44326082 -0.5981805 0.021060511 -0.8226186 0.13740994 -0.22867078 -0.3982386 -0.2517385 0.45495448 0.89873636 0.41063967 -0.071914755 0.036829405 -0.08326495
972 -0.610294 0.21427543 0.13218115 0.44256958 0.13328882 1.2089108 -0.4112967 -0.47779983 -0.53688306 -0.7301786 -0.08835179 0.070214026 -0.3494988 -0.47141033 0.23136647 0.027945185 0.31059918 -0.3088135 0.769492 1.0372235
971 0.23529352 0.9286014 -1.0047773 -0.39877337 0.4506463 0.06808642 -0.6361768 -0.32045892 -0.2171752 -0.5384375 0.30394062 -0.33502918 0.11815779 -0.47281873 0.55895203 0.19554271 1.1811861 -0.03788538 0.9647676 -0.018869098
970 0.28909808 -0.7528282 -0.59819585 0.36303312 -0.37007827 0.4536514 -0.7084194 -0.37109607 0.62824506 -0.7263547 -0.104266115 -0.6078727 -0.9598849 0.13384172 0.36763543 -0.26206547 0.58879733 -0.8718139 -0.31638375 -0.2920837
969 0.80735666 0.39926708 -0.120844744 0.5724606 0.1293473 0.9571863 0.50913894 0.26743266 -0.496336 0.22640307 -0.67671674 -0.78292346 0.44134554 -0.09719908 0.4046989 0.5821876 1.4416331 0.19092722 -0.14867018 0.22076285
968 0.6931355 0.41548145 -0.4333788 1.1944544 -0.73461413 0.45379895 -0.27704152 -0.47583443 0.15884079 -0.49118993 -0.53658605 0.39584544 0.7552109 -0.40903622 -0.4134405 -0.07314253 0.7972603 -0.7554188 -0.02355681 -0.0030527147
967 -0.18183443 -0.55971843 -0.9608025 -0.22809115 0.25063378 0.74695385 -0.556024 0.35588515 0.08964723 -0.072643295 -0.439929 -0.63683724 -0.70630467 -0.24388303 0.5744605 -0.24931884 0.7729046 -0.92199606 -0.1808738 -0.3219183
964 -0.26836014 0.093501225 -0.17627582 -0.24346025 0.34237972 0.5705217 -0.5148914 -0.27964082 0.4226002 -0.8666034 -1.0800818 -0.32439694 -0.29300478 0.14740382 0.8840479 -0.39708048 -0.3082103 0.45785066 0.3142593 -0.65933573
962 0.28033793 0.013274122 -0.25199977 0.49370176 0.36150354 0.8244284 -0.053453535 -0.22828057 0.98773694 -0.48870587 -0.13754126 0.4044681 0.6185594 -0.7541258 -0.34976044 -0.1960098 0.8112986 -1.1789873 0.040316757 0.10811287
966 0.2588034 0.35507786 -0.93665063 0.062329613 0.5456457 0.16756633 -0.4436056 -0.7460687 -0.07850132 -0.61066926 -0.07775479 -0.65449554 0.3085206 0.43454376 0.15489691 0.6878384 1.0938535 0.51081544 0.31679294 -0.6137047
963 -0.09246929 0.5605412 0.104993924 0.07066853 0.22358444 0.80766916 0.18346229 -1.3274456 -0.03981808 0.41591215 -0.4929109 -0.52611583 -0.4734756 -0.6341596 0.53050345 -0.35549587 1.0054275 -0.008952684 -0.37625334 0.30450067
956 0.42954665 -0.2757146 0.20310561 -0.34982038 0.4076871 0.9514498 -0.4684382 -0.2379709 0.30194485 -0.5271897 -0.61321884 -0.23922922 0.73057497 0.0067521455 1.1689446 -0.20378323 -0.5178987 0.24477987 0.3344239 -0.6568583
957 0.12455504 0.16204296 -0.66213274 0.6697319 -0.8362239 0.7940389 -1.0143368 0.21021964 0.14509803 0.31330457 -1.1803191 -0.73195714 0.385902 -0.59061825 -0.14197154 0.65602714 -0.010341589 -0.62370336 0.26784837 0.2521295
958 0.9162124 -0.47745666 -0.39813563 -0.0057884404 0.21681301 0.17953388 0.085611016 -0.69388604 -0.38303858 -0.13455547 -1.3973706 -1.0493993 0.20365268 -0.21675602 0.48611376 0.22262347 0.3993227 0.38372466 0.6859216 0.901639
955 -0.35383028 -0.2418423 -0.67369235 -0.14167057 -0.13884732 0.36266086 -0.32813585 -0.23229374 0.07999933 -0.7185045 -0.052360684 -0.75092685 -0.5878179 0.38774332 0.31101117 -0.039473496 0.62869203 -1.0729852 0.09295217 -0.25551298
960 -0.14188169 -0.25812802 -0.89588964 0.5667518 -1.10301 0.8194409 -0.78512317 -0.08293246 -0.1435573 -0.27348492 -1.3260766 -0.5592821 0.5948884 -0.3867212 0.37418365 0.7837125 -0.5756324 -0.57529974 -0.20514058 0.071617626
946 -0.14639704 0.83051914 -0.2351362 -0.3721704 -0.71215117 0.8908329 0.43709412 -0.734102 -0.1201225 -0.25850332 -0.2686831 -0.49389204 -0.30099633 -1.2212615 0.23464659 -0.13742065 0.25987223 -0.39844233 -0.17141017 0.3496698
952 -0.14996794 0.9419992 -0.99012125 0.06992575 -0.37282756 -0.17218372 -0.4632083 -0.8555007 0.19097963 -0.91572165 -0.19041766 -0.5998886 0.082556434 0.11760827 0.5849777 0.5581498 0.074092396 0.07285369 0.8098572 0.13055795
947 -0.5869392 -0.22762015 -0.91394126 0.93995345 -0.9705305 0.7623094 0.21770382 -0.63697964 1.0520461 -0.60854816 -0.2794318 0.2467414 -0.5904937 0.76500326 0.7904098 0.042258117 0.56657374 -0.5481311 0.4460803 -0.1661543
951 -0.76047426 0.01839087 0.52879035 0.06084391 0.33383942 0.984266 -0.24774523 0.05615515 0.5739397 -0.59711033 -1.1752092 -0.8732741 0.18812172 0.1562691 0.4860011 0.458432 0.1402218 0.19646461 -0.43772134 -0.5358105
953 0.6711674 -0.67783546 -1.107552 -0.080666356 -0.53361785 0.44703603 -0.2174173 -0.23270537 0.14317973 -0.76151717 -0.103183255 -0.068324484 -0.92355907 -0.0832755 1.056858 -0.15087691 0.22056657 -0.8232261 0.06366542 0.07376045
948 0.2952523 -0.08145546 0.30914313 -0.7869294 0.057614554 0.53777146 -0.6795276 -0.093752556 0.6345313 -0.7119821 -1.2440994 -0.54033947 0.221289 -0.14879465 0.31004924 0.0881314 -0.10762849 -0.04663903 -0.06610445 -0.36341313
950 -0.04805276 0.021593504 0.5433137 0.41757125 -0.0032357115 0.99177885 -0.55599 -0.49199986 -0.5090973 -0.549769 -0.11383408 0.2908861 -0.026812963 0.6589673 0.48932236 0.34694415 0.9533341 -0.11283929 1.1409273 0.43916863
944 0.5178994 -0.034317307 0.52913576 0.0054363627 0.35010466 -0.14509669 -0.3751044 -0.49791002 0.45568928 -1.470246 -0.89860874 -0.99627465 0.62722933 -0.20083627 0.7049663 -0.3875263 -0.10209265 0.2090325 0.17908259 -0.09541477
949 -0.27370226 -0.08531411 0.14548467 -0.49738464 0.3329683 0.5350745 -0.22631021 -0.11847869 0.35300058 -0.63832885 -1.2112017 -1.0103436 0.35881996 0.4187102 0.30530062 -0.2679977 0.34125134 0.5415155 0.5720405 -0.51397204
943 0.39558914 0.94458795 -0.10252038 0.22007255 -0.44579488 1.0825835 -0.30260575 0.60536706 -0.5911357 0.16258377 -0.5559973 -0.81114334 0.49570116 -0.10249784 0.7736006 0.46193027 1.1292142 0.3137673 -0.31688163 -0.39289787
941 -1.0188268 -0.14463453 0.027517525 0.06705318 0.38647836 1.0704339 -0.13234062 -0.3477278 -0.1366792 -0.3674622 -0.36463758 -0.19033489 -0.20774677 0.04084404 -0.043763082 -0.47455615 0.9004684 -0.3152364 1.1309528 0.26204693
978 -0.2222955 -0.091453195 -0.07280546 -0.41743627 0.56912756 0.55170566 -0.10752158 -0.0034593309 -0.16206674 0.663133 -0.8138712 -0.116928056 0.15453736 -0.5657669 0.83656824 0.7189748 0.94520456 -0.5301376 0.87393683 0.36454335
940 -0.49020636 0.060117196 0.2789997 0.19764185 -0.21103786 0.9598791 -0.25034538 -0.56076264 -0.43568113 -0.87215954 -0.41550484 0.33893624 0.12026177 0.09365082 -0.19592145 -0.5378994 0.71246576 -0.45728835 0.92780983 0.5260035
942 -0.2703507 0.014446613 0.71285295 -0.1335805 0.18920982 1.2641007 -0.8269965 -0.2924239 -0.50704837 -0.6532497 0.32019505 -0.10173489 0.18336774 -0.07208676 0.4169662 -0.17426477 0.6677717 -0.47064233 0.61446995 0.29051524
945 0.21384701 -0.004909911 -0.12789933 1.1545943 0.62084585 0.9628818 0.13914903 -0.051902603 0.29171017 -0.43148866 -0.933361 -0.49154806 -0.4245987 -0.9427656 -0.091419235 0.24537517 -0.6516984 -0.95733225 0.8299445 -1.0160824
938 0.90154886 -0.43573537 1.3137865 0.6403899 -0.5115573 1.10553 0.23057407 -0.7989458 0.38838038 -0.41061437 0.36536232 -0.36512616 0.23637833 -0.2845435 0.90164727 0.68611413 0.5325925 -0.39310655 0.46828568 0.38005552
939 0.22065808 1.0552423 -0.167425 -0.66406435 -0.467123 1.1248996 0.020782566 -0.82767236 0.17270848 -0.017608356 -0.6214927 0.14605895 0.17183216 0.4385153 0.5611301 -0.07590852 0.4711328 -0.2578898 -0.21661815 0.21325992
936 0.55865324 0.415138 -0.7811881 0.7904131 0.0356271 0.88918716 -0.0622117 0.50202614 -0.1534932 0.19882238 -0.61882794 -0.97331417 0.624312 0.5604557 0.52436906 0.87711895 1.1960253 -0.14940512 -0.32054973 -0.3612872
934 0.7852516 -0.9154132 -0.58490556 -0.35757262 0.9050822 0.97104514 0.5514836 -0.34167162 -0.18044221 -0.29983702 -0.80421984 -0.5489118 0.13771483 -0.03763392 0.91240835 -0.23783754 0.494203 0.010551885 0.39660266 0.84614366
935 -0.3062057 -0.89817923 -0.93362004 -0.30049983 -0.31928837 0.5730388 -0.26230702 0.37878582 -0.081467554 -1.0079789 0.0008168802 -0.47601342 -0.5134459 -0.43006253 0.7869625 -0.33211777 0.7460558 -0.730981 -0.074156806 -0.32808396
932 0.03113837 0.5322738 -1.191711 -0.0060909097 -0.15166676 1.7356818 0.50115496 -0.18142222 0.17329474 -0.62863946 0.083582334 0.060505234 1.610975 0.042626802 0.65688133 0.08295662 -0.029516269 -0.96590614 -0.032095216 -0.41436636
933 0.036435135 0.39134368 -0.46815896 0.015564391 0.29017514 -0.5448084 -0.49448273 -0.45516992 -0.14497305 -1.2523259 0.14055772 -1.0396953 0.13146412 -0.03214953 0.72617686 0.65086263 0.45717525 -0.525566 0.6178686 -0.55649793
937 -0.18036604 -0.18652694 -0.4017905 1.0130974 -1.4610708 0.79901016 0.5912607 -0.38198748 1.3558261 -0.68492055 -0.9117224 -0.5477755 -0.44909024 0.6915106 0.6374249 -0.39558122 0.4712913 -0.0636698 0.37540516 -0.14390263
929 -0.1741177 0.21793243 -0.4788252 0.80266917 0.5720591 0.5003022 -0.1429455 -0.48916975 0.7496034 -0.7699296 -0.24914998 0.12779064 0.8518438 -0.04394399 -0.17971362 0.10586134 1.1110525 -0.4830824 -0.055393845 0.46631876
959 -0.3765185 -0.33257356 0.0013025918 -0.46861944 -1.0417362 0.8792425 0.2720853 -0.7748447 -0.45558113 -0.67633647 -0.16113922 -0.20634149 0.9665293 -0.46731505 0.081623934 0.41030657 0.6883402 -0.03293862 -0.27853298 -0.8083806
930 0.24763091 1.0881723 -0.2667777 -0.4913869 -0.23690562 1.1865336 0.7211017 -0.6831037 0.026362171 0.20173709 -0.8253679 -0.3248537 -0.21158983 0.14076994 0.32932517 0.014901859 0.23791623 0.0039566676 0.58259594 0.10156028
931 0.0755358 -0.58141893 -0.9976735 0.015930682 0.045737926 0.33190307 -0.32668126 0.35719472 0.2097412 -0.26070136 -0.3882279 -0.8171137 -0.6401993 0.3450891 0.88585067 0.42148846 0.98442763 -0.8358757 -0.24196371 -0.26615736
928 -0.18110281 -0.14248696 -0.08207899 -0.007725343 0.111747466 0.7248099 -0.5674131 -0.33014193 0.64450383 -0.29810998 -0.7995272 -1.2577496 0.80802304 -0.35098326 0.6843139 -0.020598939 0.035128355 0.9231701 -0.08554158 -0.91373175
927 -0.28223374 0.08546483 0.11976608 0.06767918 0.5151515 1.5142363 0.3058251 -0.5701323 -0.38528463 -0.35833782 -0.16165577 0.19583611 0.12953211 0.25614715 0.16490448 -0.1305 0.60539955 -0.082203515 0.8609881 0.3738823
925 -0.3764692 1.0386232 -0.18996373 0.15503863 -0.7974236 1.0511796 -0.11023041 -0.50029504 -0.051955353 0.26793298 -0.60139537 -0.5311357 -0.13520148 -0.03255171 0.45447677 -0.48690113 0.9514738 0.047798455 -0.07250202 0.4815781
926 0.4004168 0.09890933 0.30868843 0.0846986 -0.44628984 0.3420903 -0.5198382 0.3116432 0.23603033 -0.74451 -0.93864465 -0.85437924 0.118592165 -0.63409466 1.115942 -0.19066249 0.2399178 0.72557896 -0.39820668 -0.23167075
965 -0.15640154 0.35686976 0.36510798 -0.21339369 0.74049336 0.15603907 -0.7556271 -0.33350953 0.6613965 -0.033033803 -0.5817251 0.25637034 0.01390387 -0.29821602 0.750897 0.8891985 1.013519 -0.68586856 0.61234045 0.2647853
920 -0.60141283 -0.11768059 0.2445068 -0.19142234 0.4342521 0.33102497 -0.0240613 -0.30439383 0.1023916 -0.7009396 -1.4653752 -0.5211648 0.14769427 -0.48352933 1.2239934 0.26364613 0.31280744 0.75532186 -0.2947829 -0.15750903
923 -0.5025418 0.37196818 0.52414685 0.12267567 0.17246903 1.6432014 0.07393738 -0.23571695 -0.338214 -0.7546565 -0.19854417 0.19138667 -0.054742873 0.27136552 0.40135837 -0.29998294 0.2865072 -0.26089862 0.5874433 0.3793032
922 -0.64962953 -0.35550663 -0.6427225 0.6709112 -0.4902945 1.2503302 -0.5789721 -0.6745791 -0.14096463 0.058318894 -1.0224929 -1.1265048 0.57321227 -0.1324301 -0.2336641 0.7211599 -0.27335995 -0.8903224 0.061074708 0.57794213
917 -0.013659717 0.13933724 -0.10502756 0.28197703 0.072580785 0.32913697 -0.41549018 -0.6468324 0.24973173 -0.9014531 -0.063644856 -0.03539844 0.82530504 -0.08144759 -0.50097203 -0.101350896 1.1491873 -0.8868165 -0.03182408 -0.013773396
921 -0.6464501 -0.3632288 0.28023437 -0.2804348 0.085109465 1.3199333 -0.4847418 -0.29892495 0.020003643 -0.5303308 -0.20696229 0.6587801 0.18102215 -0.10175397 0.3286435 -0.21918783 0.60878646 -0.22188106 0.9342641 0.28208527
961 -0.13718599 0.17605326 -0.17077097 -0.3633183 0.112861045 0.44917062 0.040405285 -0.05825112 0.8198156 0.13765362 -1.0408466 0.4062345 -0.6331139 0.1386633 0.91214436 1.113971 1.1662577 -0.65314317 0.6058907 0.54444736
915 -0.09381687 -0.8958261 0.13741882 0.051194023 -0.17328475 1.0377327 -0.2676479 0.11229615 0.8663024 -0.3865247 -1.145909 -0.7173189 0.27079606 0.5385278 0.8463876 -0.47075337 0.25252962 0.13276595 -0.17762773 -0.6775496
912 0.98158526 0.12765464 -0.80897903 0.12667568 0.18183573 0.7659047 0.8892237 -0.3662253 -0.58045024 -0.6808855 -1.2466899 -0.5186219 -0.24273089 -0.33572203 0.61797243 -0.31210643 0.44584584 0.78786117 0.78372186 0.9457439
919 -0.04325485 -0.48557895 -1.0292119 0.15189649 -0.64280915 -0.035431612 -0.5462311 -0.057853255 0.28882173 -0.86738497 0.09481855 -0.97092986 -0.4615159 -0.30585584 0.80751914 -0.25434214 0.54050684 -0.6876208 -0.021249337 -0.09079255
909 0.033931054 -0.059526976 -0.8261333 0.81476045 -1.4320352 0.20234562 -0.19970441 0.020275032 0.5254301 -0.84663814 -0.30101666 0.3217333 -0.08406371 -1.839396 0.6348499 -0.29212818 1.0547351 -0.41770953 -0.27116024 -0.40003014
918 -0.7713158 0.02066494 0.38997415 -0.01891491 0.3649419 1.072252 -0.32014215 0.04208511 -0.86644155 -0.9593912 -0.12645537 -0.6947257 0.32495776 0.15759246 -0.12898837 -0.10306929 0.77138907 -0.28000244 0.7605888 0.039702453
913 0.7603386 -0.5974779 -0.92159075 -0.31528756 0.79305255 0.58497226 -0.11950592 -0.99807495 -0.44723547 -0.84357244 -0.68789405 -0.5252913 -0.24967141 0.17034021 0.7557637 -0.05825059 -0.04992695 0.4093118 0.58338416 0.45837852
914 -0.030124417 1.0199387 -0.2768065 -0.40437007 -0.2915141 1.2470483 -0.21116978 -0.6924296 0.728369 -0.23083621 -0.54469436 -0.6967163 -0.41415197 -0.40755498 -0.05189263 -0.37094846 0.5971721 0.564789 -0.14084165 0.339525
894 0.18163925 0.4361524 0.78167325 0.79352784 0.2725162 -0.065533064 -0.291277 -0.5216421 -0.49164203 -1.4006847 -1.1407156 0.7111055 -1.0599165 -0.10257234 1.1927087 0.6713829 1.0266515 -0.7656422 0.101061 -0.4200733
916 0.054966096 1.1742209 -0.3634868 -0.3284529 -0.81999457 1.1972363 -0.34657475 -0.93554974 0.16497283 0.018059779 -0.24288623 -0.24233896 -0.801689 -0.114816554 0.6667327 0.13323541 0.3206087 0.07040728 -0.16640368 -0.1880652
906 0.18646888 0.36260545 -0.50277436 0.28965864 0.56407994 0.34236962 -0.80188257 -0.68376416 -0.04509854 -0.76968104 0.6751331 -0.28917313 -0.093287535 -0.32983205 0.49234712 0.72905827 0.80295616 0.18297336 0.62231296 -0.68708295
907 -0.23899175 -0.066872366 -0.08463865 -0.010395811 0.63214606 0.5621349 -0.22970772 -0.3490463 0.7799423 -0.97959244 -0.85567385 -0.92080694 0.35460892 -0.11827235 0.6728905 -0.43813947 0.08813052 0.75592655 -0.15339473 -0.10574936
911 -0.4940635 -0.16165042 -0.39003673 0.7315462 -0.17152709 0.8046519 -1.1439168 -0.4113828 0.306161 -0.17160022 -1.063432 -0.66964114 0.69146246 -0.25656998 -0.07422083 1.2184912 -0.2768 -0.32124636 0.03574501 0.11805354
954 -0.5043094 -0.68202645 0.4610992 0.07247133 -0.5503323 0.063304774 0.26438984 -0.6715473 -0.65049416 -1.0221341 -0.09438852 -0.6241232 0.36573377 -0.38484612 0.27739462 0.7271864 0.46260026 -0.5132879 0.6306775 -0.8332129
901 -0.35597473 -0.44076216 0.27680585 -0.06688463 0.35989332 1.1789165 -0.39369816 -0.67763555 -0.97244513 -0.73449934 -0.61724705 0.099328406 -0.19343646 0.073900595 0.13972606 0.040377185 0.5467915 0.29235473 0.9027589 0.39208558
902 0.25871277 0.59214884 0.07745173 0.09153779 -0.639004 0.65023685 0.57962465 -1.0423529 0.3330122 -0.10537157 -1.0813173 -0.7899804 -0.43602717 -0.14506781 -0.4515619 -0.052261766 0.9680275 0.4587513 0.36591977 0.39853862
900 -0.31187484 0.5774854 -0.05198876 0.44951928 -0.2772765 0.46601984 -0.047821816 -0.6735437 0.17328647 0.5765117 -1.1145343 -0.80322284 0.12435201 -1.4065561 -0.02510999 -0.18695389 -0.031352922 -0.71041363 0.9950634 -0.9211902
904 -0.1442613 0.41184402 -0.21919756 0.6532711 0.20967735 0.82535857 -0.48647416 -0.21821919 0.71433717 0.27343112 -0.35966942 -0.5857448 -0.37094337 -0.9049594 -0.025932614 -0.2754558 0.27456772 -0.16269445 1.3231596 -1.3791392
895 0.1931713 0.049575195 -0.26323494 -0.12900703 -0.48737055 0.7574074 -1.1299199 -0.42303294 0.3638945 0.03461551 -1.2454419 -0.87560517 0.5102365 -0.5665968 -0.06274287 1.3215525 -0.39446348 -0.21462199 0.47047687 0.55869913
903 -0.5650912 0.12661874 -0.10751402 0.41342923 0.122537576 0.74764204 0.10036329 0.3097172 0.82440525 -0.2823771 -0.49466977 -0.42997572 0.11176955 -1.6711093 -0.09906431 -0.6963752 0.4539945 -0.9135074 0.98891103 -0.8886421
897 0.87206525 -0.5203208 0.16082612 -0.47870618 0.5470259 0.49144998 -0.23467815 0.06659374 0.03832091 -0.9004327 -1.2013414 -0.6402108 0.15467583 0.16491364 0.793296 0.04579746 0.12538329 -0.014329629 -0.2938467 -0.5489426
905 -0.4592409 0.18181677 0.47653338 -0.42588368 -0.11188059 1.263264 0.08702283 -0.052048087 -0.6394163 -0.5705107 -0.5125848 0.2685825 0.09840783 0.07859485 0.3444279 0.16642593 0.48178008 -0.4604181 1.3080165 0.36780623
896 1.2647583 -0.17010465 0.6419743 0.101448715 -0.26414707 1.2917721 -0.22797827 -1.0705872 0.5961876 -0.055344615 0.38164768 -1.5877655 -0.22179873 0.047283545 0.7039434 0.7475862 0.07484444 -0.28094438 0.66211224 0.39666164
899 -0.58224934 -0.36928686 0.10545741 -0.5053037 0.22944552 0.76644546 -0.37781042 0.07016381 0.19082144 -0.94196945 -0.54542303 -0.6638734 0.20993653 -0.56621486 0.50200987 -0.62706834 0.08343943 0.09127685 0.055827297 -1.0620644
898 -0.15193908 -0.6013269 -0.65042436 -0.7556816 -0.10585075 0.15590619 -0.6899813 -0.15774232 0.54502636 -0.5870139 -0.32878003 -0.5167533 -0.48993576 -0.15993434 0.83921957 0.18216996 0.38168904 -1.1509267 0.030161532 -0.21561076
880 -0.26099926 0.49453613 -0.95891404 0.11520998 -1.1626079 0.13344152 0.39171687 -0.14565618 0.27772722 -0.6002417 -0.9765055 0.33418447 -0.21983378 -1.842483 0.82254714 -0.85529196 1.2314855 -0.83655864 0.01386066 0.015863039
887 -0.031173542 0.18063603 0.35069832 0.6359136 0.5460841 0.58047885 -0.5048634 -0.41892445 0.47867274 -1.042058 0.13314673 -0.34090763 1.093217 0.16129701 -0.186984 0.025084862 1.0152888 -1.2698355 0.07063065 0.16974485
889 -0.081141636 -0.79392505 -1.007424 -0.08623513 -0.1252766 0.77742165 -0.12309098 -0.39250377 0.6072891 -0.46838394 0.31936517 -0.4153052 -0.19627544 -0.23583491 0.772842 -0.27995825 0.25415766 -1.3328474 -0.15238586 -0.24425738
893 -0.3154169 0.025843946 -0.4263233 0.25875834 0.13968563 1.8960301 -0.8244211 -0.16094206 -0.109464005 -0.53173965 0.3478501 0.04890946 0.27243945 0.039471388 -0.12401671 0.23928288 0.046128813 -0.10478198 0.9098186 0.30508682
886 1.0054544 -0.7548128 -0.7811011 0.4481515 0.8871848 0.34516442 0.48161665 -0.65817803 0.36436144 -0.9468884 -0.5980227 -0.63384634 -0.04887412 -0.115372464 0.6201848 0.18513362 0.55403876 0.63422877 1.168301 0.7207503
888 -0.055419493 0.5105225 -0.1570774 0.15031892 0.7335022 0.63471687 -0.3887982 -0.5610276 -0.39247945 0.5510039 -0.9243439 -0.5264509 0.19426835 -0.2817816 0.34411263 -0.10561004 0.03795363 -0.96040106 1.0949967 -1.1909186
892 0.042810734 0.21964991 -0.7371728 0.91503215 0.44328025 0.12834035 -0.1983771 -0.8967507 0.14760496 0.11870053 -0.58513856 -0.05109358 0.96590596 -0.4646064 -0.1469377 -0.4083611 1.1285229 -0.80925256 0.16483918 -0.013164819
885 0.14573549 -0.5216349 -0.39742026 0.16348404 0.6630309 0.69249135 0.6677883 -1.1801535 -0.5707636 -0.49001333 -0.62524074 -0.40404993 -0.07862174 -0.50636005 1.07047 0.19716316 0.35571483 0.75483024 0.19590963 0.81589425
878 0.39391437 -0.3994852 -0.08318884 0.23217487 -0.4273686 0.81360435 -0.9632175 -1.0551313 -1.0525137 -0.16589703 -1.6039685 0.11072584 -0.19074684 -0.3715376 -0.06659947 -0.06929249 1.0365133 0.8508895 1.28107 0.52416784
883 0.2971609 -0.2960693 0.5612181 -0.40156937 0.7017789 0.9957095 -0.9261696 -0.031496122 0.6179831 -0.6462515 -0.98999405 -0.30673254 -0.54789156 0.14561288 0.82359457 0.42416325 0.16382676 0.068411805 -0.2479735 -0.49179447
877 0.28922158 0.89619535 0.09065138 0.6259969 0.27145448 1.2000694 0.09460737 0.5104552 -0.21106382 -0.4893066 -0.64422673 -1.4857227 0.29964694 0.07330986 0.58403486 1.3138417 1.0056164 0.46163458 -0.5004011 -0.5529623
882 0.022830216 -0.7182534 -0.741647 -0.026481451 -0.24572128 0.3160313 -0.7575642 0.094435714 0.017391225 -0.8157091 -0.720433 -0.614443 -0.25070632 0.034056805 0.58574605 0.027340055 0.15056984 -0.9510709 -0.5598716 -0.27072132
874 0.46868718 0.7777668 -1.2167335 0.8604082 -0.907485 1.4980675 0.06168208 -0.19042224 -0.47764602 -0.7705505 0.2864992 -0.06965162 1.5824004 -0.11731699 0.5069769 -0.16428928 0.527252 -0.7888989 -0.3665205 -0.38678887
884 0.14286649 0.46912235 0.215221 -0.14209668 0.43958646 0.75351924 -0.5363329 -0.43150884 0.13453688 -0.2614286 -1.0521885 -0.32270667 0.5492387 -0.043958094 1.0759807 -0.5771351 -0.2923789 -0.011639664 -0.12364344 -1.20229
879 0.13577762 -0.8174776 -1.3257742 0.15975654 0.07686401 0.56971884 -0.5295126 -0.06640482 0.25372607 -0.24990126 -0.07599736 -0.7476693 -0.73779726 -0.3316869 0.6993449 -0.5156931 0.22273526 -0.84655887 0.6005261 -0.086063564
910 -0.8149665 -0.10269009 0.19821903 -0.21329658 -1.143839 0.4992247 0.6109421 -0.89646125 -0.47322035 -1.1887699 -0.43175316 0.08335767 0.32755694 -0.1477603 0.24386108 0.25241607 0.4977123 -0.046499196 0.4708492 -0.4299505
856 0.62149 0.12476439 0.7818494 0.7518414 0.28452036 0.49437818 -0.3579631 -1.144828 -0.40193847 0.13126822 -0.1450038 -1.3016804 -1.296406 -0.55135775 1.3885162 -0.29566374 1.1727756 -1.4055401 -0.26810575 -0.364644
890 -0.4643802 -0.6943208 0.13412511 -0.0079785315 -0.36516178 0.33339787 0.03696292 -0.58533394 -0.3798714 -0.844971 -0.1976608 -0.04510879 0.3873308 -0.7866078 0.11851356 0.39048022 0.580457 -0.23121923 0.12386504 -1.1682863
876 0.6260619 -0.59701467 1.0644908 0.7730864 0.027332237 1.5625453 -0.5327526 -0.5096846 0.67025715 0.140192 0.15126516 -0.7811885 0.07748647 -0.028506588 0.19035889 0.6216582 0.4741111 -0.68486375 0.47898817 0.34918872
873 0.16716217 -0.41144153 -0.572947 -0.7132691 -0.21070437 1.0729394 0.32285047 -0.10650764 1.2671598 -0.7874555 -0.67742854 0.26650652 -0.093808375 -0.3639462 -0.5361302 1.1549916 1.2657369 0.06808088 0.94288456 0.7571984
870 0.8120762 0.6556847 -0.17970306 -0.35735735 -0.10691183 -0.11604872 -0.6099738 -0.34390262 0.24072886 -0.7193466 0.4533411 -0.66982603 -0.12810184 0.02503114 0.5242957 0.6410898 0.64480126 -0.759393 1.0423064 -0.08014493
924 -0.85914594 -0.3048462 -0.2756169 0.52286834 -1.6347106 0.35618743 -0.06375107 -0.6663197 0.49768072 -0.83742416 -0.54805195 -0.08593292 -0.040967215 0.4354541 1.1370656 -0.9142264 0.876391 0.05870662 0.44564384 -0.22312689
861 0.381109 1.3133458 -0.60663855 0.299851 0.53712326 1.4839716 0.4783022 0.37419522 -0.27450985 -0.34489626 -0.42537758 -0.9891626 0.6138041 -0.80441225 -0.023930443 0.5911061 -0.5077935 -0.9889255 0.5974806 -0.9336315
871 -0.12244968 0.38976306 0.120997466 -0.6997326 -0.80548364 1.0374064 0.010904488 -1.109475 0.6599131 0.31511834 -0.5341188 -0.24579614 0.7606017 -0.51445436 0.25622445 -0.013455868 0.79206395 0.14315557 -0.35360762 0.13649365
855 0.29327133 0.3680801 0.8368788 -0.8453419 -0.983573 1.3664286 0.8426424 -0.25165635 -0.1668737 -1.177398 -1.176022 -0.41815734 0.02584219 0.2650895 0.27748898 0.1889214 0.07872996 0.1196255 1.548247 -0.20342295
908 -0.3939701 -0.15688944 -0.16800372 -0.6027457 0.40336916 0.44372806 0.01563063 -0.8087746 0.6596859 0.68957615 -0.5690806 0.07684039 -0.57923627 -0.79853386 1.0925268 0.61135983 1.0347188 -0.5308216 0.40541726 0.061845146
865 0.4064495 0.80958503 0.16057223 0.40407786 0.58221465 -0.45923388 -0.63648677 -0.4765239 -0.48078468 -1.5048944 -1.7422266 0.4718259 -0.41044044 -0.37787995 0.6241421 0.50607085 0.90537953 -0.64283293 -0.2038339 0.08697901
872 -0.113822415 1.2500129 -0.16700521 0.2237345 -0.22320612 0.5567886 0.183271 -1.2120541 0.068452604 0.10572273 -0.60633516 -0.47461075 -0.21817903 -0.67862594 0.011797808 -0.28722066 0.46466202 -0.31611222 0.008386509 -0.064464204
867 1.476594 -0.85580593 -0.676098 0.20184757 -0.5113299 1.2043288 -0.7101699 -1.1588992 -0.32366818 -0.08794406 -1.0454172 0.577786 -0.2795517 -0.74332553 -0.5099493 -0.16423167 1.0927517 0.7647038 0.98858434 -0.096106365
862 0.4299757 -0.10852637 0.17563754 -0.040487424 -1.0740763 1.2612503 0.9161686 0.4524603 0.46167395 -1.2137035 -1.6499336 0.13116455 -0.1302545 0.12337022 0.4386104 -0.41603303 -0.009223397 0.13000348 1.6213617 -0.66239935
875 -0.28269994 0.804396 -0.18316187 -0.09355792 -0.16346067 0.995069 0.3313936 -0.64749247 -0.13773617 -0.16494757 -0.71631557 -0.4597552 -0.35630906 -0.7550464 0.21957205 -0.76592475 0.66602224 0.082014434 0.059777122 0.7940251
869 0.26365408 -0.16875939 -0.14081736 -0.50791407 -0.26504236 0.55298144 -0.53044003 0.42971563 0.39403847 -0.46875924 -1.4446716 -0.38047245 0.15553203 -0.3783348 1.0740325 -0.07825063 -0.15767458 0.019011542 -0.2706141 -0.23119965
864 0.23646508 -0.7436029 -0.5252627 -0.7337003 -0.248582 0.6590601 -0.31596255 0.36903578 0.55905205 -0.8982158 -0.21135437 -1.0772157 -0.7722958 0.023284422 -0.034628037 0.12980631 1.0017806 -0.6242175 -0.06367208 -0.1718217
863 -0.18502434 0.1388819 -0.18451484 1.3238186 0.71510375 0.12501547 0.28164688 -0.35655877 -0.15573686 0.463533 -1.079369 -0.7458501 0.67916876 -0.488588 0.75344324 -0.13508438 0.2746562 -1.3445737 1.0512118 -0.8168325
891 -0.046885066 -0.8400233 -1.0523672 0.10978874 -0.5911127 0.70023423 -0.3015307 -0.258037 -0.16767289 -0.38706526 -1.1990474 -0.7716635 0.3986176 -0.39258787 -0.24465598 1.2186222 -0.18558365 -0.34642467 0.37432167 0.6595089
881 -0.17288555 0.68838036 -0.38572797 -0.23916924 0.37367702 0.40121174 -0.33204836 -0.23948258 0.7405162 0.4933406 -0.7058592 -0.031821202 -0.32997563 -0.6611779 0.77650464 1.0433522 0.67233974 -0.40151784 0.8677537 0.26327103
860 -0.11359781 0.030234486 -0.09759879 0.6250282 0.03399211 0.87775505 -0.372626 -0.7121418 0.3107405 -1.0166721 -0.36711922 0.64880383 0.49621814 -0.47735643 -0.48888436 0.07603292 0.95988536 -0.7630005 -0.40186682 0.6350017
868 -0.25935885 -0.04133502 0.025474492 -0.13897981 -0.33282527 1.3834046 0.11980234 0.15034422 -0.43820402 -0.5533736 -0.18856056 -0.103268065 -0.2923866 0.10406859 -0.006545483 -0.63830787 0.7602824 -0.41232148 1.0951028 0.32499576
858 -0.1343226 0.19378874 0.17233971 0.5327411 0.1582927 0.11274941 -0.13096197 -0.22739325 -0.11373054 -0.066606425 -0.5514747 -0.40628427 0.31092286 -0.9339591 -0.0021134687 -0.15733644 0.8227784 -0.7520489 1.1978415 -1.808248
866 0.19591293 -0.52024794 0.23518384 -0.560072 -0.5196803 0.4906874 -0.96626323 -0.28707322 0.2753601 -0.6341904 -1.2591165 -0.2632877 -0.28812224 -0.2104081 0.29280174 -0.39371577 0.2914248 0.41247347 0.24218486 -1.2519941
859 1.0457962 0.40248793 -0.0011138652 0.24106322 -0.107153505 0.9307788 -0.19409142 0.73986536 -0.6615975 -0.59567136 -0.9977578 -1.0815893 0.4373665 0.26138183 0.7218934 0.49011463 1.0625788 0.51640064 -0.58238417 -0.53355616
857 0.8258885 -0.029354516 0.038027156 -0.65129185 -0.11771917 0.5765385 -0.4802053 -0.12606278 0.5464892 -0.70377296 -0.8147949 -0.19703865 0.07790851 0.37613195 0.45553797 -0.1995477 0.1341032 -0.05870395 0.20195599 -1.3887515
845 -0.28168777 -0.6139537 -0.053430285 -0.4996878 -0.8665846 0.540217 0.4135034 -0.8706741 0.0033033446 -1.0937518 -0.30609822 0.20899858 0.41469944 -0.29963407 -0.3236741 0.78049344 0.78491694 -0.39808723 0.2776135 -0.77705294
854 0.3263122 0.49936253 -0.59673756 -0.19795014 -0.16242203 -0.41865692 -0.7406297 -0.40817836 0.13293904 -0.430709 0.15363096 -0.76250774 0.1420283 -0.5002906 0.42672205 0.5982678 0.79007715 -0.3110456 1.0075907 -0.8293816
848 0.05481952 -0.36563572 0.64940625 -0.10497415 0.5251497 0.6809845 -0.07781928 -0.013705521 0.22334899 -1.1095247 -1.0021346 -0.6471287 0.34833857 -0.6550684 0.5169144 0.45835584 -0.6123421 -0.23711869 -0.054146234 -0.75476754
849 -0.6207165 -0.61936265 -0.9632863 -0.5420575 0.45900205 1.1380316 -0.118351564 0.6761354 0.93172103 -0.28202888 -1.1887332 -0.74719054 1.0231956 0.6783861 1.0616987 -0.12021388 0.6758816 -0.23689017 0.36694312 -0.052706867
831 -0.18001907 0.6249535 -0.4162163 0.553958 -0.13518909 1.6885195 0.17579298 0.044735298 -0.41126907 -1.2532995 -0.085343055 0.72655636 1.2865828 0.11517507 0.8496232 -0.023896543 0.17327678 -1.5902326 -0.20349388 -0.028038207
851 -0.37580475 1.1692868 -0.4441098 -0.16657919 -0.39735004 1.3639896 -0.1510024 -1.1464132 0.07399251 -0.09145533 -0.014742997 -0.5955392 -0.44812247 -0.32342476 0.3679614 -0.32851365 0.60702646 0.25329623 -0.32546327 0.16083139
843 -0.47171864 0.18041033 0.13053845 1.2007803 0.19484876 0.60646874 -0.66023844 -0.6016963 0.52198946 -0.32416677 -0.81340736 -0.023333075 0.8828364 0.27464727 -0.25881165 0.14374848 0.6662246 -0.55582494 -0.09184626 0.063359074
844 1.1248174 1.0321249 -0.6215774 0.29178968 0.38967177 1.1643069 0.07824548 0.5973634 -0.7722204 -0.3189839 -0.5746104 -0.9455927 0.24601325 -0.17249976 0.18137164 0.9707363 0.7228272 -0.09797324 -0.25122324 -0.5742234
829 -0.24158756 -0.054648463 -0.7359095 0.28360763 -1.196139 1.6133074 0.13227914 -0.25885484 -0.36001605 -0.86897135 0.06734911 -0.6771592 2.198623 -0.4497351 0.53098136 0.20161068 -0.041936673 -1.0224661 -0.072036274 -0.09166184
853 0.34778184 -0.93994015 0.6704587 -0.6005667 0.31537524 0.81283414 -0.09870974 0.041005034 0.57309467 -0.72695166 -0.80945855 -1.1361417 -0.13967492 0.21017912 0.5561952 -0.015990317 0.47205272 0.08986977 -0.049228396 -0.18547335
850 0.78390235 -0.41166028 -0.70743454 -0.12218824 0.188419 0.776232 0.0652105 -0.9141347 -0.51569545 0.022018932 -0.39126715 -0.6811666 0.035509787 -0.20209019 0.6428477 -0.98649985 0.60330814 0.076338895 0.49610665 0.842593
847 0.34846944 0.5593545 -1.2200731 -0.17349882 0.5513443 0.47510505 -0.73218876 -0.4646566 0.25209346 -1.3598236 -0.11800192 0.153042 -0.15557195 0.045997366 0.30866277 0.290176 0.21541199 0.62895465 0.8557504 -0.063612975
852 -1.2073809 -0.18890864 -0.14260933 0.51534534 -0.16676426 1.4607725 -0.34756646 -0.26924342 0.2607626 -0.686101 0.18291903 0.1580841 -0.0040782467 0.03965372 0.46097007 0.13986932 0.41181982 0.25441858 1.1189651 0.29733616
839 0.96426773 -0.13304166 -0.9844757 -0.05405585 -0.1410805 0.9799565 0.24533059 -0.72873884 -0.71395916 -0.010344081 -0.8470934 -0.094197184 -0.064050846 0.017838473 0.90350854 -0.25769797 0.05107197 0.21272543 0.8983213 0.92463833
834 0.70200557 0.27313817 -0.62338126 0.22290784 -0.060784403 0.15251096 -0.877291 -0.843309 0.52525055 -0.4875569 0.6723115 -1.1507814 -0.027131539 -0.34726292 0.49275008 0.5681666 0.49572393 0.06905556 0.25750157 -0.19111542
832 0.02900157 0.78588 -0.15373677 -0.01029417 0.6727519 -0.18582094 -0.68463653 -0.67440224 0.5264715 -1.1088696 0.177949 -0.6797105 0.42316884 0.0740083 0.33922306 0.6833823 0.5616479 -0.7268202 0.78907275 0.10788847
840 -0.5811944 -0.27638444 0.252161 -0.2245541 -0.480387 0.36221665 -0.06406233 -0.88193905 -0.8750375 -1.1222396 -0.10240644 -0.069621086 0.40426317 -0.6022924 0.21703492 0.61297643 0.5944501 0.07683596 0.45009115 -0.5160713
827 0.7130962 -0.83210814 -0.42893314 0.16564901 -1.147788 0.7180339 -1.6497043 -1.2228575 -0.8664852 0.09381693 -1.618528 0.13102296 -0.24901879 -0.7664023 -0.10816366 0.4697648 0.7106058 0.26398697 0.8588748 -0.17673352
823 0.56216705 0.5728602 -0.49608597 0.45423552 0.60956806 -0.410409 -0.11789736 -0.64706904 0.44700778 -1.7372599 -0.26162556 -0.72180843 0.13042857 -0.06979166 0.55585 0.6351852 0.17045003 0.062376004 0.61838406 0.32349712
819 -0.108274855 -0.16595027 -0.58282334 0.56388533 -0.04724921 -0.39680064 0.31415755 -0.2583965 -0.51758814 -0.9754037 -0.64703804 -1.6928235 0.36323962 0.98998874 1.1810045 0.55175304 1.0602963 -1.2565206 0.69770867 -0.8744956
825 0.3133266 0.7192895 -0.21854042 0.4196184 0.17851791 1.0270511 -0.09668727 -0.19902702 0.53979903 -0.42157382 -0.52251786 0.122925326 0.6628988 -0.07606759 -0.46216184 -0.03508166 1.2597467 -0.6243965 -0.601723 0.04581714
820 0.32650477 0.16823421 0.30337662 -0.38453355 0.53041375 0.6623369 -0.019034488 -0.4120527 0.8346044 0.5964587 -0.59977686 0.12689808 -0.07505138 -0.4035834 1.1910131 1.1006788 0.5135986 -0.94926715 0.89405113 0.13231754
846 -0.43992212 -0.75639755 -1.34366 -0.018085295 0.8290999 0.94622153 0.021222452 0.24025536 0.75702786 -0.871316 -0.8644958 -0.52606493 1.0468185 0.34109643 0.77393484 -0.32213593 0.9010583 0.029007338 -0.33228368 0.5893676
838 0.27655467 0.59774387 -1.1099237 0.029987354 -0.073120974 -0.16728272 -0.49775687 -0.9222708 -0.023937518 -0.41498676 0.11098896 -0.7719687 0.084497795 -0.570643 0.064664595 0.19081834 0.7943595 -0.23779207 0.08163309 -0.02716776
837 0.3660191 -0.3540096 -0.38606083 0.5364633 -0.05881324 -0.32282138 0.43033397 -0.15619148 -0.075137 -0.7800086 -1.5048304 -1.3368192 0.9775147 1.2605578 0.787175 0.3027995 1.43784 -1.3083675 0.60578305 -0.84320676
821 -0.2944841 1.318588 -0.6498705 -0.0006078313 -0.62490135 0.96572757 0.19078538 -1.3382727 0.5245282 -0.20499635 -0.43405563 -0.35555983 -0.49470848 0.74212044 0.72394985 0.367301 -0.060691047 -0.24830206 0.4069266 0.093034595
842 0.5121592 -0.3416981 -0.51353365 0.76334697 -0.47870472 0.19356117 -0.087560505 0.011307214 0.31367466 -0.78464925 -0.4105653 0.28105608 0.46466628 -0.7063277 -0.40342048 -0.10494396 1.2885602 -0.9325019 -0.17752144 -0.13044846
833 0.35112718 -1.1514981 -0.45606694 0.7021369 0.23331314 -0.3539604 0.6951544 -0.25431654 -0.097315915 -0.5081199 -1.2000383 -1.7086221 0.6585003 0.7603925 1.6557057 0.5781742 1.2738928 -0.6512081 1.0709842 -0.5369386
841 -0.2167506 0.79183364 -0.54413724 -0.21421053 0.61695457 0.036799755 -0.6951066 -0.64765114 -0.18152086 -0.988631 0.016474944 -0.68418807 0.5792134 0.19972353 -0.11723098 0.26362768 0.7687108 -0.4594699 0.95197684 -0.37342882
815 0.2838133 0.42307612 0.39036426 -0.81946063 -0.977023 1.6253523 1.048457 -0.16322893 0.09509365 -1.6256799 -1.4328221 0.050772425 0.27443513 -0.30645028 0.11644021 -0.7994701 0.22794163 0.18229693 1.3090111 -0.017861517
830 0.22907318 1.204108 0.044304673 -0.37665266 -0.56057155 1.2954953 -0.19404982 -0.48111996 0.43935165 -0.23290546 -0.7597014 -0.14633214 -0.24728785 -0.15301287 0.048701998 -0.46381876 0.64858156 -0.18385394 -0.61762744 0.053643726
808 -0.20135438 -0.24944149 -0.7078854 -0.5661782 -0.35086286 0.48309773 0.02150259 -0.14293559 0.4068155 -0.19432339 -0.088287875 -0.8698259 -0.4449923 -0.3889309 0.6691794 -0.011730523 0.45257598 -1.2243025 -0.10118105 0.21051547
824 0.08997165 0.47026765 -0.23959905 -0.00093897886 0.44603837 0.20867415 -0.9230645 -0.6673384 -0.038324945 -0.70146334 0.2698746 -0.1437583 -0.039832756 0.1398111 0.65083253 1.192968 0.8467863 0.039849523 0.61286134 -0.20176488
794 0.032397438 0.17886426 -0.81224096 0.008414725 0.035895962 0.96518457 1.0748243 -0.35259184 0.35944504 -1.202775 0.3845159 -0.68389624 2.6349711 -1.4386263 1.3851312 0.1736635 0.82163286 -0.59906894 0.7490865 0.77862245
806 0.46061492 -0.4484786 -0.10311241 0.42246163 0.19347331 2.5194075 -0.49214032 -0.5270374 0.54582363 -0.3850783 -0.055357188 0.32271487 -0.919443 -0.9342647 0.24918257 0.53104705 0.14879982 -0.00223193 -0.8456051 -0.70944095
836 1.0181978 0.15186834 1.4276627 0.5278759 0.18505242 0.9486518 -0.4849017 -0.7506622 -0.05425662 -0.29189858 0.586604 -1.2686485 -0.4328404 -0.058563508 0.8545545 0.47416723 0.8497386 -0.9831332 0.70964336 0.230483
805 0.20055681 0.07084588 0.24164952 0.41096786 0.48142937 0.045832865 0.08372921 -0.48482263 0.67445284 -1.3951454 -0.30585438 -0.29702926 1.4506551 -0.48535693 -0.033115353 -0.43076882 0.9833682 -0.75899446 -0.10574443 0.12738575
826 -0.10005953 -0.015272101 -0.66688615 0.3843577 -0.32189056 1.7279273 -0.978637 -0.022179585 -0.28054357 -0.15952806 -0.8531561 -0.636858 0.6225315 -0.35035655 -0.3662053 0.8912805 -0.64174235 -0.45559168 0.8040991 0.5109953
813 0.54166776 -0.80898416 0.12960537 0.2249389 -0.9892605 1.065394 -1.0830861 -1.2357951 -0.9569645 -0.06690987 -1.0328681 0.57296205 -0.45826858 -0.57150584 0.37152103 0.2710523 0.8127753 0.59847367 1.3531958 -0.5247842
818 0.14571913 0.8373356 -0.3058735 -0.08147817 0.87638843 1.2987592 0.5446072 -0.69942546 -0.07019926 0.35153037 -1.0294132 -0.034237206 0.118225954 -0.804601 -0.022923961 0.4713076 -0.14260985 -1.4091831 0.40423715 -1.1007586
835 -0.91615456 -0.11876265 -0.08076669 0.5158472 -0.97225857 0.50845665 -0.105738245 -0.40058506 1.3142209 -0.80908215 -0.36740646 -0.31830508 0.045606293 0.6150958 1.3293903 -0.4645522 0.6416357 0.24017903 0.8191546 0.14792694
804 0.8724408 -0.51406837 -0.34281668 0.713453 -0.31989375 0.6472795 -0.13075915 -0.43028677 0.11225341 -0.520781 -0.11008921 0.37392458 0.0880026 -0.0063456446 -0.18583997 0.28868264 1.1858072 -1.0430012 -0.42672145 -0.28352118
810 -0.13214329 0.39367145 0.76645786 0.29886198 0.15894845 1.5079597 -0.43756533 -0.5387874 -0.41570494 -0.19860423 0.17326194 -0.38513342 -0.3305062 0.22237486 0.42718533 0.08448085 0.5671748 -0.41013524 0.8696504 0.5556049
816 -0.04972052 1.3595462 -1.0671512 0.260334 -0.22341116 0.46733776 -0.46270677 -0.83325267 -0.1545365 -0.8314698 0.3711753 -0.5900517 0.3763728 -0.089748666 0.41966242 -0.0335558 0.65512717 0.5097001 0.32270446 -0.37241197
811 0.14291918 -0.45366773 -0.5911244 -0.7015301 -0.35007572 0.75733215 -0.42946327 -0.39060852 0.4271907 -0.35056067 -0.32698226 -0.78468806 -0.632348 -0.05789135 0.04035001 -0.24195111 0.836017 -1.0921619 -0.59757644 -0.17898685
809 -0.13226475 0.9026183 -0.38197428 0.32349285 -0.83722603 1.1195436 -0.1798945 -0.5179931 0.5106031 0.56721437 -0.5354099 -0.6127006 -0.46812358 -1.1679398 0.07654101 -0.24081858 0.2599987 0.0250285 0.08714894 -0.16599806
822 -0.5376073 0.4613078 -0.8346947 0.32285506 -1.4460292 0.13917692 -0.16769832 -0.8128644 1.4345169 -0.4827803 -0.34175676 -0.36136314 -0.024030978 0.5004718 1.2282315 -0.14107439 0.6951187 0.11947842 0.8316394 0.15755111
814 -0.18163432 -0.55105114 -0.07534828 0.78451455 -0.11529926 -0.36584154 0.8292243 -0.41191983 -0.5759553 -0.33516172 -1.0769308 -1.2951195 0.8834979 0.31995055 1.1778842 0.5653223 0.8459474 -1.0722753 1.1101983 -1.1274794
803 0.7165686 -0.55880237 0.2564146 0.3132904 -0.6386816 0.6615771 -1.1387597 -1.1444995 -0.78409 -0.5175289 -0.91555935 0.6291243 0.055699974 0.00581089 0.49472812 0.19201522 1.2236235 1.04176 0.9660027 -0.36578944
783 0.3753646 0.28311962 0.6962839 2.1616929 -0.52236515 1.3234668 0.73786443 -1.032111 0.4799305 -0.903731 -0.60938835 -0.47651532 -0.5173219 -0.7810698 -0.01865276 0.35894814 -0.5047351 -0.47746882 0.9618327 -0.036295123
450 3.2694814 -0.8069995 -1.5154489 0.9772585 0.33137348 2.822142 1.0182549 -0.8258345 -0.242591 -1.3295542 0.26275253 -1.2366438 0.44852945 -2.6176298 2.2990043 -0.98689467 1.8523262 -0.04029006 0.23453139 -3.0661535
786 -0.038979426 -0.035845913 0.039296225 0.20928098 0.10430781 0.67365617 0.017840791 -0.09386303 0.32259923 -0.46809182 -1.6196463 -0.6464156 -0.19366656 -0.0466138 0.96870583 -0.22138606 -0.19511458 0.32362953 -0.48577172 -0.008366431
817 -0.53316236 0.0042237295 -0.44260797 -0.050656043 0.01485484 0.9441186 -0.5082895 0.26441613 -0.65646446 -0.77731913 0.2521696 -0.27260417 -0.30188993 -0.22127731 0.31495854 -0.40230584 1.0005319 -0.24104106 1.0062327 0.414214
796 0.5923734 -0.09246779 0.22423747 -0.6582708 -1.1179652 1.3489757 0.87584585 0.19852158 0.3795332 -1.6511911 -1.4662573 -0.61702925 0.1163308 -0.11960998 -0.34307042 -0.2603174 0.57434934 0.5901689 1.7044322 -0.101684384
775 -0.101537764 0.28138915 -0.48172954 0.4745272 -0.15598927 1.8604054 -0.16394196 -0.33697185 0.564377 -0.98787445 0.47524098 -0.07750576 1.8150902 -0.28928554 0.47039697 -0.31471258 -0.07182843 -1.5170833 0.025565738 -0.08666153
790 0.03484532 0.06151768 0.12768954 -0.5614986 -0.041021556 0.96199065 0.87740046 -1.5002682 0.3284365 0.5793944 -0.702048 -0.789571 -0.4137714 -0.6390959 0.34978488 -0.07873955 0.7848974 -0.11102049 0.18118687 0.24950631
776 -0.059892315 -0.31532702 -0.51757175 0.0698817 -0.058829986 0.43612772 -0.79290515 -0.16833512 0.15445387 -0.6238985 -0.22516298 -0.49721712 -0.18484144 0.2453396 0.20049414 -0.16921704 0.7981988 -1.5809237 -0.44374752 -0.14806408
385 3.1732879 -0.81244403 -1.4118837 0.76714784 0.40436774 2.7753406 1.1110682 -0.7794823 -0.2715759 -1.3508962 0.31079543 -1.3052537 0.48006797 -2.7403953 2.2425728 -1.0106368 1.9252484 -0.081074655 0.2609663 -3.0442607
782 0.82000554 -0.2546092 0.15856984 -0.47576192 -0.9016782 0.8247176 -1.3951244 -1.3434869 -0.119186066 0.33111203 -1.8032207 0.40569204 -0.77307796 -0.54810095 0.25109166 -0.20209368 0.89528525 0.4719145 0.6294796 -0.6699128
800 0.18168285 0.3467864 0.11957785 -0.63074833 0.49740368 1.0528593 -0.38881224 -0.37015817 0.48241797 -0.3054583 -1.2564135 -0.8101775 0.70546037 0.28484386 0.49430683 0.15450606 -0.35477668 0.14567213 0.26090887 -1.3031216
784 0.04358121 -0.22631486 0.133793 0.5971165 0.40736714 0.6523216 -0.3391278 -0.32790354 1.1064161 0.44481912 -1.0714447 -0.5374475 0.21764983 -0.63926595 0.06471467 -0.2085617 0.5907632 -0.43471688 1.4557757 -1.7631744
791 -0.022109412 0.12249745 -0.8545362 -0.14603674 -0.5303399 1.9322942 -0.55967844 0.077134155 0.044808563 -0.885219 0.83046925 -0.5006468 1.3455837 -0.24122782 0.7281883 -0.28059435 -0.08834099 -0.84343123 0.015785806 0.11860392
789 1.0223225 -0.69557613 -0.14115849 0.9081487 0.6009051 0.5970829 0.10144747 -0.88695776 0.858639 -0.5333436 -1.0455028 0.18799202 0.64324677 -0.122019835 -0.3254767 -0.19070032 0.6076644 -0.6548249 -0.15468478 0.1240519
787 1.0381899 -0.3992537 1.0877804 -0.030221349 0.41116583 1.4137453 -0.24766746 -0.8046286 0.7670576 0.16939113 0.03737991 -0.4561479 0.35339004 0.023140082 1.6149944 0.7205605 -0.23310687 -0.5921799 0.73812294 0.03999216
799 -0.28688952 0.013573572 0.049783543 -0.5039202 -0.073232956 0.31048405 -0.36339417 -0.27229142 0.377399 0.18056695 -1.0083339 0.11404287 0.35992372 -0.77138036 0.6050572 1.5163966 0.55377686 -0.70691746 0.59236735 0.4636214
774 1.3012108 -0.87066704 0.681722 0.46426407 -0.92555904 1.207443 -0.22313799 -0.1697988 0.17387307 -0.091791295 0.3418102 -1.4201531 0.008974455 -0.4229379 0.6221804 0.45258653 0.7558819 -0.30861223 0.1123851 0.32255983
807 -0.39349192 -0.1064762 -1.3941596 0.27826297 0.27732265 1.6512425 -0.034909293 0.83819276 -0.007039343 -0.45945778 -0.6198778 -0.39507458 1.138198 1.0106359 1.0561724 0.14836597 0.66083753 -0.19848956 -0.068587966 0.26185077
802 0.055945817 0.4557266 0.1419149 -0.90536547 -1.054103 1.1508452 1.0408556 -1.0398338 0.09591797 -0.24341045 -0.7530366 -0.3870536 0.3689 -0.57132035 -0.051079158 -0.28772652 0.5957352 0.16859654 0.20348337 -0.06760259
828 -0.7655945 0.18849188 -0.8610826 0.598842 -1.4340417 0.45985484 -0.15676379 -0.49029338 0.94621533 -0.53401226 -0.3204504 -0.7435064 -0.31828752 0.53736997 1.2266841 -0.6938139 0.7908745 -0.15247935 0.29804665 0.19483384
778 1.3873935 -1.0225697 -0.78531 -0.055818256 0.16910107 0.96827024 0.28287068 -0.93669343 -0.27604374 -0.38665393 -0.25357383 -0.19627334 -0.28048286 0.050308652 1.4954813 0.22043993 -0.10207401 -0.36919662 0.54927623 0.8639287
777 -0.07070534 0.32367662 -0.94790965 0.9767543 1.0156363 -0.020747697 0.791139 -0.5883478 0.44019172 -2.5900745 -1.0108654 0.642869 0.066649705 -0.11334594 0.36666614 1.1752257 1.857112 -0.041650683 0.37413773 -0.37104324
798 -0.7519018 -0.36303225 -0.10443772 0.55803454 -0.13023001 1.0835098 -0.7027188 -0.23598523 -0.72718465 -0.5938454 -0.36035642 -0.7390379 -0.13352022 0.116876416 -0.114527985 0.017139679 0.30310905 -0.61443526 0.71639407 0.9162358
780 -0.4126794 -0.46934822 -0.5258852 0.40546423 0.5327604 0.8205738 -0.2596331 -0.21615838 0.8841225 -0.16792962 -0.4952554 -0.509822 -0.44329312 -0.8664404 -0.09579562 -0.6773868 0.027298786 -1.0166389 1.6365443 -0.64122874
781 0.7717381 -0.3281903 -0.12685527 0.44908938 -0.0045983945 0.39587322 -0.21514398 -0.6166897 0.71107656 -0.6009334 -0.84206814 0.25913343 0.40988904 -0.23756723 -0.21414673 -0.3884302 0.46395543 -0.8841374 -0.5047575 -0.12667227
737 0.3137729 0.32749316 -0.8487172 -0.10503863 0.17829211 0.7320094 0.8275776 -0.6306606 -0.7047065 -1.2085835 0.6997005 -0.26241094 1.7608964 -1.3679538 1.3382562 0.57839733 1.2569097 0.18546274 0.70926994 0.16577356
801 0.47329092 0.62062275 -0.23074274 0.680866 -0.30728796 1.0574397 -0.2355141 -0.51666766 0.67514384 -0.18699594 -0.7640273 0.36755252 0.81534415 -0.36398667 -0.49946788 -0.08665375 0.749485 -0.6124954 -0.37223357 0.2860494
797 0.9152787 -0.07711613 1.799351 0.33558348 0.2263876 1.4207742 -0.39299348 -0.56329215 0.17543487 -0.62803686 0.42945635 -0.90709627 0.43660223 0.13551307 0.8309167 0.44668376 0.6556111 -1.050289 0.5203331 0.32053378
785 0.012674094 1.0195448 -1.1693097 0.125227 0.5520768 -0.011239697 -1.033321 -0.7745497 -0.057294626 -0.8280961 -0.18246649 -0.24365695 0.083952464 -0.45107096 0.27209875 0.4813163 0.50310016 -0.47669527 -0.186547 -0.22773208
793 -0.047166515 0.7054846 0.098719865 0.36520275 0.41659942 1.2733939 0.08659328 1.1469767 -0.34774554 -0.47477695 -0.9172249 -0.15775257 0.08279107 -0.80250335 0.36499476 -0.23376958 0.15022741 -0.6053231 1.2800641 -1.3078636
792 0.076928325 -0.96608603 -0.5984968 0.26337668 -0.091670126 0.3862736 -0.74625945 -0.2681447 -0.239218 -0.8807903 -0.4736982 -0.973095 -0.8203851 0.23033455 0.30962324 -0.021463845 0.48332518 -0.80249125 -0.095404044 0.5738762
754 0.41895756 0.70219445 0.023627356 2.3407164 -0.7883663 1.0133677 0.035247855 -0.9462491 0.01842251 -1.458459 -0.13922672 -0.18835229 -0.029656466 -1.0357639 -0.53303325 0.3539097 0.1190706 -0.31416017 0.60174626 0.07128269
779 0.20740436 0.28397423 0.040692143 0.5219419 -0.4412116 0.76518595 0.568971 0.8709111 0.5626824 -0.45356688 -1.1855035 0.21010217 0.122514814 -1.0228348 0.1908772 0.026878327 0.037009005 -0.86071527 1.9212059 -0.64108807
812 -1.0700699 0.1037254 -0.9701785 0.6263832 -0.8977631 0.57908 -0.17579988 -0.23028956 1.1883067 -0.95595646 -0.9888502 -0.22335926 0.05706694 0.75705785 1.4259697 -0.5277376 0.3224129 0.3093482 0.3348375 -0.0019411226
773 0.29030934 -0.45131096 -0.47035876 0.44239098 -0.17419177 0.4266419 -0.3297798 0.10533024 0.031774737 -0.8560452 -0.60446584 -0.41470763 -1.2343508 0.0022765596 0.33219856 0.12682924 -0.090231426 -1.4957092 0.23976664 -0.6022678
772 -0.13323234 0.04553892 -0.17323121 -0.60191125 0.5690752 0.56442 -0.13466392 0.22672921 0.9004888 0.10907852 -0.91836244 0.3119633 0.6216808 -0.034054026 1.4336219 0.5261645 0.5060194 -0.4309022 0.7014244 0.11301784
760 0.030211922 0.4530758 0.081893265 -0.11278442 -0.021054056 0.5246216 0.5861561 -1.4484128 0.24366781 0.10707863 -0.8011743 -0.7724758 -0.3985732 -0.28023383 -0.27120605 -0.17178594 1.1429154 -0.6982618 -0.38770077 0.048624672
768 0.2611759 0.26083073 -0.6791865 -0.11873945 0.52560043 0.72523415 0.13248336 -0.81147015 0.051033325 -0.18847051 -0.6495327 0.6074751 0.3881051 -0.68181443 -0.3117924 -0.23490077 0.7787383 -1.740255 -0.32270113 -0.82651687
795 0.27882907 1.2735531 0.31472206 0.6514052 -0.88522947 0.81205857 -0.06303134 -1.0179746 -0.08683272 0.29160842 -0.73569703 -0.30347875 -0.07331044 -0.10669081 0.25576925 -0.5758622 0.6235466 -0.7708609 -0.045663066 0.30884996
763 1.0739144 0.18959185 -0.3553173 0.69078916 -0.05040746 -0.052339997 -0.62822473 -0.7548798 0.14113936 -0.44254717 -0.37821934 0.31190163 1.0392039 -0.15919444 0.21186239 -0.16258077 0.8164964 -0.56252813 0.14608878 0.26045424
741 -0.00048487374 0.3607278 -0.24511258 1.2191972 1.1449248 0.81859416 -0.06309876 -0.43514216 -0.6880909 0.1891003 -0.982366 -1.0600436 -0.025790075 -0.4623013 0.3256852 -0.6584851 -0.065327644 -0.7965 1.4328444 -0.43971223
753 -0.1755256 0.7169659 -0.20351769 -0.8467513 -0.6761343 1.1203808 0.03690921 -0.8436896 0.23245592 -0.24660943 -0.49702677 -0.98264474 -0.5494343 -0.104764774 -0.09044763 -0.2657512 0.7030545 -0.54657 -0.56367236 0.088795476
735 0.15344957 0.97255844 -0.16101062 0.25943953 0.67106175 -0.31426018 0.1842489 -0.3960716 -0.07963042 -1.97049 -1.2670211 0.62205684 -0.99971265 -0.11734261 0.99527806 0.91429865 1.6241827 -0.41907635 0.192745 -0.30776832
742 0.9938434 0.15286528 0.2057423 -0.5792248 -0.35249102 1.0963703 1.0834134 0.39739352 -0.08612215 -1.4202852 -1.5693377 -0.29141894 -0.2354067 -0.11954676 0.5814281 -0.4039144 0.25416714 0.50329024 1.2919469 -0.03742434
748 -0.6294593 0.070542924 -1.4346703 0.4804393 -0.5910332 0.51615316 -0.816547 -0.1889844 0.29857475 -0.5923746 -1.2707392 -0.9337884 0.9484701 0.20227395 0.17325622 1.0251167 -0.30896133 -0.26295584 0.39416918 0.53570557
766 0.56218106 0.4648844 -0.47824022 0.43650383 0.25069466 0.83995616 -0.3608772 0.24446878 -0.06446727 -0.001148447 -0.56624556 -1.2722679 0.68278015 0.16115762 0.59756434 0.7446303 1.2198302 0.9085099 -0.23676476 -0.81076515
761 0.73914075 -0.30129084 -0.5222118 0.78164726 0.95740366 0.8128226 0.5901154 -0.24546592 -0.2762451 -0.13461569 -1.9244392 -1.0810568 -0.17935094 -0.22913998 0.77267283 -0.3577291 0.06824028 0.37668696 0.24339113 0.5213069
698 0.81338507 1.3064637 0.37597102 -0.25219533 -0.8873138 0.35529646 0.6596024 -1.9059583 0.59360987 -2.2207336 -1.3981612 -1.7514762 0.31239778 -1.3233961 1.2570773 -0.5396324 -0.5826984 -1.1170546 -0.33718783 0.35817885
734 0.20453702 0.4279458 -0.38647792 -0.09650211 0.07971189 -0.10182359 -1.0948063 -0.51741886 0.84836364 -0.42842436 0.219294 -1.3217388 0.3820044 -0.8626997 0.6500559 0.5794555 0.67034876 0.39019036 0.348918 -0.44904503
750 0.9860005 -0.3557655 -0.19174105 0.71897125 0.7480908 1.9872855 -0.55313206 -0.4954563 0.8342705 -0.37545732 -0.22197247 0.3664567 -0.61303014 -1.4685915 -0.74069697 0.24211566 0.21215875 -0.64432585 0.12984495 -0.501882
747 -0.0649532 0.28388622 0.13264523 -0.29841366 0.31616744 0.0055549853 -0.24443538 0.071316846 0.45444918 -0.08600261 -1.2377106 0.3201389 -0.2042836 -0.6659945 0.96991765 0.8605352 1.0617541 -0.8647644 0.8200598 0.69529736
755 -1.0241381 -0.5274249 -0.39658108 -1.2172241 0.49109066 0.89854395 -0.73825526 -1.2041428 1.1037083 -1.017955 -0.99691164 0.8227941 -0.70992035 -0.70054543 1.6813159 -0.14544742 0.3207433 -0.072432 0.8152752 -0.64386153
738 -0.5946669 -0.70770836 -0.060887814 -0.35003388 -0.48941362 1.114221 -0.1823265 -0.86673343 -0.46174064 -0.6652821 -0.14052188 0.8373816 0.60271776 -0.5874021 0.3298892 0.5412139 0.76359737 0.042303618 0.3259974 -0.5121085
744 0.69493556 -0.46754596 -0.9231579 0.15883629 0.22334687 0.60634905 0.5164818 -0.9673667 -0.43875873 -0.29999053 -0.2847664 -0.3218005 0.76192033 -0.65296274 1.5825835 -0.46672872 0.626969 0.3576715 0.6710579 1.1841677
752 0.14183655 1.1201355 -0.86014247 -0.39622587 0.3323325 0.5276508 -0.6372658 -1.3549818 -0.10450054 -0.77867085 0.04870564 -0.38233802 -0.036563005 0.14125992 0.304773 0.9588974 0.36205813 -0.077563204 -0.23012458 -0.43345976
770 0.510164 -0.24109 -0.017873194 -0.08024267 0.82675076 0.8033022 -0.7052388 -0.032472715 0.5141166 -0.85439193 -0.96711296 -0.22744787 -0.00070072734 -0.14466648 1.1495155 -0.50675577 -0.29975435 0.5287983 0.28859046 -0.15468282
756 0.18815391 0.3622112 -0.332719 0.4576281 -0.099359594 0.52804726 0.52111596 -1.2004399 0.10713936 -0.40427715 -0.5509831 0.5178433 0.5859538 -0.4288787 -0.37792733 0.26258558 0.93379515 -0.9320308 -0.33347124 -0.5047639
758 0.08596272 0.1866044 -1.7017809 0.63756466 0.9597928 0.5802867 0.613229 -0.5404041 0.21358728 -2.487817 -0.94376916 1.0675294 0.08858345 -0.37393546 0.40594986 1.1692942 1.607657 0.5235948 0.7862397 -0.95726967
771 -0.26139233 0.24738681 0.10121711 0.18968767 0.19880223 1.6723578 0.022618616 0.52129227 -0.72633946 -0.22356665 -0.3483134 0.14642616 -0.25515425 -0.098990664 0.25414377 -0.18596035 0.54184794 -0.38812572 1.45563 -0.15052429
739 0.46743098 0.94508606 -0.025027588 -0.6690211 -0.8151682 0.7749299 -0.0068531907 -0.6640895 0.7073037 0.15093246 -0.7614856 -0.26535505 -0.46168768 0.14443597 0.973241 0.13439254 0.42642313 -0.98659086 -0.4294397 0.31096274
736 1.2838802 -0.24547164 -1.1273004 -0.027128972 0.504394 0.18958525 -0.04632831 -0.91113716 -0.3845831 -0.12034917 -0.67889684 -0.4135959 -0.04335375 -0.7355161 0.11156667 -0.35521433 1.2883807 0.6141098 1.169301 0.5384487
749 -0.32855788 0.07899359 -0.58387375 -0.27007347 0.23281994 1.6269444 -0.6933562 -0.19655293 0.4075946 -0.8745885 -0.11260235 0.5327972 0.025134144 0.27544662 -0.24486922 0.368992 0.62428015 0.37418798 1.2711279 0.62121356
769 0.4508703 0.50303304 -0.8300835 0.07235389 -0.12379246 -0.008574249 -1.1173438 -0.5232691 0.4300587 -0.6645381 0.3439488 -0.6958828 -0.43355277 -0.4532626 0.3501437 0.329045 0.7393851 0.0242785 0.30430165 -0.40986076
759 0.60241115 0.23826785 0.23036611 -0.4912519 -0.5775268 0.7725818 -0.7567641 0.060427688 0.41539693 -0.6033322 -1.376729 -0.3043235 -0.051019948 -0.3800814 0.5302247 -0.52868134 0.21632472 0.38054577 -0.45495182 -0.69596153
765 0.836776 -0.35088474 -0.6465879 0.2890428 0.69818634 0.5740209 -0.5802933 -0.24011786 -0.14074922 -0.6451861 -0.72292215 -0.15121928 0.17087816 -0.16438833 1.0566319 -0.7506093 0.033991437 0.21899275 0.99055445 1.0159845
762 0.1596617 0.18110178 0.6600282 0.11295076 0.44363114 0.091174476 -0.2347035 -0.54339504 0.061022673 -0.9636346 -1.2421135 -0.19096276 0.4394657 0.0050438694 1.6682631 -0.21398103 -0.09683539 0.06898037 -0.14677902 -0.5968795
746 -0.04511674 -0.08133567 -0.13532406 0.5937198 0.30817893 0.28890702 -0.4432657 -0.6854578 0.43145677 -0.58470124 0.08866249 0.26712802 0.8474697 -0.28555787 -0.11507523 0.35740483 1.2096769 -0.4487475 -0.05465933 -0.7655109
757 0.15091407 -0.10137957 -0.20864442 -0.661902 0.062348932 1.167078 -0.5936482 0.05445948 0.68743086 -0.3272658 -0.871854 -0.76297885 -0.22958222 -0.3459274 0.4135987 -0.69280595 -0.006980366 0.11786252 -0.3371949 -0.40834162
743 -0.25098798 0.36574358 0.5922508 0.21648961 0.30684906 1.3570983 -0.8831962 0.0667422 -0.24406144 -0.5322039 -0.4557402 -0.16997036 -0.25601828 -0.49151376 0.35126206 -0.9492245 0.5655846 -0.060164113 0.4147273 0.77887744
767 0.103660494 0.021940531 0.5996196 -0.21604969 0.0636883 0.30787805 -0.31405708 -0.051034357 1.33747 0.028966926 -1.2677847 -0.14659458 0.34643677 -0.05512875 0.77876556 -0.17939611 0.69947284 -0.11739425 0.2865156 -1.3067752
745 0.19540057 0.7007679 0.28286707 -0.58028907 -0.50572944 0.9578341 -0.2360985 -0.87528265 0.16613159 -0.21316254 -0.6782142 -0.38001642 -0.17591596 -0.7463362 0.91987646 -0.27294207 0.20175944 0.2771794 -0.8115027 0.016228652
764 0.1316333 -0.47405887 -0.050999984 0.3260249 -0.15569697 -0.55636966 0.5865617 -0.65722305 -0.25638777 -0.70917237 -1.308936 -1.4573922 0.6223162 0.86444545 1.5903637 -0.054092783 0.928965 -0.7688649 0.56252974 -1.1472207
717 1.0645132 -0.22181775 -0.5048943 0.59059954 0.74802023 1.0450283 0.14462775 -0.8604618 0.6462592 -0.965013 0.5864554 -1.130731 -0.26983875 0.027842827 0.58535135 0.37910578 0.35631406 0.66847897 1.9942533 -0.10583793
720 0.58848417 -0.20813058 -1.5963364 -0.07075656 0.23007376 0.04999735 -0.42271447 -0.88356215 -0.19359645 -0.4719522 -0.71843696 -0.8063575 -0.24555653 -0.12706566 0.8768858 -0.43029872 -0.20919447 0.011664383 1.1033248 0.723072
693 -0.26233408 0.3441632 -0.103902824 -0.21101151 -0.36097476 1.7202427 0.35225445 -0.9139319 0.07694259 -0.353422 -0.15977743 0.12226427 -0.69557774 -1.1535347 0.31520137 0.24962264 0.24255662 0.19795223 -0.8590328 0.12570272
708 -0.179375 0.73897254 -0.025498167 -0.19484727 -0.40027955 0.8989145 0.6996943 -1.046248 0.14565217 0.37840444 -0.85921115 -0.7936343 -0.4162692 -1.0403055 0.08059023 -0.17768164 0.19276561 -0.3438345 0.328206 -0.12667392
710 -0.01665004 0.5911116 0.34141842 1.0963242 -1.0284545 1.0104563 0.9320222 -0.9785171 0.6922753 -0.45370054 -0.9682842 -0.7176748 -0.7930698 -0.095774926 0.003987693 0.065430865 0.2248442 0.12785633 0.21033779 0.26810512
699 -0.9417358 -0.8149631 -0.078963496 -1.2610954 0.14285152 1.414653 -0.8878994 -1.0297225 0.9182372 -1.2066804 -0.3919802 1.1416153 -0.35258976 -0.59344137 1.4237213 -0.18393607 0.53559816 -0.48780787 1.0143907 -0.14771637
691 0.36026976 0.009502039 -0.557478 1.089308 0.86237484 1.0560242 0.33821198 -0.022169232 -0.53035176 -0.03081427 -0.5915158 -1.1596292 0.3354328 -0.63176835 0.35734215 0.21442254 -0.41072282 -1.4094512 0.88737977 -0.8724089
751 1.2354696 -0.06515677 1.4068 0.56240445 0.28907117 1.4617871 -0.4547539 -0.27186012 0.20362702 -0.31284022 -0.056188907 -1.2696127 0.054429818 0.29805797 0.79547507 1.0949776 0.6028688 -0.37778857 -0.08396902 0.13875611
685 -0.59660065 -0.50268394 -2.8425274 0.5824809 0.66324687 1.6417412 -1.2016752 -0.2259965 0.033457976 -0.042390835 -0.86596066 -0.71470577 -0.88191605 -1.238467 0.59266126 0.09065366 0.6261067 -1.091148 -0.30288303 -0.4360789
697 0.17711715 0.004749068 -0.77302724 0.8400337 -1.4443514 0.16866295 0.0003140332 0.081557654 0.4321284 -1.013045 -0.75163573 0.1123397 -0.2503711 -1.8588867 1.0880136 -1.2454121 0.9551634 -0.58935404 0.16038345 -0.43287817
703 -0.74033976 -0.33709514 -1.3224268 0.09081759 0.5886319 1.1215838 -0.071588196 0.83469474 0.6630691 -0.8186779 -1.0797203 -0.9000741 0.43639615 0.7093105 1.391943 0.1712383 0.60243595 -0.35791937 -0.48480558 0.3221028
709 1.1892813 -0.2973342 -0.63842505 0.4106413 0.11649792 -0.06259291 -0.35045093 -0.6701876 0.066252075 -0.098160416 -0.77701324 0.4412102 0.9828552 -0.46642452 1.4798232 -0.33196136 0.38847324 -0.4821842 0.8237829 1.1013921
740 0.54104304 -0.8811058 -0.99914855 0.118379004 -0.9698853 0.37155187 -0.5431419 -0.20202401 -0.26287997 -0.47952807 -0.40683654 -0.5959872 -0.10416143 -0.29134858 1.1497058 0.028740784 -0.2519473 -1.0283473 -0.033081543 0.4603549
729 0.5043363 0.54057467 -0.6567443 -0.3536247 0.066148244 1.2866778 -0.8994324 -0.2562558 0.3013316 -1.0974222 0.57609266 -0.34250966 1.5260661 -0.2289922 0.939676 -0.20623872 -0.54105777 -0.6271174 -0.049653165 -0.39996448
701 0.6727189 -0.59929687 -0.40861022 -0.5467644 0.5332275 0.9238039 0.4053303 -1.5867716 -0.18481278 0.060501624 -0.947851 -1.3145822 0.03219748 -0.33901915 0.6516806 0.31492865 0.093322225 0.33293182 0.33574927 0.9454831
692 -0.7877158 -0.08885552 -0.0032857026 0.61743313 -0.5620756 0.87039506 -0.41404197 -0.42660227 -0.23424713 -0.46476987 -0.45513198 0.15627599 0.03365182 0.5953652 0.5433329 -0.8151609 0.92942065 -0.23827647 1.1408889 0.51434165
690 -0.19994763 1.0594511 0.16606623 0.22303542 -0.019183842 1.3808558 0.50134623 -0.024172286 0.25345427 0.37442496 -0.89332163 -1.0656891 0.16959015 -1.0189937 0.007733177 -0.07134164 -0.18535024 -1.2584274 0.50486237 -0.94460744
724 -0.07606592 0.17750956 0.2824264 0.7934779 0.26629812 0.7754689 0.27541986 0.037633978 -0.09728308 0.0848553 -1.4623836 -0.7394035 0.14003348 -0.91523093 0.4843054 -0.37675527 -0.437217 -0.98228455 0.51554227 -0.96219474
704 0.70305574 -0.39338872 -0.1669946 -0.680619 -1.039235 1.1236405 0.5699463 -0.45625636 0.7340557 -0.8421529 -1.2032902 -0.39053118 -0.78087395 -0.4329964 -1.0883647 0.39199656 1.3011286 0.58314353 1.0599098 0.09119739
695 0.986855 -0.36482337 -0.5110277 -0.12222667 -0.5830922 0.48829862 -0.3066213 -0.5655622 0.5664928 -0.36321592 -0.6121962 -0.17873247 -0.5503218 0.16850136 0.39521155 -0.27577943 0.34905705 -1.2855313 -0.55365986 0.053536635
732 0.57930964 -0.31545207 -1.1583658 0.71324646 0.16483015 0.44809505 0.81719655 -1.11579 -0.012462067 -0.9080886 -0.34196952 -0.5877745 0.08661883 -0.0941953 1.2478186 0.11628007 0.9708536 1.189457 0.5699191 1.0864904
706 -0.0785677 -0.075732544 -0.4545088 -0.5647426 -0.2284533 0.8928089 -0.9467762 -0.24053308 0.04990449 -0.21237859 -0.44650584 -0.7422834 -0.94008034 0.6284726 0.7558031 0.2693646 0.40315896 -0.6518407 -0.45764783 -0.5194117
721 -0.9437168 0.14786933 -0.66673285 0.42365175 0.08840094 1.0114467 -0.5475776 0.04429071 -0.59714013 -0.3310701 0.13484813 -0.3386844 -0.2006309 -0.20478079 0.28902674 -0.16036157 1.3425045 -0.05593488 1.483933 0.33263844
696 -0.3674647 -0.17010166 -1.21898 1.2548517 0.03891642 1.113324 -0.78052086 -0.07391824 0.15363342 -0.04245358 -1.2796315 -0.7232242 0.13456443 -0.8564546 -0.23662832 0.862497 -0.6813511 -0.73843133 0.1826396 -0.2811761
715 -0.22649908 -0.35328078 -0.34115037 0.27877757 -0.16928153 1.3689475 -0.89324594 -0.077860236 -0.5224784 -0.18539286 0.142556 -0.145929 -0.2788941 -0.02829709 0.21950261 -0.15369147 0.40626708 -0.56601447 0.84820366 0.41542432
686 0.24352814 0.4492833 -0.23441686 0.46582943 -0.19728513 1.2421759 0.48731396 0.47128367 -0.68518466 -0.22695266 -0.5936075 -0.78818774 0.5073007 -0.21922515 0.49149168 1.5393176 1.1757376 0.3340562 -0.4546855 -0.8072167
788 -0.9766993 -0.2063554 -1.7911886 0.31135252 -0.2402657 1.0315809 -0.2517347 0.3737133 0.8389024 -0.6524395 -1.283051 -0.81345385 1.0562999 0.82645655 1.0318037 0.18732488 0.36850092 -0.014305078 0.09397083 0.595773
731 -0.31422618 0.70538044 0.30020788 -0.5222827 -0.22867769 0.71374124 0.27220064 -1.0150621 0.34855208 -0.19352597 -1.2718954 -1.3484821 -0.36392647 0.21787629 -0.32874683 -0.27168915 0.80690527 -0.13722113 -0.08696779 -0.005337633
688 -0.29235375 1.3894476 -0.28009713 -0.42746487 -0.12725662 1.111765 -0.009281304 -1.3239528 0.28807828 -0.35235217 -0.5748521 -0.45626372 -0.33800957 0.7168653 0.5569514 0.64418316 0.20972408 -0.17686522 -0.23338239 0.044227235
723 0.22597678 -0.9012042 -0.65710264 0.014986424 -0.50015885 0.8743298 -0.51756364 0.18039058 -0.24923034 -0.6762743 0.22587419 -0.37293166 -0.94001067 -0.072761655 0.5733581 -0.12060489 0.5532502 -0.83244413 0.38903826 0.030743092
687 0.17984624 1.1963581 0.072960846 -0.36582655 0.05494634 1.1204078 0.486275 -1.0152872 0.2164939 0.08952292 -1.025418 -0.10310822 -0.021046601 0.14858496 0.787756 -0.4028261 0.059853718 -0.37818313 -0.20726182 -0.2808639
188 3.1265323 -0.77696204 -1.3054643 0.70631963 0.34445846 2.7355113 1.0496031 -0.7389053 -0.2809545 -1.2066255 0.27820665 -1.1689107 0.44373304 -2.6572528 2.2244227 -0.9240207 1.7723458 -0.16311869 0.30277696 -2.9162126
719 -0.032530587 0.5582443 0.0595752 -0.5693539 0.31475794 0.06352133 -0.6783324 -0.14857042 0.49361876 0.10374758 -0.41615453 -0.14041363 0.4025126 -0.8293035 0.95368665 0.583653 0.9407304 -0.46830383 0.84963924 0.44849885
727 0.067085125 0.26151302 -0.72914046 0.26818663 0.03432778 0.122819625 0.17169784 -0.624713 0.24071528 -0.33112416 -0.8151696 0.60816914 0.61743003 -0.766457 -0.0386043 -0.737272 1.3751695 -1.0625603 -0.27363482 -0.440655
256 3.1677783 -0.7090024 -1.419958 0.8945374 0.3006191 2.7341738 0.9816588 -0.75484717 -0.24359019 -1.2591807 0.24855876 -1.1379318 0.37056708 -2.553706 2.2264802 -0.90473604 1.697643 -0.08023204 0.23677455 -2.9474204
726 -0.43948105 -0.37538192 0.76124704 0.5148882 0.11873425 1.131091 -1.0245217 -0.09467627 -0.84743124 -0.33718282 -0.42579964 -0.19343007 0.39624062 0.5240873 1.3801644 -0.51589483 0.64444435 -0.16250347 0.61764365 0.35281944
689 0.82155204 -0.7721884 1.6552116 0.33684906 -0.004293407 1.3536963 -0.26395887 -0.34254006 0.50669914 -0.5212353 0.031151986 -1.2554116 -0.11400339 -0.09090328 0.65975845 0.34532523 0.6870023 -0.31146383 0.40734705 0.21562682
707 -0.25559172 0.6463116 -0.4882216 0.89946777 0.6640789 0.37630388 -0.2241418 0.0162671 0.21079913 -0.27778104 -0.67410415 -1.1879456 -0.29527193 -1.559341 -0.1928947 -0.25031942 0.11523666 -0.51311225 1.1195208 -0.5396288
728 -0.25390384 0.15908168 -0.87475747 0.24850062 0.30073822 0.9020793 -0.37315676 0.82653075 0.39774597 -0.0010390936 -0.669838 -0.98870957 -0.6627762 -1.3161181 -0.011399945 -0.62105197 0.7889088 -0.9353298 1.0171986 -1.229025
714 -1.080629 0.29162362 -0.13109596 0.7649525 0.0011216493 1.0049096 -0.6338916 -0.124180995 -0.23430367 -0.6492228 0.34446952 -0.7447157 -0.16732119 -0.06802615 0.18719356 0.18621556 0.6601979 0.15468338 1.2597317 0.14255235
702 0.7107999 -1.0170788 -0.51819146 0.2974694 0.85049427 0.05590349 -0.5418124 -0.97883624 -0.17335638 -1.2083924 -1.6326429 -0.9252951 -0.67883986 0.2990386 0.28524747 -0.057865642 0.48726743 -0.018097403 -0.07623625 0.8853533
725 0.84433556 -0.6347224 1.0095352 0.5022783 -0.7823754 1.4647638 -0.4408066 -0.015885293 0.20048365 -0.301453 0.50164306 -1.286421 -0.31121147 -0.46851325 0.9974964 0.41646028 0.53257996 0.21491331 0.86725956 0.39649838
718 0.09984628 -0.0831958 0.21017523 -0.24520764 -0.17241822 0.5313988 0.012823997 0.24674883 0.37031478 -1.081527 -1.4732939 -0.42628688 -0.16143486 0.2505986 0.7347466 -0.41372728 0.00868235 0.4506886 0.5228554 -0.7705298
705 -0.6098705 -0.052378535 0.13850424 -0.57959896 -0.02708291 0.4550097 -0.37114114 0.49043703 0.67460203 0.1906274 -0.93401545 -0.42184117 0.63928723 -0.585113 1.3745306 0.31396115 0.66236866 -0.7664979 0.5696258 0.46614042
711 -1.1627625 -0.8599803 -0.18247555 0.67923063 0.36849454 1.1537364 0.7043185 -0.9390719 -0.21149662 -0.16667283 -0.55231655 -0.74906707 -0.8580373 -0.12783271 -0.32265133 -0.5905922 1.918973 -0.7466014 0.53421074 -0.3340217
117 3.0724933 -0.7634102 -1.4346242 0.8266754 0.31055656 2.6519954 1.0483696 -0.75003546 -0.20883621 -1.2463907 0.27848855 -1.2511384 0.49033317 -2.6627815 2.1952724 -0.9083008 1.7170928 -0.053626534 0.21547528 -2.9278855
716 -0.56568116 1.0452657 0.17806388 -0.46252272 0.12769917 1.4343407 0.38600788 -0.75019205 0.31067225 -0.37063506 -1.0755081 -0.678415 -0.4881163 0.56466603 0.51959336 0.4840873 0.021012021 -0.3174108 -0.30069944 0.005961523
713 0.13265918 0.17096473 -1.5069426 0.42141104 0.7766729 0.12403878 0.34523678 -0.45135868 0.43103448 -1.7340107 -0.88527316 0.3135573 0.2277548 -0.24319677 -0.3955774 1.0761669 1.9449124 0.39244062 0.33692288 -0.80255777
722 0.42155784 0.57325107 0.49667335 0.92804193 0.26585907 0.19687548 -0.19797465 -0.8013531 -0.11267994 0.28833866 -0.83287823 -0.64314467 0.032738876 -0.74193704 -0.017283244 -0.622152 0.9046851 -1.2976508 0.72457993 -1.3442147
730 0.32972974 -0.156983 -0.7662353 0.2817313 0.16873239 0.6023533 0.32362255 -0.0076612853 1.0600525 -0.9361926 -0.62773895 0.6014179 0.4100005 -0.4678224 -0.804118 0.5418934 1.5452132 -0.39803755 0.20380098 -0.2164275
694 0.6920642 -0.0088903485 0.108792424 -0.14626211 -0.6235483 0.19292252 -1.9812347 -1.1115435 -0.6774713 -0.25627145 -0.8497679 -0.033958722 -0.039315004 -0.6013523 0.33861575 0.2591138 1.0593945 0.56099904 1.33712 0.15701565
700 0.5244161 0.104918845 -0.024936777 -0.09401482 -0.12079776 1.1670375 -0.22743222 0.78575885 -1.4282494 -0.4358901 -0.44681525 -1.2211564 0.28869635 0.029233564 0.07969581 0.27729777 1.2112297 -0.23685275 -0.26878157 -0.25129947
712 -0.027536212 -0.63673 -0.55025923 0.8502534 -0.7183041 0.83889914 -1.1721816 -0.28457123 -0.16566336 0.12204325 -0.9296903 -0.83851576 0.5225461 -0.27081043 0.103794284 0.9813276 0.15374964 -1.1388766 -0.4405674 0.26000983
652 0.553374 -0.16235176 0.075714834 1.2381998 0.12686539 0.27189398 -0.78843874 -1.1393609 -0.2710415 -0.65340567 -0.14407368 -0.8104469 -1.8808779 -0.31609064 1.2686237 -0.1735811 1.2873266 -1.1559917 -0.5481566 -0.75123024
667 -0.6506734 0.03724921 -0.30334252 -0.2005829 0.59243774 0.84202695 -0.19729081 0.7421499 0.5093127 -0.90891564 -1.5501751 -0.6408344 0.20978375 -0.18799062 1.1333584 0.14353159 0.24850963 0.2154837 -0.6408481 -0.13509014
627 0.67441714 0.76669294 0.6402934 -0.14276737 0.66855645 1.4344144 0.6505757 0.5934554 1.0444701 -1.4282314 -0.5524356 -0.74126035 -0.59828836 -0.54059 1.161223 -1.1420516 1.185025 0.26790777 -0.11551165 -0.5250625
666 0.3192218 1.1054881 -0.32016435 -0.4839282 0.7896337 1.2630264 0.49163654 -0.5550444 -0.08097308 0.24128975 -1.1647098 -0.67663556 0.47422048 -0.10173896 0.17195259 0.1649949 -0.38915905 -0.6304535 0.68733895 -1.1650158
669 0.36962023 -0.44156605 -0.8528729 -0.2156306 0.4899046 0.62516093 -0.18419404 -0.32752883 -0.6110898 -0.25736272 -0.30116287 -0.19882068 -0.30389172 -0.66621244 0.22843221 -0.33251902 0.824537 -1.7679472 -0.49234644 -0.6842142
675 0.55952734 -0.5386874 -0.06903863 -0.06793736 0.15553461 0.5702781 -0.25498632 0.16639148 0.3798854 -0.5486211 -1.0606537 -1.0508168 0.30039194 -0.9460492 0.79679894 -0.2525056 0.16529703 0.9812572 -0.046247628 -0.23671965
677 0.262637 0.1129124 -0.3384706 -0.2482518 -0.5644425 0.5031721 -0.19692187 -0.83060855 -0.24015619 -0.9798582 0.003214321 0.53150874 0.0042354628 -0.6235547 0.5731181 1.3261049 0.23753516 0.03845787 0.09089725 -0.5738639
659 0.49771512 0.57824904 -0.23462199 0.7112161 0.3322337 -0.16030604 -0.52953184 -0.6074986 0.40315047 -1.1434622 0.08076511 -0.6640156 0.33038056 -0.06396795 -0.22187233 0.33724692 0.80256546 -0.055859953 0.5047761 -0.2481025
628 0.30163446 -0.13026427 -0.59675276 0.9268403 -0.15264107 0.06137413 0.7479092 0.13069288 -0.5223827 -0.24483082 -0.9257858 -1.7376798 0.95144737 0.8987246 1.1452676 0.9025271 1.3992105 -0.804819 0.5744703 -0.8540311
672 0.6071434 0.8164827 -0.735629 0.7596155 -0.3468004 1.4924265 0.5013738 0.06013711 -0.52368414 0.27103946 -0.22845669 -0.72999245 1.0393356 0.14550605 1.0328913 0.049743254 1.1204345 -0.09661478 -0.7575605 -0.15129799
661 -0.06984609 -0.39335257 -0.88075536 -0.08087186 -1.2104633 0.25105804 -0.06826998 0.5577045 0.20228602 -1.0112199 -0.64004433 0.04247887 -0.27470726 -1.5604258 1.1192044 -0.746934 1.3438363 -0.63764966 -0.38597643 -0.18137172
646 1.5409087 -0.70961416 0.55557126 0.33837375 -0.032550942 1.3970258 0.17266272 -1.2810035 0.40699857 -0.19472855 0.15671195 -0.44259235 0.05022321 0.039352246 1.7311059 0.73565364 -0.2786632 -0.45609057 0.7738845 0.5738616
625 1.1277394 -0.61513776 0.07610579 0.05370436 -0.09032444 0.77727073 -0.36487755 -1.3299971 0.20989472 0.22488353 -1.0010316 -1.8677428 0.21367013 -0.40778732 0.4021062 0.98310995 -0.18814102 0.086496055 0.7689434 1.2403182
629 0.24774858 1.0145184 -0.24780704 0.7207116 0.062369157 -0.23433453 -0.86340326 -0.4048553 -0.37423775 -1.7206085 -0.36882606 -0.2635166 -0.2825409 -0.026232298 0.9576826 0.6626602 0.17896466 -0.12256291 0.8351219 0.75052047
632 0.3845237 0.71973825 0.22339046 -0.3462193 -0.5519807 0.89948475 -0.44686416 -1.695921 -0.22301885 0.5470686 -1.4747616 0.1836375 -0.74876136 -0.13352507 0.40684825 0.064421326 0.872341 0.10121446 -0.13216294 0.0018083269
633 0.17263325 -0.33437353 0.16990802 -0.51097435 -0.43402234 0.76697457 0.033094455 -0.9114763 -0.4947017 -0.7801797 -0.44369176 0.3720671 0.9428798 -0.59288013 0.66442996 0.5980628 -0.13835792 0.119669996 0.066496596 -0.9530758
662 0.22252999 -0.708728 -0.90861076 0.09746075 -1.0017145 0.76485604 -0.55112743 0.07559612 -0.21931845 -0.20793758 -0.9576837 -0.8589917 -0.027851546 -0.25392234 -0.19287728 0.8087874 -0.037484467 -1.0271826 0.12841137 0.20202236
660 -0.031480957 -0.0022663926 -1.2568114 0.40104726 0.79853463 0.48069623 1.2119914 -0.8346068 -0.35806236 -2.0697699 -0.7046083 0.87800354 0.38894328 -0.6031076 0.45172808 1.1723863 1.3409555 0.21114133 0.57888985 -0.92182016
636 0.022703357 0.19162396 0.036060307 0.80396897 0.09031087 1.4857897 -0.27586085 0.24470823 -0.77488464 -0.0016312418 -0.033261493 -0.30986607 -0.054747142 0.47303808 0.43982917 0.19073722 1.1151448 0.2049475 0.9170197 0.3939344
663 -0.030712498 0.6049358 0.15451726 -0.7524706 -0.67397815 1.3515548 0.3416271 -0.565183 -0.7412577 -0.09589179 -0.82925296 -0.15709291 -0.78703326 0.22684187 0.3947391 0.16477898 0.26823542 -0.7147668 0.40723005 0.19751792
657 -0.5872194 -0.09812162 0.31134686 0.6490438 -0.6276186 0.28087142 0.48788288 -0.40987912 -0.37246996 -0.55763054 -0.8165941 -0.74359506 0.13949321 -1.3254802 -0.3060378 0.29684705 0.49158087 -0.8870828 1.468266 -1.6649907
673 -0.79030037 -0.7407287 -0.28489962 -1.2530937 -0.13014174 0.5933678 -0.97647804 -0.76696175 1.1466074 -0.84675264 -0.47648084 0.570871 -0.49453285 -0.6223251 1.5518962 0.09495589 0.41875425 -1.0555735 0.7291899 -0.26947924
658 -0.62672436 -0.48691633 -0.059741035 1.4910283 0.26602122 0.84071046 0.8556523 -0.54210335 0.26058468 -0.3852194 -0.7848738 -0.6564918 -0.47250837 -0.4541603 -0.8866574 -0.29501453 1.8929358 -0.90311164 0.64843094 -0.9250612
577 1.0608189 -0.26723078 0.79873633 0.53005123 -0.54958636 0.17593908 -0.04055247 -0.01187537 0.41254088 -2.8370435 -1.2791759 -1.5782205 1.0586805 -0.523064 0.28624463 -0.55133444 0.44000986 0.5340572 1.0744346 -0.26247987
678 0.17140219 -0.12308405 0.40869167 0.17149349 0.07675872 0.27335703 -0.8168366 -0.058684073 0.80773205 -0.6114773 -0.96285975 -0.96567845 0.048982292 -0.7529034 0.27487093 -0.5697494 0.27458224 0.59400046 0.6487697 -1.2546835
664 0.6565115 -0.40083164 0.42359397 -0.3971703 -0.7183869 0.9424324 -0.119137324 -0.07996342 0.067670844 -0.9390396 -1.1029731 0.52553225 0.33016163 0.118360445 0.6971548 0.07812228 -0.32027936 0.23558335 0.6110981 -1.1940502
683 1.1393887 -0.93197125 -0.48442855 0.9459977 1.0837653 0.1999476 0.1524139 -1.1896626 0.58643496 -0.9483582 -1.4462965 -0.7557068 0.019579936 0.082445726 -0.05627308 -0.16866814 0.41284505 0.040796824 0.27199382 0.74055064
670 -0.07347109 0.028474597 0.7171974 0.39743513 -0.114428565 0.87751275 -0.8970502 -0.36081496 -0.42767957 -0.92214215 -0.5637989 -0.07116671 0.24706656 0.7331348 0.4944074 -0.68377703 0.67356926 -0.078541845 0.94018954 0.51893276
653 -0.45021617 -0.9585357 -0.8609318 0.3024931 -0.4693917 0.78679883 0.37475353 -0.632747 -0.043710567 -0.36057878 -0.23531404 -0.7760049 -0.8157716 0.46234757 -0.08080338 -0.11451895 0.93858385 -1.0961375 0.27128264 -0.3855179
656 -0.18628138 1.0936081 -0.16162634 -0.18902372 0.5026821 1.1244851 0.73013234 -1.303652 -0.04120023 0.18757272 -1.0610144 -0.31047422 -0.4316467 -0.27959523 0.5647315 -0.11181956 -0.039651882 -0.92032224 -0.24476194 -0.4129046
682 -0.65137845 -0.19802597 0.6795739 -0.310714 -0.3440939 0.61719316 -0.8816178 0.65427905 0.23475973 -0.46330202 -0.8270596 -1.0413642 0.19284776 -0.36813408 1.5727196 -0.08407401 0.30765638 -0.51984686 -0.33564943 0.10210644
676 0.7649802 0.52814543 0.16494687 0.38739643 0.056574825 1.4388669 -0.92429227 0.4141057 -0.0019395582 0.013457985 -0.6087156 -0.10459278 0.6186664 -0.5196668 1.536525 0.036222067 0.14143023 0.5990202 -0.6429274 -0.96287936
679 -0.46752852 -0.30277738 -0.5888025 0.6384575 -0.5855607 0.982946 -1.1681726 -0.5170275 0.24712954 0.07084092 -1.331558 -1.2998673 1.0645698 -0.42368463 0.15609588 0.53924215 -0.4729928 0.1733209 -0.06530014 -0.1834593
648 0.718312 -1.0444583 0.13630977 0.7957493 0.11996512 2.189948 -0.9168529 -0.592109 0.8838414 -0.3705541 0.36452508 -0.3054802 -0.9709055 -0.47923177 -0.19443825 0.32862154 0.20417096 -0.6090173 -0.10433375 -0.20787607
655 -0.013541253 -0.44582886 -0.09365701 -0.39676392 -0.7236252 0.775452 0.25294363 -0.66255814 0.07764158 -1.1019614 -0.21192262 0.7518516 0.20649444 -0.7784107 0.40459093 1.5332214 0.6800898 0.08777277 0.30368274 -0.06292265
651 -0.38005108 0.004209341 -0.07755551 0.08671244 -0.6385059 1.108513 0.60414296 -0.21367942 -0.46775272 -0.56582785 -0.16604516 -0.07144849 0.62557316 -0.63278973 0.5580372 1.5731524 0.90072006 0.23437233 -0.5026743 -0.7592701
624 -0.21005253 0.7305062 -0.08080783 0.77340806 0.05396209 0.66266644 -0.94787985 0.099900864 -0.6037109 -1.2138957 -0.0158664 -0.103054635 -0.42363548 -0.36367616 0.8207839 0.19202887 0.20818748 -0.22412851 1.1689941 1.1227663
637 0.5125288 -0.33014837 0.37447163 -0.32357812 0.24811254 -0.11567228 -0.21861796 -0.5068317 0.096316904 -0.82487696 -1.6813132 -1.1806362 0.36260498 0.111995205 0.8780064 -0.44625902 0.23173779 0.43372786 0.5260167 0.06956536
654 -0.4310489 0.66781884 -0.21804334 0.49618483 -0.19904317 1.4527159 -0.7764399 -0.6312918 -0.32133994 -0.19517095 -0.068479195 0.060127426 -0.75944734 0.27408823 0.7113711 -0.14261061 0.11010636 -0.23293641 1.0533274 0.55937845
647 0.37385476 0.23714349 0.15777417 1.3775893 0.9671685 0.60146916 -0.39704683 -0.86970174 -0.6879583 -0.34527177 -1.0230718 -0.726846 -0.5144577 -0.99343157 0.3420602 -0.8928453 -0.07944739 -0.99285305 0.8080363 -1.255829
680 -0.104102306 -0.5211436 0.30908766 -0.46935624 -0.4178482 0.6820543 0.16916761 -0.67711383 -0.47204813 -1.0090932 -0.49674025 0.14029714 0.64933664 -0.70420516 0.5519224 0.5895532 0.18363747 0.07993181 -0.3786292 -0.6488837
630 -0.6473404 0.13600336 -2.7774894 1.2289209 0.7697727 1.2186992 -1.6621207 -0.5804362 -0.14818549 -0.3069385 -0.9847743 -0.89230955 -0.18032114 -1.3709267 0.30227345 0.7957477 0.011734417 -1.0671592 -0.3101482 -0.40818754
642 0.12723877 0.085244745 -0.05773145 1.3284535 0.48807913 0.45778704 0.0020163786 -0.4241377 0.79745466 0.50606894 -0.8861501 -0.45057803 0.097676426 -0.29482138 -0.10930356 0.10135325 0.82977015 -0.84046984 1.0701698 -1.3830827
592 0.20118266 0.34479165 0.37190604 0.23539525 0.50729346 -0.09228262 0.34988928 -0.23798066 0.5698455 -1.1920606 -1.392049 0.86350375 -1.4267613 -0.23523001 1.2343996 1.3240215 1.7029979 -0.7010388 0.6583614 0.030860567
641 0.56325483 0.62368995 -0.36169985 -0.73298603 -0.008805011 0.37243268 -0.5738024 0.1930105 0.6071396 -1.5921727 0.6017566 -1.0412571 -0.4397066 -0.08916472 0.23229562 0.21750541 0.9805714 -0.28634638 0.5396198 -0.42858237
674 0.36957055 -0.4293149 -0.44501328 -0.57482475 -1.1430758 0.78054184 0.06881973 -0.48623335 -0.829551 -0.5228609 -0.55245954 0.12829496 -0.882881 0.10379465 0.5578901 0.45278507 0.25544068 -0.93344176 0.010771166 -0.41061947
665 1.0986829 -0.87332696 -1.1308552 0.24354514 -0.4142755 0.49376908 0.028025482 -0.96103054 -0.592936 -0.28074613 -0.62342036 0.19977105 0.21311127 -0.29262352 1.6977047 0.09976867 -0.1446148 -0.6937825 0.47409418 1.0962735
626 0.9134264 0.71065414 -0.2865509 0.3538943 0.0042376127 1.1549048 0.0675717 0.626 -0.70634073 -0.0050282255 -0.9226743 -0.97949135 0.4545959 0.17168878 0.6099881 0.6952657 1.2207396 0.16250274 -0.33647782 -0.336218
643 1.1273345 0.0893368 -0.13245627 0.99891883 -0.39263284 0.87313324 0.14244507 -0.16870545 -0.3167622 -0.20263764 -0.6487894 0.11881175 0.43578842 -0.050154712 -0.45944273 0.51509213 1.701343 -0.5948152 -0.5355251 -0.061868098
640 -0.4643934 0.53404003 -0.06758371 -0.32058513 0.30592424 0.8075491 -0.65058607 -0.44580063 -0.6097912 -0.89927316 0.30098447 -0.055063106 0.008557472 -0.34071 0.0653391 -0.3448218 1.090446 -0.39507148 1.1435527 0.56968385
639 -0.38980287 0.78970546 -0.057570342 -0.42518348 0.111206606 1.4381272 0.7058447 -0.8740779 -0.11840598 -0.27084398 -0.89468604 -0.78550076 -0.8598543 0.25484204 0.48842794 0.3260433 0.027721992 -0.97475094 -0.47705826 0.010373031
645 0.05267287 0.5942624 -0.3209612 0.82188123 0.81371284 -0.11807112 -0.6832434 -1.0079932 -0.026004057 -1.0587132 0.5510476 -0.85549414 -0.59937227 -0.4202364 0.8600305 0.48307997 0.693175 -0.2034859 0.3491731 -0.9072997
635 0.46877027 -0.3836691 0.1385669 -0.009002517 0.8591378 0.004578887 -0.37465155 -0.3751854 -0.47219285 -1.3319138 -2.0531049 -0.30938077 -0.22241072 -0.09867236 0.85828215 0.34835583 0.3159721 -0.0033250088 -0.7015156 0.10279769
671 -0.005735247 0.11204605 0.15870495 0.9083183 0.21543375 1.360002 -0.8844852 0.09254755 -0.0386102 -0.17463897 -0.19426478 0.3068969 -0.08214295 -0.16103677 0.25402635 -0.56128496 0.7930361 -0.2869184 0.51197314 0.6472489
650 1.4594989 0.12549552 1.7964406 -0.01520302 -0.56021553 1.1819448 0.30992657 -0.57795745 0.053226132 -0.7380553 0.03816958 -1.1134266 -0.08224975 -0.04493548 0.6916816 0.44405547 0.43516243 -0.8880723 1.2282279 0.21587436
638 0.45459354 0.27526015 -1.0378988 0.16046634 0.16339955 0.91202223 -0.23258105 0.748767 -0.43780452 0.41731843 -0.27863428 -1.0236958 -0.028476017 -0.19787031 0.74145883 0.33105525 1.6927594 -0.20199114 -0.43732634 -0.48407963
631 0.35417578 0.16841702 0.2681213 1.1197358 -0.0843254 0.5931931 -0.63310766 -0.51130694 0.0006049558 -0.33757964 -0.33339706 0.6617252 0.50824267 0.1457127 -0.102222115 0.008801977 1.2062277 -0.69307464 0.2227848 -0.016844558
644 0.9503446 -0.3819539 -0.6212716 0.08278124 0.40066853 0.4979314 -0.027997797 -0.43944547 -0.47448033 -0.8051161 -1.3286041 -0.5408744 0.1707168 -0.3999293 0.75196755 -0.38056386 -0.26662114 0.5485337 0.46357697 0.67999667
649 1.0537035 0.46862704 0.42140248 0.6963836 -0.005646675 1.418528 -0.13322987 0.3979818 -0.15398678 0.170787 -0.26067492 -1.2380623 0.56030476 0.38674974 0.91723096 1.1587651 1.1561555 0.02803985 -0.28854576 -0.002094569
527 0.5241323 -0.46307 0.29274875 -0.106161505 1.2903192 2.2258837 -1.5444051 -0.6542056 0.8169743 -0.92523956 -0.49530986 0.061814256 -1.181572 -0.55904615 0.71824646 1.00884 0.5393188 0.37599665 -0.7345944 -1.0197755
634 -0.3037054 -0.3566031 0.9402305 0.026400171 -0.19597399 0.7830852 -0.7666584 0.35740942 -0.2228048 -0.6231291 -0.938593 -0.53177553 0.2995488 -0.010047228 1.4295931 -0.6441279 0.38216466 0.028633326 -0.095324725 -0.22067448
681 0.5698526 0.054452974 -0.19967541 0.8157146 -0.38513833 -0.21334891 0.21196651 -0.6001617 0.13587126 -0.5812963 -1.0667056 0.011138216 1.1729113 0.6053916 -0.18368869 0.01315578 1.205944 -1.0967261 0.18545929 -0.52746534
684 -0.1641073 0.76398295 -0.3205113 -0.26957428 -1.2445937 1.180262 -0.00580958 -1.2191007 1.224242 -0.048522264 -0.17259505 -0.4174187 0.10025575 0.008337173 0.6175256 -0.25599378 0.74382365 0.62783706 0.011801021 0.3654503
599 0.4025324 -0.18584986 -0.46228004 0.93553275 0.4472935 1.6021781 -0.0052201743 -0.3292112 0.31411806 -0.91702986 0.614854 -0.72497743 -0.7941097 0.028660364 0.82655394 0.3188432 0.4770855 0.5765035 2.3615093 0.06551875
531 0.04753438 -0.46932894 0.037537523 0.4517962 -0.63467383 1.4154845 -1.0902324 -0.8171135 -0.59452665 0.4474821 -0.15302457 0.0978074 -0.38007563 -0.10959356 0.5708159 -0.27530435 0.6363655 0.19152321 1.7549568 -0.3439303
573 0.7618005 0.05570521 0.36087132 -0.7809745 0.63515383 1.2215416 -1.0175766 0.340699 1.1545272 -1.1317427 -1.1662928 -0.17641316 -0.6359573 -0.43159956 0.43128765 0.32707578 0.18525511 0.25131184 -0.04705952 -0.4420509
588 -0.17051376 0.38838667 -0.15836848 -0.4174939 -0.9277587 0.92913705 -0.08972001 -1.4091611 -0.54157823 -0.33745754 -0.1415523 0.41522673 -0.1421013 -0.5512305 0.76817864 0.94916195 0.2509127 0.0066317073 -0.14467531 -0.66079193
564 0.90290177 0.17839266 0.11017589 0.967318 1.3216656 0.67537487 -0.41304204 -1.3256449 -1.108817 -0.55491316 -0.102640994 -0.93013626 -1.3235668 -1.1012958 1.1392936 -0.42519036 0.89873683 -1.7557445 -0.028985908 -1.2474431
576 0.08251103 0.78949964 -0.80704844 0.64387375 -0.21521202 2.0436733 0.14068483 -0.17773229 -0.038426876 -1.1916528 0.3261267 0.23676984 1.7518014 0.051870216 0.77188003 -0.14597654 0.13914472 -1.3233588 -0.22306174 -0.50679684
551 0.54765654 0.32114 -1.089849 0.1489611 -0.70589083 1.4523886 0.4048764 0.10446684 -0.60597277 -1.098349 0.2544559 -0.13995336 0.7073908 0.28341374 0.7612178 -0.20098244 0.17262614 -1.998828 -0.25932342 -0.057314042
543 0.7805917 -0.39716315 -0.5593324 0.506084 1.1479968 1.2755449 0.96350026 -0.17607175 -0.685742 0.03416736 -1.2010438 -0.8003135 0.07296138 -0.20941053 0.87014085 0.4251014 0.87674326 0.6030512 -0.14920627 0.5330856
595 0.30127582 0.15224373 -0.46359637 0.59766096 -0.58517516 0.6249787 -1.4090748 -1.57831 -1.0279094 -0.663405 -1.7413307 0.073960505 0.4654865 -0.039342683 0.29749265 -0.094401345 1.3359199 1.8488561 1.3848431 -0.5074959
611 -0.3780792 0.07762072 0.31989616 -0.47440222 0.07260526 0.036243092 -0.14551063 -0.11522262 0.73874223 0.040849067 -1.2796818 -0.055100515 0.54831535 -1.0732173 1.3782781 0.35001472 0.6777158 0.070273936 0.38853142 0.30561727
610 0.54088223 0.21332057 0.80959105 1.0278614 0.42482862 -0.11129397 -0.629989 -1.1709297 -0.46539336 -1.1314878 -0.32622805 -0.43449578 -1.8581514 -0.40513965 1.7302009 0.30697814 1.4671848 -1.2109231 -0.27527955 -0.72173816
580 1.1062754 -0.6709153 0.12747706 1.566053 1.1091899 1.2840534 -0.0846798 -0.2804769 0.80677706 -0.3786006 -1.4777534 0.110224284 0.6439784 -0.6966707 -0.23265435 0.117152885 -0.14279127 -0.9313658 0.84465927 -1.1210849
582 0.5059587 0.46684855 -0.14437358 1.3685477 1.0785757 0.084673114 -0.65547067 -1.2988224 -0.61334264 -1.2617415 0.30512965 -0.80214465 -1.6486648 -0.5142636 1.4750749 0.13112558 1.1653551 -1.094162 0.06894848 -1.2690003
593 -0.27155775 0.013753581 0.08554902 -0.47409302 -0.085939094 0.91628516 -0.123827375 0.39472637 0.41644475 0.69981617 -0.52654374 -0.09404199 0.34528977 -0.95085263 1.2634362 0.5576317 1.2955036 -0.14749078 0.95330316 0.3274667
553 -0.66384166 -0.031627305 -0.67563826 0.911078 -1.9185315 0.26534894 -0.042424127 -0.29074544 0.49973354 -0.9099844 -0.7419423 0.30560252 -0.15095118 -1.2526212 1.128234 -1.3358729 1.3431336 -0.48535678 0.2806126 -0.31807575
617 -0.04841986 -0.1809462 0.27089053 0.9294846 -0.81224334 0.63212097 0.06889759 -1.2531179 -0.011935998 -1.1779099 -0.10641744 0.68817234 -0.033770464 -1.0703881 0.4161269 0.939982 -0.05034968 0.058118623 0.39841154 -0.70721567
547 -0.47510502 -0.5479902 0.30843833 -0.024410348 0.7121668 0.7325386 0.2557396 -0.050837744 -0.2948747 -0.9200847 -1.5174336 -0.40817082 -0.023191826 -1.4287635 0.77029 0.5180239 -0.23420936 0.18850625 -0.2284315 -0.6557279
541 -0.18657655 0.23142047 -0.6318524 0.668718 -0.95268977 0.49326605 0.14400728 0.078039676 0.7549873 -0.64477646 -0.5632791 0.16794047 -0.28734297 -2.530276 0.48423186 -0.95709383 0.71578443 -0.93644506 0.59398973 -0.6603219
554 -0.16402002 1.0935379 0.26701033 -0.059446592 -0.42992392 1.107371 -0.282571 -1.0519325 -0.18654941 0.20741074 -0.58737344 -0.20687482 -0.04127343 0.3536391 0.5668245 -0.46350664 0.3313501 -0.6857339 0.33614418 0.5068135
535 0.14901075 -0.66631776 -0.3124434 0.20432365 0.17785004 0.46266055 -0.49138856 -0.1816299 -0.31137884 0.21738212 -0.1184079 -1.1840519 -0.7667653 -0.2571924 1.0946202 -0.12075222 1.195695 -1.2445889 -0.55453986 -0.49224648
578 0.78926796 -0.15375818 -1.2458594 0.49031144 -1.3216718 0.1981474 -0.006958041 -0.03720673 0.3059768 -0.9464326 -0.4505305 0.4332328 -0.74552447 -1.5210502 1.1867305 -0.74128944 0.7219116 -0.7916835 0.023650208 -0.012972219
733 -1.1535825 -0.63322806 -0.3214996 -0.75894463 -0.14413606 0.82004523 -0.6180739 -1.008271 0.9991658 -1.312872 -0.30241022 0.9906165 -0.3010142 -0.80630606 1.3480362 0.4675659 0.36536884 -0.4672092 0.4643332 -0.591605
555 -0.625218 0.9954153 -0.50685614 0.042339325 -1.2416142 0.99044055 0.06025725 -0.6319267 -0.38591558 -0.15592566 -0.9756436 -0.7682635 -0.07409814 -0.66165525 0.3847018 -0.124307476 0.2713521 -0.29749286 -0.4087383 0.7008213
536 -0.48195952 -0.81086683 -0.7191342 0.12954743 -0.49055287 0.7279405 0.106598474 -0.73311055 -0.1560621 -0.619561 -0.554495 0.05011586 0.43396357 -0.77471143 0.24524921 1.6034441 -0.14026241 -0.11594199 0.15501815 0.011524799
569 0.31976914 -0.3975342 -0.8380523 0.52732664 -1.2492813 0.7095805 -1.6404701 -0.6242541 -0.1937683 0.39540812 -1.7430761 -0.38108203 0.34726807 -0.6950548 -0.046644066 0.8901821 0.00077402097 -0.049115814 0.45915738 0.18647504
596 -0.10328656 0.06482527 -0.6866517 -0.22188112 -1.061305 0.018877305 0.018476313 0.24615534 0.7880011 -0.34843352 -0.99447775 0.4240044 -0.06939581 -1.8220242 1.2425714 -0.2730265 1.4003067 -0.7055517 -0.10703435 -0.11783517
618 -0.17070355 1.2834212 0.13037796 0.3097247 0.100948386 -0.075770065 0.43215302 -0.71959794 -0.35482517 -1.4264454 -1.5250041 0.27994528 -1.0586605 -0.01618371 0.7355902 0.5532729 1.0410489 -0.6845677 -0.24127561 0.13507503
601 0.40716276 -0.03855927 -0.5036054 0.4740574 -1.4459026 0.20940028 -0.29772487 0.7347065 0.3718396 -1.1887668 -0.90139097 -0.30104762 0.19010189 -1.6415344 1.3276066 -0.8393093 1.0709897 0.17497213 -0.73418486 -0.4419436
587 0.29510927 0.8483778 1.1027381 -0.05044841 0.7887594 -0.021212822 -1.0538135 0.07556513 0.15351374 -1.0098517 -0.99447864 0.4128839 -0.6237945 -0.68145525 1.2743593 0.65707153 1.3861111 -0.61881 0.31337515 -0.21167572
533 0.5198198 -0.6728871 -0.6051335 0.0028925468 -0.5378235 -0.17626485 0.41177082 -0.4510612 -0.61306745 -0.8486734 -1.0753957 -1.5899643 0.57115245 1.1260384 1.0897851 0.24630168 1.003549 -1.661149 0.67704654 -0.9960271
605 0.64920634 0.32288438 -1.1622571 -0.6747871 0.10545363 0.22252156 -1.087299 -0.5341097 -0.2826794 -0.75251555 0.31602088 -0.8993009 0.31040105 -0.47705963 -0.10792282 0.17653723 0.67008704 -0.09907671 0.9640985 -0.59095204
571 0.085737765 1.3259037 -0.54470915 0.36256227 0.5820423 0.3351516 0.003565153 0.12359732 -0.29833922 -1.1799552 -0.080315106 -1.5598015 0.30620486 -0.58046204 0.18565325 1.0572777 -0.015679784 -0.61735415 0.3458352 -0.6412469
539 0.08030524 0.07457157 0.36225265 -1.0274508 -0.11862587 0.25570434 -0.34114003 0.18193096 0.9916768 -0.1416249 -1.1217186 -0.087871216 0.4629195 -0.77297276 0.92348987 0.30618152 0.4542449 -0.52200073 0.69330245 0.18292786
614 -0.3465781 -0.041514073 -0.4030753 0.75426173 -1.2800964 1.0018098 0.7933963 -0.95426506 0.8006281 -0.2693414 -0.47206157 -0.035267167 -0.3165596 0.44733268 0.9961165 -0.8015797 0.77714336 0.10198462 0.14584307 -0.12280749
538 -0.45225748 -0.13088124 -0.060677536 -0.92682266 -0.23804311 0.1971972 -0.53251296 -0.35615164 1.0881338 -0.16521132 -0.6136048 0.35266802 0.19274665 -0.8335378 1.3415427 0.31705 0.59201527 -0.7866902 0.90355295 0.19169334
532 -0.24498257 -0.3581324 -0.4027701 -0.17802627 -0.50532746 0.9423153 -0.48785245 0.18246746 -0.34150776 -0.5204978 0.22295834 -0.7322506 -0.84545785 0.337447 0.5975968 -0.1021035 0.4785451 -1.0933717 0.5742873 -0.17402141
602 1.9149125 0.62665075 -0.74460685 -0.1575036 0.93495715 1.3936014 -0.99065524 -0.4151589 0.978615 -1.0042003 -0.27416036 0.16918574 -1.0969086 -1.3944438 0.2935627 1.1130611 0.41700965 -0.110524 -0.19441621 -0.2636778
542 0.19528618 0.35121396 -0.07196071 0.6335964 0.2912248 1.2765149 -0.30517626 -0.30935666 -0.7299857 -0.36692584 -0.705005 0.10571996 -0.16600083 0.7428231 0.6811595 -0.11726517 0.62404835 0.08323939 1.3330506 0.9094177
584 -0.44967315 0.20343307 -0.32127813 0.42470518 0.019562336 1.5803322 -1.0441504 -0.29777396 -0.61051315 -0.17379782 -0.70506316 -0.10486971 0.25026205 -0.1135298 0.01243203 0.15712187 -0.17217903 -0.33807856 0.9736942 0.9945312
552 -0.838016 -0.6526503 -0.061518952 1.1957399 0.21684237 0.85446197 0.8070175 -0.072942585 0.365671 -0.5305453 -0.97385913 -0.877138 -0.2982214 -1.6039461 -0.72422564 0.040954348 0.68077976 -1.018272 1.0655665 -1.2264032
622 -0.84458494 -0.39648703 0.017670492 0.395412 -0.94089425 0.668269 -0.64825624 -0.87971437 -0.10428583 -0.6099031 -0.70244193 0.26731402 0.4729572 -0.53382635 0.20871972 1.5312971 0.010526212 -0.18210372 0.1540596 -0.39386216
623 -0.18782468 0.48471215 -0.07071516 0.50713974 -1.0624719 0.7772922 0.9311269 -0.9270872 0.68505245 -0.3122068 -0.97889954 -0.58519 -0.60077953 0.22979668 0.24085571 -0.08979797 0.70067066 0.1986187 0.11474846 0.43860278
589 -0.35696384 -0.1186751 -0.3102375 -0.10013747 -0.23467459 0.51834387 -0.25459307 -1.0131669 -0.18592381 -0.8865627 0.42843 0.29113808 0.20042866 -0.50577265 0.89304614 1.4275107 0.61065704 0.0056826435 0.036864117 -0.30199072
609 -0.00287323 -0.24731396 -0.31215388 0.11267017 -0.9921218 0.28500155 0.111531496 -0.77512693 -0.6566139 -0.85291404 -0.3583683 0.71247953 0.22203669 -1.4674774 0.8216092 0.6675381 0.5591373 -0.18403576 -0.10510161 -0.5921941
544 -0.11175531 -0.79740983 0.87328637 -0.020224154 0.20157802 0.10426111 -0.010185711 -0.41080353 0.011154366 -1.4730227 -0.85846835 -0.79296535 0.53691167 -0.61194146 0.50798005 0.22427101 -0.22195159 -0.28068337 0.111627765 -0.75976783
597 0.58182013 -0.8344322 -0.38905177 0.5293489 0.16269153 2.8163996 -1.1124457 -0.46998045 0.32750916 -0.47737944 0.27943677 0.27214807 -0.47559094 -0.67219126 -0.48694563 0.25996467 0.20031056 0.21236426 0.30999494 -0.13271336
600 -0.12157279 0.603917 -0.63531905 0.13300349 0.12429476 0.2986747 -0.7388731 -0.7669678 0.7448245 -0.790762 -0.11210508 -1.0707228 0.42340827 -0.1368326 0.36081898 0.53931475 -0.14336082 0.75947726 0.5655965 -0.6219635
556 -0.05122642 0.39228272 0.66297346 0.7406182 0.5066392 1.0853342 -0.38636172 -0.054960933 -0.8285844 -1.0128365 -0.7416773 0.7794165 -0.7410449 0.6538611 0.87679344 0.21985173 0.84653115 -0.45055243 0.56967396 0.48392355
546 -0.049103823 -0.22222404 -0.19032454 -0.012391404 -0.040691905 1.1446807 -0.5550749 -0.15848632 -0.78853214 -0.51804346 -0.16350779 -0.102162756 -0.6170045 0.14335506 0.31553686 -0.15570822 0.23243597 -0.9267797 0.67277086 0.7196782
560 0.571403 1.0471743 -0.398628 -0.23819417 0.2922277 -0.28587914 -0.5317007 -0.31347656 -0.19453695 -1.7713944 -0.22621262 -0.21594189 -0.512578 0.04830619 0.71577877 0.87501204 0.9703346 -0.22607163 0.2345705 -0.25199735
613 -0.22313601 0.28644365 -0.6871751 -0.15442367 0.44576505 0.3616976 -0.7948239 -0.59812516 0.008875636 -0.8500574 -1.1541421 -0.60193396 0.09585886 0.63290006 0.4456152 -0.14584604 0.68262994 1.2807873 0.6059528 -1.0353678
581 0.60147274 -0.49547464 -0.5723073 0.6992101 1.2661288 0.56199276 -0.065425485 -0.69910717 0.42811567 -1.0152696 -1.7792964 -1.2848867 -0.1311266 0.0041622333 0.30263454 -0.5357415 0.15030214 0.502547 0.006970707 0.47152647
608 0.04518369 0.04648297 0.13872992 -0.048576403 -0.1640762 0.30465233 -0.087003216 -0.6359131 0.80395806 -0.20986056 -0.33113754 0.0044287615 1.1667566 -0.13630332 -0.37964228 0.14078683 1.850452 -1.0665848 0.22602603 -0.22537307
612 -0.698223 -0.16957216 0.016628152 -0.22397158 -0.3681217 1.0504469 0.35950252 -0.4355429 -0.7206963 -0.83875453 -0.204657 0.6113802 0.26604924 -0.63527566 0.55884594 1.0003937 0.32584876 -0.07514929 0.65986526 -0.23769239
591 -0.9134768 -0.0056367377 -0.22284523 1.2219375 0.52306825 0.8262837 -0.2445994 -0.23757575 -1.2017815 0.6529816 -1.3015207 -0.43110013 0.5541349 -0.40395644 0.72820365 0.49019217 0.3339175 -1.2152206 1.2514488 0.14196913
604 -0.13366307 -0.068790786 -0.5178533 1.0673313 -0.09706505 0.58975166 0.27846387 -0.5820672 1.5310221 -0.54104805 -0.16831604 0.37074652 0.25837177 0.3299637 0.005147634 -0.106886424 1.0568277 -0.90959805 0.2738611 -0.013779441
566 -0.6692877 -0.2168545 0.64405733 0.043615982 0.58441746 0.71386045 -0.16475637 -0.71797717 0.20764552 -0.40888995 -1.5773468 -0.68846476 0.14486001 -0.38433152 0.81078774 -0.062522106 0.43986946 0.22275679 -1.0402381 -0.1958972
