500 32
131 0.25226086 -0.0029636058 -0.09763821 0.43635058 0.3349666 -0.07117198 0.09816364 0.30368888 -0.3431799 0.15862748 0.29097816 0.44225234 -0.7977258 0.6379306 0.31507665 0.34217107 -0.17345046 -0.30022898 -0.30461478 -0.21450335 0.2307825 0.54641694 -0.5802574 0.4273157 0.22745484 -0.10647439 -0.5299816 -0.18129198 -0.8695896 -0.2547654 0.60562617 -0.09479189
10 -0.39979884 0.32701093 0.13383055 0.19461225 0.9554436 -0.64888334 0.1943681 0.14084722 0.1814688 0.08221989 0.061192773 0.06609405 -0.52065974 -0.21685988 -0.4613552 -0.081203505 0.11004327 0.22458267 -0.13207863 -0.33660653 0.54331845 0.18515566 -0.26628146 -0.6939098 -0.121973574 0.5295322 -0.75823504 0.40224037 0.064725764 -0.17419492 -0.23521224 -0.056851875
443 -0.13668369 0.41185156 0.51359236 -0.17729604 0.12333874 0.07293762 0.16363935 0.26460055 0.49276757 -0.12703377 0.12987389 -0.5777411 -1.032142 -0.40643987 0.12733725 0.10823283 0.044044886 -0.0033300729 0.11638329 -0.549822 0.49687874 0.39797947 0.07021915 -0.41926837 0.4279371 0.046164848 0.2588111 -0.12854296 0.09487582 0.63785547 0.7024726 0.25589323
166 -0.37313777 0.2441484 -0.19223306 0.19889581 0.5967749 -0.3975061 -0.10769344 0.08712271 0.1420143 0.11514317 -0.035866994 -0.03710438 -0.36024344 0.26119545 -0.45954996 0.39201054 -0.123657815 0.015606861 -0.6616952 0.10251431 0.13518545 0.78117865 -0.14349635 -0.3934781 0.41380388 0.3213074 -0.7141569 0.25298667 0.5814052 0.41578946 0.4022047 -0.15809317
462 -0.10796413 0.15969123 -0.25055578 -0.0520335 0.3934756 -0.3237672 -0.040795155 -0.27561632 -0.12663859 0.16076827 -0.32661065 -0.22498137 0.070640236 -0.44463754 -0.37935486 0.24989869 0.26802108 -0.45748597 -0.334463 -0.3156533 0.07311525 0.57718116 -0.084424414 -0.96356326 0.07183448 0.75630444 -0.81261617 -0.109687984 0.039314065 -0.36275977 0.03488898 0.024461983
260 -0.02258109 0.35703665 0.74969995 0.78482413 0.68575186 -0.2730672 -0.046418246 -0.10744439 0.21813926 0.033722118 -0.035108116 0.6896567 -0.23128282 -0.38706738 0.058982424 0.09241077 0.8634852 -0.33703488 0.4462139 0.16746466 -0.20041817 0.29718614 -0.41509086 0.12924014 0.0917288 0.64291817 0.26119307 0.4007778 -0.08231051 0.41687465 0.07756067 0.16609412
354 0.2814596 0.076013386 0.7181207 0.34761792 0.56017417 0.07975455 0.2235301 0.1522211 -0.025626764 -0.6189448 0.35745123 -0.57927525 -0.8599144 -0.28058058 0.165157 0.29606232 0.1855039 -0.20785014 -0.017219704 0.049109865 0.070710205 0.029641975 0.027098851 0.018462293 0.13362747 0.56697077 -0.39847463 -0.87061423 -0.37925145 0.48060912 0.13025525 -0.11778424
145 -0.21833467 0.03967055 -0.49589282 0.35661855 0.21011694 0.07504305 -0.0026924496 -0.20831482 -0.8447554 0.06673681 0.0009035436 0.21470805 -0.117090106 -0.27263737 -0.14995901 0.05811308 0.40649888 -0.4984193 -0.57233655 -0.30228612 0.20481502 0.28935617 0.04447506 -0.40028358 0.1699989 0.37512332 -0.88596123 0.05370136 0.6314574 -0.023907967 0.2994738 -0.02862066
416 -0.15242016 0.1333242 -0.47976452 -0.2103551 0.61383796 -0.042485535 0.08693079 0.122938775 -0.3226844 -0.1700069 0.48852342 -0.007787437 -0.14491244 -0.49362695 -0.52993244 0.2862428 0.34150702 -0.58331865 -0.5706089 -0.5261187 0.23548657 0.23554207 0.046320986 -0.84042543 0.077555224 0.40005395 -0.5890026 -0.023757562 0.008122004 -0.13054594 0.08575075 -0.28635332
109 0.14408524 0.37636733 0.62537193 -0.19083475 0.66332966 0.41026628 0.098544665 -0.18986166 0.07429852 -1.0026555 -0.1067708 -0.38197893 -0.504237 -0.5058763 0.6491051 -0.20375115 0.06456012 -0.013236214 0.18962897 -0.49282265 0.15281154 0.0695502 -0.6347448 -0.42135125 0.18099634 -0.17909251 -0.5492383 -0.43901214 0.3073386 0.21677764 0.24018179 -0.2722745
334 -0.12286994 0.62416005 0.26666838 0.55961215 0.103158996 -0.5804266 0.017956693 0.55216044 -0.028121399 0.36754155 0.26637328 0.12082282 0.1791364 -0.30011916 0.254748 -0.13779187 0.49239114 -0.4159251 -0.01485471 -0.5242972 -0.64872116 0.10667306 -0.13308254 -0.26376182 -0.17807417 0.7838354 0.23229375 0.02846365 0.03761956 0.043406647 0.446081 -0.025240725
16 0.07742385 0.40042517 -0.14056641 0.24808414 0.486347 0.583884 0.11034797 0.3243491 -0.044481263 -0.035055544 -0.09408211 0.16734521 0.004086417 -0.104963526 -0.71607506 -0.18852258 0.56616646 0.05108187 -0.64006037 -0.041404884 0.043694783 0.32059354 -0.1385602 -0.7105797 0.67014706 0.19803831 -0.6343632 0.47319824 0.15442133 -0.2685337 0.5501942 0.51446396
36 -0.051198896 0.4016629 0.09234787 1.2472224 -0.027624011 0.16506247 -0.07304072 0.450133 0.11631874 0.16876394 0.76774615 0.010833387 -0.506649 0.012260703 0.05649489 0.13631886 0.71723866 0.26429805 0.55344117 -0.27681342 -0.19945462 0.0036137265 -0.48646212 -0.16207743 0.2024766 0.5611711 0.07113728 0.054128256 -0.45969394 -0.037364095 0.07279801 0.15039629
94 -0.23688786 -0.29707366 -0.4609084 0.10477004 -0.12208078 0.40036562 -0.088254794 0.1382472 0.09342473 -0.3127885 -0.02168018 0.32695454 -0.41847503 -0.034423124 0.35678962 0.090464674 0.0011107483 -0.49581763 -0.26699522 -0.15253381 0.12184085 0.5094969 -0.81713885 0.19920218 0.67626226 -0.1610685 -0.37317884 0.09330718 -1.1646566 0.049447645 0.5213604 -0.19265658
436 -0.39946368 -0.07714498 -0.58817464 -0.52054566 0.20599468 0.22503029 -0.36880538 0.502212 -0.5718018 -0.011350881 0.32887536 0.23495911 -0.52786875 -0.30601078 -0.1410787 0.21941271 -0.0029044976 -0.46025917 -0.49932343 -0.361867 0.55533123 0.39214775 -0.22636905 -0.43239066 0.6139449 0.20843336 -0.79345345 0.091584854 0.05279102 -0.27043244 0.16048431 0.1745003
469 0.06126547 -0.09830269 -0.26988608 0.18630852 -0.079636954 0.04968129 -0.09637851 -0.20809515 0.2047704 -0.165787 0.57763463 0.19287896 -0.6079544 0.27122465 0.27663502 -0.36754513 -0.45921826 -0.19829258 -0.13567792 -0.40256223 0.3436262 0.96872133 -1.3133993 0.12781067 0.3485738 0.084264375 -0.44940335 -0.3092544 -0.12735777 0.12681851 0.13640061 -0.38234377
459 -0.50028956 0.31830433 -0.5575813 -0.06983976 0.4488597 0.14776924 -0.06736557 0.050310023 -0.1470617 -0.45035923 0.046339516 0.2155088 -0.25625083 -0.18400058 -0.4062179 -0.0919034 -0.11632143 -0.4681605 -0.6758111 -0.3804526 -0.1242115 0.18974975 -0.07302687 -0.77317876 0.6403215 0.47966266 -0.565144 0.2826881 0.034063436 -0.022624152 0.052004203 0.1516978
136 0.27482235 -0.015067819 -0.25364405 0.18843603 0.28700033 -0.11907279 -0.6471948 0.3966622 0.16663267 -0.44228122 0.19196787 0.59623843 -0.47347072 0.19375162 -0.12838365 0.2412553 0.09672624 -0.8835046 0.48055497 0.15722209 0.36591733 0.61363506 -0.6298682 0.5559028 0.082832284 -0.08328063 -0.74267966 0.33159944 -0.41285062 -0.16456202 0.37217414 -0.23302214
104 -0.7278993 0.22262996 -0.14078772 -0.23244168 0.30136377 -0.019831637 -0.024680944 0.28734988 0.24978015 -0.39065877 -0.20394869 0.35060856 -0.53113484 -0.37401813 -0.6207955 0.3560819 0.2925548 -0.3152253 -0.72635067 -0.48151395 0.043450158 0.083284736 -0.09921419 -0.39799502 0.12452059 0.78527194 -0.7824949 0.22294101 0.10447702 -0.2707868 0.13771562 0.028967632
102 0.40533915 0.05277988 -0.2333123 -0.087011844 0.3171252 -0.39853686 -0.19439521 0.35741314 0.27871922 0.18629944 -0.1190725 0.49831185 0.10462984 -0.03616123 0.2500922 -0.1788186 -0.01979063 -0.20556058 -0.2594113 0.32645613 -0.4218207 0.98379266 -0.13565288 0.06638292 0.23063701 0.24460463 -0.46732762 -1.1630733 -0.12618758 0.4377543 0.61800766 0.21101259
278 -0.58853686 0.3479524 -0.22943279 -0.10437022 0.47223288 -0.28272572 -0.10949074 0.37574524 -0.21771525 0.15597461 -0.32373574 -0.22377354 -0.7077019 0.3242613 0.11945991 0.095504396 0.2759432 -0.6103902 -0.48115137 -0.26586378 0.45890853 0.56970346 0.20354646 -0.5395635 0.73085433 -0.061482444 -0.79075325 0.39768353 -0.05213034 0.04691096 -0.26051652 0.13372123
111 -0.29866123 0.19909607 -0.5485653 -0.25494602 0.4693258 -0.20910026 -0.037488777 -0.07378342 -0.17507623 -0.10867917 -0.047428884 0.024780624 -0.46084833 -0.46820083 -0.22256526 0.35892177 0.25072378 -0.4876213 -0.498451 -0.43756488 -0.28746128 0.6020405 0.20789157 -1.0888067 0.119140945 0.08761519 -0.6075016 -0.23862739 0.27902037 -0.16340266 0.23223802 -0.2793269
246 -0.20761377 0.6594724 -0.27096742 0.09896489 0.50237346 -0.24961704 0.29083997 0.34322423 0.037226774 -0.031786256 -0.20815466 -0.15639599 -0.20939401 -0.44005528 -0.09537165 0.4295121 0.07217591 -0.03849314 -0.29236838 0.14986484 -0.14295208 0.85833734 -0.10515977 -1.1522789 0.17874645 0.11128437 -0.5830879 0.23024529 0.3372161 -0.39339218 0.13224703 -0.40940362
341 -0.96395355 -0.05358561 0.09907388 -0.31270218 1.0400752 -0.110237144 -0.11104671 0.2526618 0.24503122 -0.14416702 -0.24977338 0.29882437 -0.22390045 0.082122624 -0.09029215 -0.014830171 0.0033355134 -0.6067284 -0.33986667 -0.113966964 0.12774593 0.19536163 -0.25620916 -0.63664776 0.199995 0.46880117 -0.5825102 0.16486028 0.27926454 0.4001771 0.2253936 0.0925133
28 0.26336247 1.1183883 0.112846024 0.8966451 0.20141558 0.15520209 0.24039835 0.17898029 0.025623783 0.18282913 0.52495563 -0.059754163 -0.076323316 0.12436385 0.5946389 0.060219016 0.8319373 -0.34929442 0.39895275 0.1440795 -0.4739705 -0.015323145 -0.07431907 -0.11303044 0.5502614 0.26273966 -0.23640972 0.22969832 0.09236973 0.07514936 0.3211703 0.5304202
127 0.20721926 0.18352535 0.7264608 -0.09602749 0.21670306 0.34235317 -0.12457991 0.104436584 0.1562213 -0.49129117 0.057771757 -0.36918083 -0.71082944 -0.6553876 0.44612348 0.041581698 -0.033733893 -0.20001689 -0.05704052 -0.40374574 0.15996258 0.2155011 0.23755413 -0.65639573 0.111702845 0.25617072 -0.6359353 -0.55129045 0.10288336 0.6256069 0.2666463 -0.7139457
300 0.12986992 0.3210743 0.3230595 0.05839697 0.0095004495 0.4757407 -0.15642402 -0.111856036 0.1308594 -0.41239825 0.63817215 -0.47295213 -0.9404766 -0.3864152 0.57440966 0.56067187 0.15171427 0.2353767 -0.1247349 -0.35671288 0.09454546 0.06797819 -0.33952 -0.77023035 0.23367617 0.11059408 -0.1682805 -0.6351632 0.05722269 0.6270383 0.22785264 -0.22939533
385 -0.43274617 0.3518726 -0.43940967 0.08747804 1.0419484 -0.43603665 0.12149997 -0.34660077 0.20600677 0.056325935 0.31828496 0.22743474 -0.18733333 -0.18796559 -0.55777067 -0.08650659 0.2534083 -0.289668 -0.39504623 -0.40798157 0.16344929 0.079389706 0.14414579 -0.29688892 0.13216716 0.14654927 -0.7336928 -0.059848394 0.46060133 0.05695159 0.5133641 0.24030313
215 -0.08977343 0.2270656 0.58217525 0.092533775 0.39519614 0.2961029 0.5137157 -0.1498789 -0.09895858 -0.6448322 0.13469453 0.20014328 -1.0087491 -0.34880254 0.75494146 0.20976229 0.29264984 0.32005757 0.4504963 -0.17045797 -0.26325145 0.11112451 -0.403145 -0.36331952 -0.05034202 0.27820346 -0.5641763 -0.24553117 0.34628198 0.45413718 0.5046515 0.065102965
359 -0.038494065 0.37541223 -0.031328402 0.87740797 0.07459227 0.47831348 -1.056868 -0.3751362 -0.25928164 -0.05979363 -0.15299234 0.7015931 0.13996595 -0.8628863 0.57646817 -0.07602968 0.13219206 -0.26732677 -0.45918542 -0.1097788 0.50901926 0.030016359 0.15635589 0.1925825 0.28181016 0.47583404 -0.08307771 -0.11778878 -0.20620665 -0.08854095 0.38478267 0.30725446
158 -0.41285774 0.28343853 -0.15304944 -0.04740295 0.6781578 -0.25213683 -0.12389084 -0.11146665 -0.05393713 -0.25670967 0.1350724 0.331383 0.06630178 -0.15180546 -0.786794 0.026402764 0.20259187 -0.62822396 -0.33752772 -0.22246245 -0.21897094 0.55381125 -0.17506212 -0.9751333 -0.08348857 0.23750746 -0.36829066 0.17323293 0.20347315 0.29640764 0.1282105 -0.16602609
309 0.047590226 0.57202435 0.3252033 0.77195376 0.22048695 0.13536227 0.5996757 0.30419946 -0.10281498 -0.29376507 0.5914695 0.285749 0.40818757 0.013914456 -0.10517142 0.3509475 0.91368425 0.14054526 -0.13443245 -0.12503783 -0.19385937 0.16420749 -0.25360286 -0.868456 0.12035362 0.42132014 0.3182315 -0.23424138 -0.6189735 -0.06990295 0.21633327 0.5794128
324 0.16477166 -0.0047309347 -0.22383583 0.17309815 -0.2634156 -0.14767627 -0.30099744 -0.34086058 0.30597848 -0.2614616 0.5810546 0.38694048 -0.1665849 0.124272816 -0.32703897 0.34239846 -0.22167997 -0.59687555 0.47721767 -0.078903675 0.4355922 0.22192343 -0.7845788 0.3526616 0.41805682 0.15563077 -0.8162302 -0.10024708 -0.27334064 0.0586751 1.0947659 -0.28467768
195 -0.08593602 0.0984342 0.039493717 0.9571356 0.16559656 -0.052944038 0.16856705 0.76358753 0.24124834 -0.41179997 0.17098854 -0.20928854 -0.03657144 -0.19198547 0.501466 0.4950883 0.79848456 -0.30590168 0.1451325 0.05407472 -0.63295585 0.579589 -0.018322365 -0.4646953 0.015645549 0.4529098 0.0629054 0.0018810836 -0.005075472 -0.17862853 -0.012408409 0.47814247
24 0.13068429 0.73596895 0.22161834 0.41260958 0.26202142 0.16333608 0.121097215 -0.33287933 0.1108165 -0.62214154 0.55825204 -0.5507513 -1.0701352 -0.31049544 0.5763016 0.02922533 0.46818018 -0.006237035 -0.3095325 -0.6239697 -0.121441096 0.22875653 -0.3037088 0.05988745 -0.22041632 0.014714768 0.07338679 -0.53846407 0.415157 0.31333405 0.017323436 -0.26625967
289 -0.20867337 0.18841317 0.05085043 -0.26125142 0.78477937 -0.3819903 -0.19426166 0.25864488 -0.1883712 -0.062056255 0.24429294 0.36417386 -0.7387359 -0.3912177 -0.508033 0.10484682 -0.051351056 -0.3715172 -0.49206552 -0.7095036 0.31261718 0.4832116 0.35708034 -0.9030014 0.20105827 0.39580342 -0.25616553 -0.2021217 -0.03716178 -0.0980922 -0.13070898 -0.41537058
461 -0.13134454 0.1878566 -0.8073716 0.1769518 0.678227 0.019957587 0.023590349 0.33756524 0.021969048 -0.06350225 -0.28278002 -0.29530716 -0.6592158 -0.4861893 -0.31806937 -0.2917379 0.21073711 -0.5460953 -0.2921026 -0.41234326 -0.237993 0.5339742 0.060875226 -0.569617 0.21229248 0.38827738 -0.44050762 0.46251056 0.46477678 -0.21004139 0.30599043 -0.048020773
352 0.21411747 -0.25137737 0.17762122 0.3466314 0.06789916 0.3139826 0.042377573 -0.42100585 0.063774236 -0.50897753 0.07022599 -0.20090313 -0.88433367 -0.2698746 0.68207794 -0.01127545 0.3068057 0.15194543 0.40621078 -0.8797352 -0.112615585 -0.112065725 -0.08986669 -0.55357754 0.40207097 0.020858806 -0.6186241 -0.6335584 -0.06985822 0.7673546 0.20084336 -0.16246422
114 -0.57019264 0.23363705 0.6824524 0.2701026 0.17239836 0.42008412 0.18541357 -0.14144991 0.19308954 -0.501077 -0.052768752 -0.2668236 -0.9784332 -0.4405534 0.8598412 0.05830411 0.32913238 0.22771952 -0.21872896 -0.47378907 -0.055834398 0.5408033 -0.08614959 -0.14486498 0.20241898 0.37251735 -0.15410502 -0.22040263 0.20728637 0.2555722 0.26707745 -0.13334443
327 -0.03994737 0.25082436 0.43260905 -0.13937785 0.11182015 -0.41242495 -0.033344895 -0.0005990906 -0.17392232 -0.67530334 0.32921863 -0.83360034 -0.76453966 0.05048826 0.44047695 0.16349894 0.1276889 0.47353613 -0.25851214 -0.47621867 0.27897313 0.29772928 -0.5118741 -0.70421606 -0.19020161 0.15465358 -0.19011854 -0.5132346 -0.0352888 0.3144829 0.49252346 -0.24006504
336 -0.8922018 0.2414157 -0.26373127 -0.14086908 0.68203306 -0.17727062 0.27630466 0.14237893 0.036857057 -0.23011664 0.017812269 -0.3258621 -0.4285224 -0.35612163 -0.18748504 0.35319072 0.28773832 0.017071184 -0.7387638 -0.22284219 -0.18111621 0.5286643 0.08631429 -0.48166794 0.3467478 0.39113778 -0.3733767 0.41840035 -0.3754527 0.45824566 0.009242631 0.2759986
391 0.61408806 0.6139154 -0.38952753 0.06268697 0.26858953 -0.22782727 -0.47034407 -0.12950331 0.2980061 0.1465037 0.6267005 0.21993615 -0.27226296 -0.48444548 0.5914181 -0.107138194 -0.52028507 0.36488107 -0.18128541 0.08252257 -0.33060575 0.24911289 0.007614297 -0.14911842 -0.11465746 -0.036046337 -0.78604597 -0.4412776 -0.54798853 0.44702098 0.50885445 0.31514397
419 0.30424052 0.009901869 -0.37564746 0.32484537 0.61257434 0.02887682 -0.57853913 0.72909224 -0.7739219 -0.26319283 0.22899534 0.24520174 -0.29360777 0.20411833 0.26923674 0.19952174 -0.37925345 -0.16983193 0.059528638 -0.32681513 0.35372287 0.35053253 -0.94097775 0.36336565 0.079966545 -0.34679812 -0.34502086 0.4441368 -0.50763667 0.35751402 0.67338145 -0.38452876
439 -0.495509 0.34784427 -0.13555935 0.7876291 0.15731451 -0.1957035 -0.07070357 -0.3831236 0.5771664 0.16115543 0.18903734 0.159251 0.052504715 -0.44753367 0.2894909 -0.1106584 0.93492275 -0.19452538 0.80555063 -0.5924098 -0.28184077 0.22881177 0.29135698 -0.5941303 0.30269578 0.36743367 -0.21920913 0.3428342 -0.29930717 0.30059493 -0.0024439415 0.2853696
270 -0.18550456 0.7963855 -0.27289477 0.89292574 0.072871886 0.045571096 0.52851605 0.66943616 0.005507623 -0.31789947 0.2819001 -0.04600558 -0.09374019 -0.09800214 0.7013618 -0.41730452 0.69584227 -0.32068038 0.37296975 -0.10814453 -0.08741896 0.1938924 0.136011 -0.28354624 0.034012463 0.6401305 0.047287762 0.02857838 -0.16997415 0.30714867 -0.19703677 0.17912206
96 0.1742479 0.71587354 -0.1385097 0.22948976 0.06641317 -0.11734344 -0.06977564 0.18997061 -0.18216486 -0.2983947 -0.06505134 -0.57366735 -0.8967171 -0.35634658 0.438498 -0.3608917 0.3962761 0.113249876 0.5910486 -0.05396566 0.6148589 0.34556925 -0.20258498 -0.13036238 0.63678545 0.8890676 -0.27709296 0.53770477 0.4697371 0.76072764 -0.11845673 -0.88598716
293 -0.36814713 -0.118328705 -0.5055745 -0.18538071 0.43936044 0.022999829 0.12287913 0.36917016 -0.15530205 -0.2822799 -0.16816318 0.2784255 -0.18469797 0.05806204 -0.12885392 0.07026222 0.03495065 -1.013465 -0.43269116 -0.25952825 0.25985393 0.44116366 -0.07713635 -0.7782641 0.34057823 0.38975376 -0.5696899 -0.16287947 0.5292137 0.08879456 0.0007083746 0.2852033
366 0.04589157 0.6310856 -0.076050766 -0.030944545 0.6320401 0.035448074 -0.20717664 -0.22527827 -0.14687936 -0.08112932 -0.11351717 -0.029794954 -0.31508258 0.08589639 -0.31905735 -0.10583525 0.16774559 -0.44215146 -0.9247016 -0.17168882 -0.4495861 0.75986874 -0.11557942 -0.65341204 -0.26071182 0.005897498 -0.78750867 0.2687987 0.12384011 -0.14721432 0.24301095 -0.10448382
142 -0.59878874 -0.19600886 -0.15279086 0.21992144 0.59620315 0.104012564 -0.32784727 -0.30988115 -0.45192936 -0.1720093 -0.2850867 -0.31850004 -0.5807449 0.15791768 -0.22798736 0.33287624 0.16508774 -0.49096954 -0.328425 -0.44262636 0.13713071 0.86749566 -0.30875283 -0.5869217 0.124603026 0.78703225 -0.37883928 -0.08466031 0.056909755 -0.4266089 -0.2111786 0.5447111
52 -0.42006263 0.29448864 -0.4489664 -0.17440666 0.3714992 -0.103431135 0.15068696 0.017049268 0.1003047 0.03692746 0.35107267 -0.39821348 0.014937463 -0.66688645 0.18730192 0.5872069 0.087896965 -0.8683321 0.035414916 -0.17593586 0.22593679 0.22874038 0.43324718 -0.732592 0.21217288 -0.2302667 -1.1456604 0.3709116 0.3245535 0.057032753 0.42193708 0.118384145
85 -0.3054181 0.009696142 -0.14002705 -0.100119464 0.51433116 -0.76447153 0.34709743 0.48944926 -0.28197625 -0.030874062 0.48033133 0.49264276 -0.26615256 -0.4510682 -0.536095 -0.09453116 0.14979029 -0.37504116 -0.8967078 -0.20110601 0.38249645 0.48733738 0.0063801105 -0.6836544 0.025922239 -0.018196888 -0.81233597 0.095128395 0.3709422 0.11655583 -0.03690429 0.0684547
345 -0.27460164 0.36952072 0.22295603 0.3452296 0.05615178 0.18859442 0.14522724 0.24148525 0.7588094 0.17261994 0.53966665 0.71503323 -0.25808626 -0.07335104 0.67663497 -0.14147545 0.73400074 0.24845852 0.22273222 -0.32131624 -0.096358255 -0.2521087 -0.28080755 -0.4668913 0.53115135 0.60143065 -0.40204313 0.4626707 -0.3938918 0.18540797 0.008709341 0.5219652
456 0.15497223 0.8442227 -0.45484033 -0.004237213 -0.23467577 0.41226164 0.29528737 0.5916358 -0.041161712 -0.17026873 0.21304253 0.14109197 -0.003106333 -0.18029226 -0.17783459 -0.051907994 0.45847493 0.051153164 -0.013863784 -1.1660521 0.37818408 0.3351403 -0.35315454 0.42839834 -0.4204591 0.45401952 -0.22668631 -0.3033297 0.26517376 0.4052305 0.44049525 0.2295564
210 -0.33358812 0.4556407 -0.0010023792 0.24412796 0.3422426 -0.17328697 0.40382347 0.23676473 0.17880939 -0.28790355 0.15113989 0.29026443 -0.61762935 -0.34080163 -0.4995956 0.14302702 -0.21291278 -0.1453285 -0.9065264 -0.24043535 0.20233357 0.20044158 0.20815653 -0.61154145 0.2911336 0.40324166 -0.45792642 0.43840563 -0.21648021 -0.3800941 0.37674713 0.10954259
0 0.85140127 0.38872835 0.21617158 0.4763616 0.17959875 0.10801198 -0.6747648 0.18396714 0.18303731 -0.06891362 0.4806128 0.021828184 -0.271833 -0.1237232 0.07669202 -0.100612536 0.11615232 -0.039947264 -0.6141813 -0.041700214 -0.8196347 -0.25203305 -0.15530075 -0.16280629 0.36439073 0.05881343 -1.0140493 -0.28759882 -0.567175 0.2641305 -0.21220872 -0.053482983
369 -0.41653726 0.009135639 0.18931657 -0.10383552 0.09614177 0.11800727 0.007135852 0.38040206 -0.19009882 -0.6529636 0.74694663 0.072874315 -0.7624175 -0.20389873 0.35748586 0.11388493 -0.24810414 -0.2594534 0.48469707 -0.20246615 0.14959987 -0.031121682 -0.6865755 -0.42510095 0.19621457 0.54547733 -0.24088149 -0.54175305 0.6697423 0.86727977 0.27577254 -0.43826354
33 0.43829152 0.17709376 0.633706 0.4962584 0.36238003 0.18348844 0.3144359 -0.01922773 0.20959087 -0.5641705 -0.0861158 -0.29711285 -1.0461963 0.03427233 0.5232647 0.18926345 0.17069267 0.32482573 0.27234277 -0.25428838 -0.05446115 0.3218571 -0.59028214 -0.5684883 -0.41104886 -0.36940244 -0.58000785 -0.25275496 -0.08268693 0.7175515 -0.08325458 0.026311489
27 -0.12612769 0.08304156 0.09403054 -0.048660997 -0.08684561 -0.027815858 -0.07518232 0.3593353 0.26145053 -0.7111771 0.36793384 0.5641206 -0.279984 0.4536504 0.19746122 -0.07086608 -0.14107035 -0.98523414 0.15866226 -0.50947106 -0.08830448 0.7450124 -0.87845683 -0.05340857 0.055745423 -0.119590096 -0.03199078 0.4338344 -0.55477995 0.15200965 0.44031674 -0.09793293
116 -0.23576069 -0.1203125 -0.35809296 0.107283376 0.59105414 -0.28692123 -0.29987794 -0.18007119 0.15154608 0.1493518 0.1907315 0.1868537 -0.6322992 -0.40183178 -0.61069953 0.23710844 0.2865395 -0.9668574 -0.6939416 0.016818503 0.33767197 0.5473897 0.008845448 -0.9015848 -0.33108106 0.14988613 -0.13442206 -0.17196926 0.49379835 -0.053829826 0.38931215 0.030584512
204 0.18787558 0.30624214 0.1687854 0.96161133 -0.302119 -0.049174745 -0.07011831 0.22978577 0.7356379 -0.2103047 -0.50504637 0.5836707 -0.12969916 -0.34605566 0.00349021 0.14306346 -0.6887091 -0.2239162 -0.59561 -0.1255297 0.54927707 0.37656888 0.02073471 -0.52210987 0.5140008 0.20900732 0.007875785 -0.6477585 -0.4207029 0.38636348 -0.5468017 0.14119373
485 -0.1996628 0.3568089 0.22888958 -0.17744201 0.22916082 0.3302409 -0.1758641 -0.30062547 -0.17711085 -0.47657603 -0.20669082 -0.5455216 -0.8012276 -0.20515834 0.6154099 0.031570226 0.41402385 -0.19259332 0.32667035 -0.7049855 0.3278629 0.05792851 -0.34017593 -0.34541634 0.3481924 -0.08419199 -0.03502985 -0.9178775 -0.056547392 1.0855252 0.23515046 -0.25345057
312 -0.7635757 0.27537614 -0.42461908 0.19773322 0.28310752 -0.36019626 -0.07069599 -0.08501552 -0.54231066 -0.0334563 -0.16969582 -0.07133036 -0.4037029 -0.15305357 -0.34285656 0.29683784 0.24649079 -0.4333743 -0.30619055 -0.3104632 0.019028833 0.5060151 0.11171749 -0.7483957 0.044758596 0.26527512 -0.7627931 0.41476825 0.41906118 0.18752712 0.31494159 -0.26657873
29 0.099639304 -0.01805668 -0.244916 0.17837575 0.26265985 -0.005319381 -0.5610856 -0.15842709 0.49382922 0.057866786 0.4165067 0.3910149 -0.0058591496 -0.2455028 0.2383047 -0.16191468 0.5371545 0.26164877 -0.4186156 0.060150135 -0.52324325 0.3314805 -0.23920785 -0.088824995 -0.029041331 0.20607388 -0.61370844 -0.44081354 -0.48755932 0.47080338 0.21192203 1.0152624
86 -0.17606592 0.22469696 0.49338034 0.1591977 -0.082184024 0.2405504 -0.13321707 -0.10298189 -0.05494569 -0.41616037 0.248376 -0.39216417 -1.025788 0.20212032 0.05359679 0.3361016 0.13008243 0.16226831 -0.19258378 -0.028159583 0.23283273 0.4734578 -0.6478535 -0.46257302 0.32458946 0.11298331 -0.14223377 -0.33498052 -0.45528254 1.194165 0.24389131 -0.66248655
388 0.29127765 0.20323065 0.6415601 0.266803 0.46777555 0.18470222 -0.2813708 0.047613304 0.10775671 -0.24219918 0.3346333 -0.6494808 -0.65546906 0.26250592 0.5430774 -0.016370954 -0.02855896 -0.3077683 -0.2994992 -0.54395676 -0.1679474 0.03718925 -0.8440834 -0.41471165 -0.270134 0.18708526 0.41011298 -0.5675565 -0.065800205 0.9865228 0.34251216 -0.011690364
9 0.18028127 -0.15190405 -0.34514403 0.38357168 0.5919734 -0.030818509 -0.31459782 0.2969058 0.0065497947 -0.62331206 0.31888348 0.5659534 -0.5739763 0.40343058 -0.12646227 0.056150045 -0.4237018 -0.19794537 0.073152326 -0.6716926 0.39239576 0.45831883 -0.6391924 0.039203957 -0.24844319 -0.13615267 -0.5622416 0.49578702 -1.0984669 0.21942717 0.064066574 -0.23699236
492 0.007316827 0.47937417 0.047486313 0.2903376 -0.03339175 0.049746938 -0.7777148 0.0074739433 0.35034493 0.17994548 0.27501437 0.29024282 0.004686435 -0.7402786 0.22187193 0.890595 0.1587278 -0.1958348 -0.79282874 -0.42825922 0.44099995 0.54994303 -0.20227058 0.21376519 -0.37286165 0.0023184274 0.14496206 -0.07930534 -0.4929203 0.0274333 -0.1914061 0.9559672
273 -0.4751519 0.5502706 0.48694792 0.07097203 0.17896537 0.3504883 -0.16139814 0.45809177 -0.1109249 -0.2946351 0.50022316 -0.1820569 -0.83316237 -0.4204728 0.6586327 0.39287823 0.15529197 0.39489904 0.09360078 0.092897266 -0.057985216 -0.062545285 -0.41981655 -0.7678004 0.44065353 0.5167018 -0.21583511 -0.5634719 0.3968907 0.2596994 0.2401629 -0.5937573
427 0.14585854 -0.20036533 -0.9858072 0.1797231 0.10516959 -0.121978104 -0.3559046 0.453962 0.36972848 -0.21930248 0.7201774 0.06261284 -0.33164296 0.3058672 -0.172222 -0.121155515 0.18295571 -0.4428094 -0.18834995 -0.48555082 0.4113539 0.5377861 -0.84584683 0.32615706 0.004118631 0.073032 -0.1971791 -0.14184538 -0.33229166 0.13256289 0.50403947 -0.43642232
237 -0.32332963 0.085169844 -0.31902316 0.29782385 0.06614012 -0.18155283 -0.408061 0.0035052465 -0.39949358 -0.29936782 0.05858661 0.25771368 -0.9586202 -0.35716337 -0.43372816 0.35158238 0.40098894 -0.25634238 -0.10040976 -0.302956 0.08611337 0.7035117 0.08276404 -0.51156247 -0.009806923 0.76147187 -0.21125817 0.095223494 0.29706317 -0.5746167 -0.06220733 0.11105406
70 -0.10163268 0.06637643 -0.19456738 -0.23379792 0.45379922 -0.34528542 -0.51113075 0.46303186 -0.09925319 -0.070380524 0.18729581 0.122869276 -0.61620736 -0.6326115 -0.33666727 0.048763186 0.3638688 -0.043820336 -0.5554121 -0.48872286 0.6389217 0.5027347 -0.055716265 -0.484941 0.15455933 0.03564776 -0.63645494 0.20881493 0.028357826 -0.4103367 -0.30612695 -0.44812343
163 -0.045000315 0.21822964 0.51814365 0.3754483 0.27616337 0.020550208 0.323711 -0.11162009 0.20773132 -0.34750885 -0.05008228 -0.70185363 -1.0065382 -0.38025314 0.32892737 0.33996943 -0.29017946 -0.40416366 -0.0716933 -0.17774606 -0.16906205 0.022157403 -0.23641704 -0.58356774 0.12874651 0.15088561 -0.40473515 -0.4331117 0.18436764 0.62076706 0.16590467 -0.23853895
433 0.12593365 0.10483066 0.36444545 0.43631738 0.34018162 -0.07526693 0.4356984 -0.03480789 0.19730632 -0.1317044 0.49424618 0.033884566 -1.0981076 -0.24963163 0.44679716 0.41137022 -0.11672458 0.32638296 0.030908786 -0.23231444 0.14468642 0.54132277 -0.040276892 -0.19693704 0.39809343 -0.18466586 0.091604546 -0.06917144 -0.067452796 0.96733963 0.7403744 -0.29250586
330 -0.25942793 0.41840792 0.6257621 0.80402905 0.27374452 -0.40951344 -0.18264997 0.2916857 0.5466493 0.40701684 0.20781417 -0.18646097 0.040736638 -0.046544787 0.044403557 -0.40307087 0.7280022 -0.17382328 0.24335472 0.029951392 0.066510655 0.53280216 -0.025183106 -0.26293382 0.05518288 0.7129212 0.07390039 0.19289958 -0.5127803 -0.03937567 0.6715541 0.44922355
257 -0.74445474 0.41390002 -0.5627168 0.117787026 0.20414656 -0.19692768 0.221753 -0.15918185 -0.1408732 0.13062294 0.21572383 0.03939513 -0.5400893 -0.3994007 -0.0060456814 0.22126387 0.39441425 -0.58849317 -0.34055457 -0.37438762 0.0923072 0.15123901 0.19822635 -0.41949958 0.34161213 0.39612553 -0.72630113 -0.30038524 -0.020459093 -0.7391739 0.15156925 -0.08957702
157 0.16559711 -0.023310404 0.11710517 0.4364828 0.28729245 -0.7450676 0.18523352 0.39295357 -0.2075173 -0.26857013 0.1804792 0.3266003 -0.08839495 -1.0117756 -0.1630608 -0.37062117 0.15875672 -0.17905864 -0.12385593 -0.33541626 -0.049854007 -0.25278354 -0.94214594 -0.55826163 -0.25151098 -0.5354774 0.011897318 0.24008282 -0.23376684 -0.3886415 0.6161905 0.1772695
244 -0.10330488 0.12010787 -0.08414693 0.0854229 0.5077637 0.5206727 0.040391985 0.6147028 -0.01222208 0.084604494 0.26512343 -0.21001051 -0.645916 -0.08873096 -0.47219527 0.06450523 0.20318757 -0.4972323 -0.6382136 -0.049417574 -0.1656244 0.2506048 -0.20171784 -0.91026044 0.23936324 -0.36157694 -0.6785167 0.22238822 0.68317753 -0.050855126 0.6044061 0.4776086
287 0.037443347 -0.2960498 -0.29625785 0.27060106 0.5710274 -0.13962375 -0.52241784 0.05307328 0.27560833 -0.2934411 0.23568131 0.578436 -0.53795063 0.7024534 -0.14685468 0.28227997 0.2994618 -0.38936862 0.4364745 -0.14554599 0.35906005 0.18716855 -1.0472212 -0.12096839 0.30433437 -0.33243382 -0.29799837 0.12831703 -0.4635415 0.035200182 0.5662942 -0.18696806
331 -0.21234147 0.364031 -0.29868248 -0.08533004 0.6170476 -0.20887995 0.10590941 0.29705036 -0.17115729 0.040800683 -0.11908145 0.07433536 -0.3554219 0.23838702 -0.719476 -0.12313716 0.4007191 -0.2747132 -0.6099621 -0.70650905 0.31178993 0.05221768 -0.18704818 -0.7553454 0.279403 0.57624096 -0.7691927 0.16161661 -0.1712052 -0.13344109 -0.092066996 -0.30741337
110 -0.21041146 0.68458664 0.106869005 0.6179439 -0.45743075 -0.310221 0.61565083 0.38241714 0.27281585 -0.14941207 0.08598963 0.045282844 -0.21255632 -0.3340341 0.40625656 0.17046046 0.7787735 -0.11111729 0.44361776 0.13863936 0.055375155 0.1919478 -0.3058213 -0.33395934 -0.5331882 0.6770397 -0.17654188 0.010902791 -0.48355317 -0.23794529 0.37936002 0.4397087
227 -0.15255077 0.43076348 0.35937232 0.6318538 -0.4711615 -0.22835363 -0.55136603 0.49432907 -0.08383034 0.35365632 0.6415409 -0.081723236 0.10154704 -0.050392345 0.5927487 0.0069049504 0.7511402 -0.38486567 0.094783135 -0.25479 -0.1022842 0.76879877 0.15689595 -0.8019989 0.06794666 0.22535229 0.1642408 0.29036298 -0.45090082 -0.22720487 0.3556669 0.058328822
266 0.5863472 0.36179134 -0.5867995 -0.009565289 0.35768458 -0.42633584 -0.21351956 0.081964426 0.07796243 0.07543792 0.34421945 -0.10379472 -0.1756506 -0.5995942 0.09459436 -0.39281824 -0.11868071 -0.06336594 -0.69951224 0.4903565 -0.54134214 0.65059793 -0.15610439 -0.038183346 -0.084317215 0.16037862 -0.4491053 -0.39392307 -0.7966841 0.7070305 0.4401576 0.44829696
79 -0.22146082 0.23035654 -0.6181855 0.076201685 0.47290257 -0.12287274 0.40425566 0.7576761 -0.043147888 0.17943881 0.2839099 0.1212008 -0.70003176 -0.39876312 -0.078259826 0.09130598 0.09886143 -0.54889506 -0.44053194 0.067668594 0.090808496 0.29230404 -0.31002885 -0.5561676 0.2862409 0.32121783 -0.8466071 0.21564168 0.13729295 -0.44643855 -0.41046926 -0.025128312
488 -0.14709 -0.10147822 -0.2393721 0.53416944 0.24439545 -0.20581959 0.041601554 0.14957218 -0.0015003947 -0.43236792 -0.6863021 0.058976177 0.24867845 -0.86339796 0.69874746 -0.4707005 -0.015943628 -0.30789146 -0.40945598 0.16702169 -0.04241644 0.14349088 -1.0216472 -0.4916407 0.118743494 0.21123111 -0.022927677 -0.0737986 -0.3775406 -0.35090423 0.22026798 0.2874142
463 -0.60745394 0.84745616 0.28830463 1.1403078 0.7542214 -0.30273828 -0.5633324 0.18081708 -0.58520573 -0.5304935 -0.23807022 0.31262344 0.18923555 -0.121096805 0.37310824 -0.15547548 0.30974525 0.3253505 0.22861584 -0.29876134 0.25792137 0.14130938 0.13823187 -0.11779113 0.14266138 -0.07754727 0.27247638 -0.51121444 0.20927277 -0.28873372 0.7700332 -0.30211145
219 -0.43088305 0.07802091 -0.43106863 -0.07744289 0.4693691 0.102516785 0.09587015 0.07512969 -0.016085543 -0.27884045 0.34496263 -0.30860564 -0.24413227 -0.5636766 0.047983956 0.45941898 0.349264 -0.46258906 -0.52888346 -0.49726322 -0.24244982 0.318984 -0.03876105 -0.5889342 0.63456416 0.43428653 -0.2556328 0.012650349 0.40406957 -0.56048083 0.6147626 -0.24969396
297 0.36832944 0.013806713 -0.5755947 0.12767759 0.51090854 0.2570319 -0.23698203 0.3278064 0.09969118 0.057424594 0.39055273 0.28830558 -0.55706966 0.44729197 0.049688276 0.048437104 -0.6098013 -0.5815483 0.04186661 -0.033418328 0.30105406 0.3784275 -0.8232698 -0.21146357 0.34714463 0.3636732 -0.33513168 0.38209978 -0.7345696 0.24675177 0.8155222 -0.16971743
259 -0.01020622 0.4769499 0.25681663 -0.06649466 0.6814604 0.052016813 0.009694507 0.4066303 0.3398666 -0.35166565 0.15377823 -0.45036948 -1.0944995 0.042913776 0.34334743 0.5195564 -0.15215336 0.5790837 -0.10616842 -0.4117039 0.7139739 -0.01676957 -0.05188171 -0.17572953 -0.26645207 0.3722872 -0.5042363 -0.23705168 0.07527706 0.39412192 0.5436247 -0.16446033
382 -1.3642857 0.7851594 -0.19002886 0.11675115 0.36570996 -0.2590575 -0.518229 0.30086142 -0.25121823 0.14101951 0.10940064 0.47688746 -0.10416575 -0.39966616 0.15584062 -0.46618012 -0.27391168 -0.24029987 0.3761186 -0.2903155 0.5303226 0.12918942 0.06730409 -0.152712 0.44827226 -0.28654048 -0.44590896 -0.44972214 -0.58033556 0.19501248 0.06602108 -0.001614157
482 -0.4998228 0.8412782 0.028509302 0.7036258 0.035419762 -0.33119246 -0.6109919 0.1508034 -0.4452994 -0.11573614 -0.14034998 0.53826404 0.14512138 0.30914932 0.22815822 -0.23993258 0.1983433 0.12212443 0.16364944 -0.93734634 0.2510355 -0.03106542 0.16858289 0.007059732 -0.021185862 -0.34334755 -0.5805317 -0.65643156 -0.19340622 -0.37440336 0.5658938 -0.2705446
329 -0.09887275 0.33986628 0.28289396 0.46471143 -0.05710037 0.066399686 -0.12671977 0.6326104 0.40390596 -0.120895326 0.09189106 0.12703323 0.36106136 0.26871318 0.17583181 0.062944844 0.9214209 0.2693442 0.64965475 -0.58669627 0.06823631 0.110563934 0.062464833 -0.62643266 -0.017802615 0.6958659 -0.52373344 -0.05514251 -0.5344468 0.11884885 0.3170655 0.18851025
2 -0.35006478 0.31185013 -0.7393266 0.12757216 0.5818056 0.16278826 0.31227005 0.43946043 -0.6318497 0.42681003 0.6505177 0.2517639 -0.6852077 -0.07914789 -0.025338471 0.0076569933 0.09305382 -0.114884585 -0.5804623 -0.11751595 0.32517913 -0.09907177 -0.22376779 -0.9151267 0.82633567 0.025961973 -0.21322586 -0.06410062 -0.044870384 -0.048029132 0.166912 0.041276414
395 -0.4101566 0.27137855 -0.13530219 -0.08877876 0.628675 -0.087027036 0.08965101 0.24466634 0.16101912 -0.04401851 0.23124014 0.05875751 0.19121076 -0.13965487 -0.491958 -0.031176304 0.3690414 -0.20838593 -0.27933285 -0.3928369 0.40865538 0.4748275 -0.030147448 -0.750032 0.17314291 0.5166632 -0.5358054 0.18470289 0.09006312 -0.26743716 0.41656992 -0.024884598
147 -0.09821617 0.18910378 -0.24507064 0.5015879 0.2325308 -0.2338201 0.052031536 0.54997 0.297245 0.5106698 -0.20714802 0.1826053 0.1617581 -0.19433945 -0.13865277 0.6597318 0.1881815 -0.044838853 -0.15251212 -1.0394443 0.23788926 -0.09360555 -0.033335358 0.63268125 0.10026906 0.48383182 -0.5011099 -0.49600038 0.3162316 0.7934968 0.42264038 0.42048728
51 -0.6714687 0.46171516 -0.3718743 0.009132261 0.4268283 -0.6598411 -0.040784396 -0.16350457 0.08008027 0.25256118 0.1321031 -0.23019008 -0.42168495 -0.15187371 -0.2896007 0.26016596 -0.18652375 -0.18760748 -0.6548768 -0.2114153 0.2346384 0.56823856 -0.37250873 -0.628757 0.22464977 0.29953238 -0.7833729 -0.21995054 0.28050026 -0.66292965 0.13379353 0.18036474
133 0.035145037 0.3167052 0.6019996 -0.030247048 0.49366045 -0.027197706 0.2852388 0.06623452 -0.44079244 -0.90948254 -0.21233365 -0.17045334 -0.7898452 -0.47181138 0.23484221 0.7079684 0.1353282 0.31382576 0.24340405 -0.48492652 0.1242374 0.43498763 -0.39022693 -0.07795284 -0.16373502 -0.05143572 -0.24678789 -0.7417571 0.18728244 0.58554673 0.1027479 -0.017550008
164 0.1621819 0.5117043 0.69046634 0.37140158 0.13008454 -0.34304732 0.18240678 0.5202582 -0.14907783 -0.07447455 0.45826107 0.42315164 -0.16520995 0.010141667 0.3006114 0.2406634 0.5599754 -0.27832967 0.70310324 -0.6636583 -0.45475736 0.5497308 -0.48059762 -0.22388403 0.00889002 0.82980746 0.20101461 0.25685555 -0.08614148 0.12932399 -0.06891774 0.22616266
288 -0.3506705 0.41569144 0.30989972 0.6590189 0.21299486 0.7673592 -0.56820536 0.012990673 0.41473612 -0.5939394 -0.26268363 0.33668566 -0.06591188 -0.1224519 -0.12979044 0.2902841 -0.0053688805 -1.0728512 -0.6274124 -0.04423732 0.3535779 0.12341177 -0.13284548 -0.45026094 0.5999308 -0.1329286 0.3227458 -0.5700892 -0.5782833 0.047770716 -0.16328013 -0.3445967
18 0.23705949 0.58230835 0.24884926 0.3925647 0.19572723 -0.39647803 0.2894976 0.5657935 0.16235231 -0.109853454 0.37086594 -0.2750533 0.0023564585 -0.18529187 0.64181226 0.12529854 0.5148605 -0.031665415 0.19677454 -0.9293428 -0.3946804 0.19211558 -0.11074105 -0.23537987 -0.054198436 0.43923604 0.37851647 0.048549417 -0.06847264 -0.15295154 0.6264029 0.33267972
299 0.18786874 0.15492351 0.0031162214 0.4727479 0.12076734 -0.29221335 0.12946244 0.46497655 0.46078515 -0.34636277 -0.01961784 0.0580573 0.12780459 0.020928156 0.54822433 0.30546433 0.85493594 -0.19411384 0.5713063 0.08216603 -0.25767168 0.006628175 -0.15432306 -0.22437161 0.4387335 0.71315444 -0.20387645 0.36604172 -0.14684321 -0.0017439671 0.9099656 0.41007075
471 0.48175594 0.21348952 -0.33635113 0.4364201 0.45140755 -0.31878677 0.2348698 0.43422228 -0.2638839 -0.16329344 -0.753657 -0.07845242 -0.13193032 -1.0512108 -0.3044883 0.048840288 0.08406115 0.21825415 -0.33127737 -0.07600046 -0.45818302 0.5725459 -0.95376277 -0.33248356 0.24220671 0.08432338 0.15732887 -0.30855766 -0.03885459 -0.20340848 0.21235792 0.016299915
444 -0.18538345 -0.22723758 0.26227006 0.8068034 0.20159058 -0.0954379 0.06951147 0.8458575 0.5662743 -0.54945326 0.14201406 -0.061774842 0.056412663 -0.01839284 0.29767156 -0.18455583 0.52423054 -0.4204993 0.160616 -0.7352893 -0.27431345 0.09520206 -0.031055242 -0.60175556 -0.060454555 0.5213134 -0.113149606 0.6410747 0.2652564 -0.1539977 0.3290295 0.8418231
435 -0.032799315 0.35163978 0.035520416 -0.020801771 -0.12746108 -0.5357972 0.18553995 -0.033336993 0.08492239 -0.016645528 0.2843106 0.2990207 -0.09910255 0.07704505 -0.14339879 0.038956575 -0.35885897 -0.39931288 -0.39161003 -0.6164895 -0.0010987935 0.52976924 -1.514039 0.5645535 -0.20913395 -0.08467748 -0.42025304 0.09066096 -0.72288257 -0.017295344 0.75750655 -0.13826199
72 0.08523966 0.64903873 -0.31639633 0.7307968 0.10837135 -0.20861894 0.17937693 0.013200167 0.5066678 0.22989449 0.15000272 0.22287086 -0.2652513 0.31021968 0.2605854 0.24802805 0.6106507 -0.014074169 0.8662248 0.03207855 0.059696816 0.63962823 -0.1622081 -0.038209725 0.5710091 0.70342547 -0.1952794 0.1834262 -0.5352969 -0.22026393 0.45422503 0.61174744
47 -0.3913316 0.625321 -0.2831175 -0.09534359 0.68988985 0.09170564 0.40526444 -0.07081789 0.024299754 -0.24962376 0.15775895 0.040226337 -0.94986504 -0.094649985 -0.114121474 0.13177371 -0.3223759 -0.5959064 -0.44710758 -0.47161764 0.02356238 0.79828036 -0.09498676 -0.26515007 0.53897834 -0.027904177 -0.40530682 0.15644369 0.29548517 -0.35390615 -0.04987855 0.33259758
162 -0.80122596 0.054874778 -0.1342001 0.013508528 0.83960795 -0.10999978 0.016239382 -0.12838252 0.3122867 -0.7385284 -0.13201003 0.13604417 -0.11834226 -0.14897205 -0.03181143 -0.116737895 0.5045435 -0.20673402 -0.5915959 -0.06654642 0.32618052 0.77476245 -0.12595214 -0.42424077 0.19890462 -0.15003552 -0.89370763 0.29607987 0.38337597 -0.31923553 0.028850839 0.020440817
76 -0.0067646084 0.1737597 0.018322056 0.09503208 0.09047604 -0.19910131 0.32775235 -0.1947914 0.17625096 -0.71004605 0.40403324 -0.50554526 -0.85307515 0.002039859 0.3742995 -0.039837576 -0.22454458 0.482806 0.16663204 -0.53218573 0.26599887 0.18595916 -0.35272628 -0.22841236 0.40876997 0.49187237 -0.6312555 -0.38033184 0.11375714 0.63788754 0.50860274 -0.49548844
42 -0.3210695 0.50978756 -0.32055992 -0.28841215 0.2769516 -0.2202648 -0.00035309143 0.016018352 -0.346907 -0.32814425 -0.12556991 0.2958159 -0.5150678 -0.5642504 -0.275062 0.07170074 0.42567706 -0.60396326 -0.43506327 -0.3582717 0.07053583 0.15590626 0.3352811 -0.619105 -0.3196555 0.110977314 -0.9351648 0.40953684 -0.0065301848 -0.37323892 0.35035354 0.25707337
161 0.6617566 0.4844974 -0.25180265 0.28039783 0.40285224 -0.042349577 -0.09794362 -0.6822232 0.026238173 -0.7166537 0.18196988 0.39008713 0.07503749 -0.017706323 -0.11992113 -0.1374763 0.25414354 0.12692255 0.07942857 -0.06324688 -0.43395293 0.33084512 -0.1242256 0.2825463 0.26782995 0.38234067 -0.5417353 -0.7277457 -0.34931076 0.3669947 0.5736029 0.48094553
113 0.123158604 0.56867105 0.07737532 0.088475905 -0.7708679 -0.25509542 -0.6404274 0.81660306 -0.18913125 -0.22290908 0.26545534 -0.79522604 -0.17306761 0.21656564 -0.2845596 0.3344657 -0.1034069 -0.58688456 0.24407437 -0.339913 0.13566445 0.5720034 -0.6329595 -0.7310873 -0.030165441 0.0006900798 0.050690677 0.3972562 -0.3005057 0.32961997 0.1733019 0.6818244
68 -0.6262742 0.34157458 0.29212636 0.6021258 0.02629112 -0.04204227 -0.33339712 0.9561572 -0.12614807 -0.24886267 -0.37306067 0.3922452 -0.15132336 -0.5975875 0.38605005 0.019761357 -0.11474295 -0.01976921 0.37990966 0.4311 0.273553 0.35165182 0.10240819 0.07717615 0.081737176 -0.6322076 -0.44537663 -0.8153646 0.04937939 0.38469282 0.4843362 0.28008905
103 -0.11896062 0.26560563 0.108068705 0.575702 -0.13539639 -0.11020058 -0.04776769 0.19724272 -0.357918 -0.1395882 -0.22165462 -0.20644255 0.5355062 -0.6508575 0.26804292 -0.29671222 0.7471036 0.05595661 -0.04319607 0.45477968 0.4688428 0.3905293 -1.4840257 -0.19918565 0.10673917 -0.2575292 -0.45384818 -0.22507031 -0.04425157 0.11441808 0.02397838 -0.28575608
489 0.16265671 0.06106623 -0.18354568 0.029252198 0.3466544 -0.49493313 -0.2895509 -0.042113565 0.22282583 -0.23540221 -0.024029724 0.60181874 -0.16925249 -0.5519154 0.11646947 -0.17430231 0.044402014 0.17737612 -0.17653148 0.0125495065 -0.7069024 0.60814536 0.41721526 -0.23214196 0.22143686 0.160409 -0.7982066 -0.6312765 -0.47900164 0.664624 0.035941184 0.461335
189 0.51362234 0.50412434 0.16806327 1.2686325 0.2750705 -0.254966 -0.15312642 -0.26197368 0.1963353 0.02496504 -0.09515494 0.7433411 -0.020290688 -0.56953794 0.81218094 0.0040423335 0.053778384 -0.36524716 -0.62234074 -0.40951523 0.46239161 -0.3509225 0.30665588 -0.23642926 -0.49990943 0.33489725 -0.38059828 0.32093978 0.3963841 0.034516167 0.111989275 -0.08545042
475 -0.053749587 0.7380168 0.48200038 0.11028639 -0.039543014 0.18177827 -0.6045717 -0.3337212 0.14630833 -0.37025896 0.6883664 -0.32754236 -0.88692755 -0.37631717 0.14130358 0.31472605 0.14575939 0.17809607 0.11547319 0.12457158 0.13177827 0.16740699 -0.5985442 -0.29651865 0.31525618 -0.037172724 -0.1778182 -0.8968435 0.2611022 0.6027286 0.39642018 -0.60746473
243 0.21222901 0.059130102 0.34777012 -0.0691624 0.087852515 -0.041473743 -0.41689682 -0.057210978 0.30835375 -0.50064576 -0.62749493 -0.13759333 -1.5233402 -0.3557867 0.7119052 -0.0021270541 0.5357674 0.23706356 0.27721474 -0.35335818 0.029668083 -0.27731115 -0.46691722 -0.40797558 0.13545133 0.08195246 -0.4456435 -0.48637938 0.4074578 0.5775429 0.2642679 -0.0892647
155 -0.5346128 0.42067876 -0.2875059 0.21119243 0.62937176 0.46520576 -0.14721113 0.09336565 -0.23567112 0.074046046 -0.3001792 0.3735065 2.691648e-05 0.028607545 -0.05132509 0.4552921 0.105093405 -0.07787213 -0.6423888 -0.26544344 -0.08430635 0.9061248 -0.07331807 -0.64701813 0.027130747 0.3562409 -0.6687826 0.18187724 0.5374117 -0.22753061 0.2515645 0.16992128
187 -0.23726575 0.59661114 -0.26134542 -0.30256635 0.26907116 -0.20049591 0.058771096 0.4268432 -0.17504883 0.08751599 0.11720221 -0.08705157 -0.271871 -0.29065934 -0.4391353 0.05103337 0.14206316 -0.18419953 -0.50898445 -0.5662385 0.12737529 0.18491165 -0.11125729 -0.9868366 0.273503 -0.105184615 -0.6739116 0.17097847 0.42132297 -0.10779565 0.3509335 -0.11803283
183 -0.059827194 0.100653395 -0.31239754 0.49894354 -0.10868156 0.29308748 0.16450357 -0.14760469 0.3650912 -0.3744323 0.26347014 0.322405 -0.31731072 0.34582534 -0.11025798 0.41059664 -0.5692679 -0.3754495 0.019991046 -0.25449508 0.2125147 0.8293614 -0.7433658 0.11230152 -0.01374736 -0.14930718 -0.6873807 -0.0735854 -0.7990777 0.4436931 0.38712588 -0.30182803
239 0.06679195 0.2539206 -0.05394464 0.20492908 -0.054810487 -0.07823871 -0.80742776 0.06981862 0.042980682 -0.31703967 -0.20273441 0.07026721 -0.34125802 0.118484385 -0.23738022 -0.5181066 0.045239005 -0.09483851 -0.29879844 0.45899308 -0.4440959 -0.0910943 -0.33867604 -0.43787596 -0.36035946 0.60309047 -0.7136637 0.26636904 -0.34396666 0.9369293 0.52260035 0.5357995
473 -0.5648769 0.19735575 -0.63866025 0.47563636 0.5170296 -0.5192295 -0.114434704 0.48656544 -0.29707596 -0.22871591 -0.0061121597 -0.240074 -0.061037686 -0.23807411 -0.15207028 0.5242714 -0.4657666 -0.3380621 -0.649967 -0.10349017 -0.22676525 0.49225193 -0.106707044 -0.22955257 -0.09638056 0.40682676 -0.97301775 -0.27401596 0.22609197 -0.34829566 -0.41499144 0.027558655
491 -0.18773003 0.5193142 0.012577157 -0.16202572 0.42883283 -0.26397943 0.07509763 -0.08660527 -0.015158217 -0.12624477 -0.13040966 0.24313688 -0.1826865 0.12844037 -0.17576782 0.40862554 0.39768374 -0.32431597 -0.49424416 -0.2914114 -0.041401565 0.6159225 0.35925055 -0.9726289 0.25297147 0.012051682 -0.9744655 0.0004051631 0.33326146 -0.013842307 0.1450023 -0.11950496
468 -0.10877819 0.52911997 -0.08141685 0.54710376 -0.3004586 0.5060658 -0.02418988 0.18097407 -0.2701424 0.3912523 -0.11219065 0.22152114 0.03554704 -0.06261178 0.13178656 0.17543301 0.21468563 0.27706313 -0.2870997 -0.45819137 0.8428706 0.5141746 -0.28326216 0.7579598 0.009179216 0.58364046 -0.5163769 -0.15713367 0.06955638 0.8706539 1.0170248 -0.44870365
81 0.01454156 -0.0071899327 -0.47574198 0.6054584 0.20618115 0.0506856 -0.13413742 -0.24861175 -0.43815827 0.07798049 0.0075163734 -0.07855653 -0.63536173 -0.25073114 -0.4341736 0.060593583 0.35634354 -0.56914544 -0.59086955 -0.26168 0.081193745 -0.13450636 0.31490314 -0.9169837 0.49353638 0.42065024 -0.81135225 0.34025398 0.21665935 -0.2202442 0.6387396 -0.4246968
73 -1.1768903 0.84848636 -0.28139117 0.8034733 0.39670458 -0.2181901 -0.2153892 0.2300774 0.04241373 0.23307033 -0.2510129 -0.03614728 -0.65877485 -0.16263738 0.2771228 -0.5179576 0.21135241 0.30108756 0.13906877 0.08481438 0.6793201 0.2485334 0.01002097 -0.12887052 -0.04995486 -0.41798928 -0.09998329 -0.49430862 -0.5756577 0.008951947 0.1530733 0.52861285
348 0.37970665 -0.00022305845 -0.036261737 0.06177429 0.11066438 -0.09190111 0.009015581 -0.5468084 0.40686446 0.048478894 -0.07574777 0.45243788 -0.51456153 -0.3233017 0.10672512 -0.50769794 0.6163753 -0.5215896 -0.24243568 -0.185356 -0.28066662 0.016711323 0.3182401 -0.05798605 0.2040145 0.29065102 -0.9125806 -0.7581125 -0.5514827 0.5066461 0.15991297 0.11463153
284 0.08032113 0.71788377 -0.48152155 0.6694872 -0.09967395 0.27370432 -0.20297544 -0.62187177 0.10423943 -0.6996119 -0.23485899 0.69816494 0.25020757 -0.19538192 0.25291434 0.7087519 0.31249788 -0.34324154 -0.54935354 -0.20694922 0.6274835 -0.16873997 -0.24349168 -0.29389918 -0.4545027 0.3532276 -0.20506127 -0.43786573 -0.17796925 0.23638505 -0.028805843 -0.3653679
66 -0.49572343 0.40866846 -0.27396896 -0.18205018 0.49318114 -0.3605756 -0.1768074 0.14618713 -0.11289662 0.30632478 -0.027789209 0.10865658 -0.34540707 -0.5890861 -0.106884755 0.22860655 0.38839933 -0.25480422 -0.5993603 -0.18129207 0.22879912 0.6579023 -0.0037808532 -0.89054024 -0.04544004 0.11456926 -0.65485257 0.4000334 0.22998954 -0.3613476 0.20968507 -0.16843395
6 -0.61676157 0.5174961 0.24259034 0.8664906 0.54540366 -0.0131465 -0.17388746 0.86274415 -0.19796589 0.31395248 0.0015200083 0.24564564 0.23521161 -0.08510929 0.4730733 0.09177182 0.29910052 -0.1480806 0.08469938 0.13230282 -0.03851809 0.32588816 -0.23912631 -0.65233123 0.29723483 1.0862223 0.46032986 0.3679499 -0.20386532 0.016825896 0.36768982 0.008566723
130 -0.553922 0.7351024 0.30392957 0.62983406 0.26462325 -0.38920614 -0.91573334 -0.1292989 -0.61742675 -0.4685475 -0.6846644 0.010505974 -0.10335774 -0.3020677 0.6409821 -0.10254591 -0.12733951 -0.030371467 0.85494757 -0.78432184 0.5895984 0.23128775 -0.35589895 -0.0945207 -0.06608018 0.19297722 -0.0489635 -0.34914726 0.016725356 -0.4220225 0.37229198 0.071001396
357 -0.14696528 0.40483016 -0.24899897 0.089624114 0.74656415 0.166555 -0.052762914 -0.016289994 -0.2489825 -0.0027378867 -0.14829454 -0.42765415 -0.34367344 -0.18133716 -0.35884944 0.18371634 0.18244684 -0.8157531 -0.1848576 -0.52500296 0.40789852 0.62400347 0.10380854 -0.36803764 0.15604122 0.4857605 -0.679999 -0.01783154 0.6535354 -0.5061972 0.19689777 0.23203607
152 0.18286857 1.1045564 -0.592605 0.3614751 -0.19454296 0.20723337 -0.58840245 -0.34722185 0.19821765 -0.4653808 -0.525539 0.7370322 -0.41828182 -0.260127 0.23641935 -0.24514122 0.20321985 -0.57651865 -0.50195044 -0.3241499 0.2034954 -0.41663772 0.34922123 -0.3283655 0.20294766 0.035113662 -0.049911447 -0.28644297 0.24321245 -0.16945538 0.4746041 0.32559052
403 0.27524266 -0.07830563 0.082408175 0.40338215 0.40542966 0.030287374 0.041399676 -0.10538543 -0.004061942 -0.24649279 0.45237818 -0.43823907 -0.5377115 -0.3852409 0.5607553 0.66860074 0.3145525 0.31356382 0.16315621 -0.4459997 0.27060342 -0.18692897 -0.60776937 -0.962873 -0.011910315 -0.30904064 0.0019914135 -0.32989976 0.12900531 1.1671164 0.38724795 -0.5344417
224 -0.40005976 -0.2502246 -0.30110785 0.5749406 -0.30436575 -0.09848225 -0.14532025 0.2532343 -0.18359128 -0.4882493 0.52879006 0.00039755984 -0.034509007 0.38961056 0.024358282 -0.44981965 0.37864077 -0.51810527 -0.03523536 0.14021988 0.65823555 0.8029069 -1.0153625 0.20411535 0.28439155 -0.2343413 -0.73893654 0.2499097 -0.60089046 0.1677468 -0.014622219 0.006333586
121 0.63645434 -0.18578751 0.44208175 0.9042887 0.39516285 -0.29298896 0.29032013 0.1339476 -0.31669244 -0.0006531887 0.21627471 0.06798635 0.5313607 -0.5049237 -0.29710093 -0.054376684 0.4659486 0.12095146 -0.6729586 0.28146997 0.5158959 0.04922195 -1.2284409 -0.31135586 0.11536029 0.14824831 -0.2157099 -0.22888392 0.281959 -0.021031948 0.5502012 0.28075328
168 -0.45579875 0.24351567 -0.64654666 -0.3036898 0.8354728 -0.48146847 0.34357437 0.31690264 0.12549825 -0.64894176 -0.13796195 0.23021328 -0.2944328 -0.12060936 -0.6461312 -0.124733746 0.0346651 -0.33460397 0.0030658483 -0.5502979 0.11652226 0.51028943 -0.07558006 -0.8906775 -0.04271312 0.4799876 -0.39730233 0.09121782 0.21280988 0.06832427 0.060028378 0.1258307
192 -0.45023322 0.35883203 -0.3524516 0.23558058 1.0848504 -0.25346294 -0.1326037 0.08588106 -0.5523104 0.17940554 -0.37917012 -0.024519574 -0.21135578 -0.15832445 -0.18613796 -0.06870187 0.07044976 -0.43532464 -0.5829306 -0.44693068 0.20931537 0.42233893 0.27145147 -0.86728776 0.44364074 0.17456025 -0.64122635 0.050004628 0.10280721 -0.26291087 0.086107306 -0.023990246
179 0.08168488 0.694391 -0.1765467 0.6968728 0.22520266 -0.16625151 -0.32134706 -0.3849794 0.6422083 -0.63646543 -0.5669772 0.12503277 0.3996628 -0.7037251 0.44923154 0.41290906 0.073655024 -0.39633703 -0.30374467 -0.17030239 0.46175078 -0.15567522 -0.09934576 -0.48365143 0.16470176 -0.09444854 0.5290714 -0.03966771 -0.15301622 0.36807203 0.5468931 -0.16417441
99 -0.430653 0.12502867 0.4437076 0.36527157 0.057074737 0.032457042 0.17161903 0.78405565 -0.10823942 -0.08688275 0.099750824 0.3117391 0.032658875 -0.2300666 0.6126585 0.6036927 0.9258076 -0.07037947 0.2510716 -0.26397666 -0.7397516 0.49754497 0.24799006 -0.4708141 0.38601056 0.25446814 -0.19076915 -0.078893065 -0.47762257 -0.16354468 0.48801214 0.45420697
264 -0.17694715 0.41705495 0.3895742 0.68370825 0.036701124 -0.0388368 0.44198054 0.6374346 0.38163698 0.3194293 0.2006465 -0.11819165 -0.017595595 -0.22070245 0.5561619 0.33044022 0.47349292 -0.18867433 0.44978842 0.13876073 -0.30485168 0.5346001 -0.33409882 -0.37729323 0.22003476 0.37184906 -0.3557072 0.30553943 -0.07475412 0.010493099 0.26699132 0.06919951
87 0.24511191 -0.17092 0.5654411 0.35003364 0.1779005 -0.341758 -0.0659389 0.22020914 -0.06494118 0.108863235 -0.5289391 0.09068635 0.47577506 -1.1526505 -0.20813137 -0.047380894 0.07147608 -0.29090378 -0.32536197 0.040337726 0.28588495 0.5815606 -1.2717046 -0.57098466 0.81356055 -0.059984975 -0.045276936 0.043152608 -0.28281656 -0.058946077 0.31381083 -0.23879552
450 -0.03995599 -0.024550248 -0.52294385 0.89309055 0.07002583 -0.13624975 -0.2977654 1.126219 0.048091214 -0.6497394 0.31791213 0.030919401 -0.18252966 0.2807369 0.60894996 0.028622694 0.89493287 0.16248284 0.15565507 -0.25599337 0.12423925 0.42966276 0.07771436 -0.15991122 -0.07769889 0.56012774 0.19529697 0.15113433 -0.056967206 0.052753158 0.11966975 0.24075074
290 0.1009953 -0.15322174 -0.49071592 -0.36227337 -0.08165428 -0.356357 0.2759822 0.31501597 -0.21594036 -0.41731495 0.23422998 0.53415364 -0.11839706 0.5268512 0.42709488 0.16849759 0.35631093 -0.6494934 -0.029556952 -0.23267862 0.23183651 0.4999283 -0.9725329 -0.16210493 0.6577386 0.2499006 -0.3260476 0.010899914 -0.86394536 -0.16848165 0.50855196 -0.38268167
41 0.04205473 0.07771445 -0.18200745 0.5518072 0.011093155 -0.020689238 0.04304044 0.063031465 0.24822259 -0.14655656 0.44103932 0.56397 -0.3128972 0.4294714 -0.11649829 -0.26863515 -0.13476174 -0.59309036 -0.10778828 -0.33661315 0.49270728 0.830045 -0.72630376 0.440866 -0.106504135 0.001076622 -0.617213 -0.106347665 -0.7307386 0.32145423 0.33177787 -0.68691057
95 -0.73214847 0.5800161 0.33481914 0.76747304 0.2799026 -0.23667519 -0.8271915 0.3306535 -0.53266007 -0.2172141 -0.007493917 -0.14666222 -0.012171968 -0.37877816 0.38325763 -0.3117156 0.28082654 -0.12584688 0.65331614 -0.38489383 0.08024685 -0.08551881 0.2537081 0.067885675 0.2732513 -0.29280037 -0.3937278 -0.404014 -0.4663602 -0.03504234 0.56657666 0.6698388
255 -0.2412739 0.20826744 0.7948301 0.13088661 0.3802695 -0.34434232 0.00375254 -0.34442294 0.19504662 -0.05886115 0.6458723 -0.3982834 -0.9183642 -0.4202829 0.32800007 -0.18266097 0.52399015 0.25074235 -0.30134723 -0.13558842 0.07074351 0.32122898 -0.2434255 -0.18940845 0.00788499 0.0092213545 -0.07726871 -0.4825126 0.16806741 0.65515465 0.80858177 -0.3735201
339 -0.3968902 0.0067553157 -0.17736275 0.8324546 0.6323583 0.15162602 -0.92291147 0.695981 -0.51777464 -0.31017822 0.003690228 -0.58945817 -0.49527702 -0.2017929 0.28452852 0.13340624 0.18135233 -0.35482407 0.5119646 -0.24765891 0.12933232 0.20253935 0.37565193 -0.56997186 -0.44024417 -0.58786494 -0.21684967 -0.25115964 -0.14796428 0.25084183 0.109425835 0.30154297
425 -0.41804653 0.27580985 0.018522779 -0.05854619 0.4488443 0.19637577 0.15596278 0.34682548 0.073327675 -0.003648584 -0.11258298 -0.11397733 -0.51596785 -0.2470896 -0.033159878 0.09556526 0.16448931 -0.7239623 -0.59884626 -0.504151 0.12558648 0.24984196 0.1951622 -1.1068107 0.43576097 0.04879259 -0.54051834 0.1753171 0.06690284 -0.26534146 0.057183646 -0.10978738
57 -0.33145368 1.0123485 0.24586263 0.2128928 -0.55746055 -0.03520118 -0.005343019 -0.2973492 0.23987183 0.43899694 0.33538327 0.049506985 0.3591594 -0.18295847 0.3558199 0.5345603 0.37239587 -0.44975856 -0.20560797 -0.62781215 0.50823456 0.44315854 -0.7202076 0.5980945 -0.30952206 0.8823525 -0.21450803 -0.53169304 0.15770297 0.39091477 0.16552441 0.20962782
448 -0.2234528 0.4860157 0.13312371 0.589459 -0.1646592 -0.39920515 0.13374247 0.47208545 0.52577835 -0.24737379 0.025389014 0.3576639 -0.058526855 -0.12370331 0.114887536 -0.016995057 0.9391556 -0.5231552 0.40397394 -0.28863707 -0.75504297 0.42053947 -0.2462739 0.087160796 0.17639711 0.4741035 0.0038675796 0.021767464 -0.0017656306 -0.25470734 0.32929617 0.08574146
453 -0.114549756 0.118653335 -0.18188114 -0.03768374 0.3539132 0.07351766 0.40459567 0.036270883 -0.037801202 0.12895179 0.018741991 0.22379613 -0.15668868 -0.62978244 -0.60772216 -0.08644686 0.5509503 -0.52535015 -0.60735834 -0.59207356 0.26738027 0.7506675 0.6028453 -0.3606733 0.043765526 0.076075554 -0.81527495 -0.33080518 0.13559335 -0.20276211 0.42096218 0.16669191
67 0.04163881 0.22826008 -0.33290824 -0.19595155 0.040876184 -0.5711186 -0.10229541 0.13974564 0.12711927 -0.5381487 0.4202911 0.5300513 -0.6452808 0.026696378 0.57717514 -0.1479119 -0.105977945 -0.26276362 0.10899922 -0.48970103 0.5368217 0.6786274 -0.96600705 -0.0028043904 0.096372426 -0.60950017 -0.06523051 0.56637925 -0.2807923 -0.098303735 0.35447505 -0.117589705
170 0.04078578 -0.14914666 0.53540903 0.24083643 0.25793386 -0.050356075 0.29421338 -0.123968296 0.16117194 -0.63145286 0.24504662 -0.53695714 -0.90368384 -0.17728673 0.24783704 0.47309127 0.15367435 0.13827758 -0.03390832 -0.3773288 0.33141905 0.30621558 -0.7996073 -0.37525567 0.2939275 0.048159827 -0.55223304 -0.8009012 0.1793198 -0.013226623 0.12528999 -0.6488248
213 0.5467285 0.78872496 0.22576562 0.8399909 0.5276637 0.38765788 -0.14075069 0.2161728 -0.3539679 -0.28618938 -0.13497318 1.1549846 0.00995894 0.12578946 0.13707729 0.66955835 -0.43444976 0.11578012 -0.5157051 -0.5355791 0.3072011 -0.0043411255 0.06792824 -0.39799908 0.3167319 -0.097215466 -0.23155633 -0.14448434 0.036583025 -0.44538316 0.18353826 0.5584006
305 -0.0030042361 0.31653774 0.40682763 0.6162785 -0.62890977 -0.12445164 -0.23595977 -0.07058654 -0.22590841 -0.88755035 0.3209328 -0.44569138 0.17194514 0.21731201 -0.3224047 0.29101577 -0.25384733 -0.40566477 -0.7619686 -0.7938707 -0.3787535 0.08980465 -0.4961756 -0.34550828 0.17118369 -0.10056194 0.03235878 -0.13177186 -0.2712008 0.72416675 0.46552724 0.67923033
342 0.2926563 0.32020742 -0.055056 0.3510998 0.3479334 0.16673489 0.30490458 0.30737227 -0.15673067 0.23905595 0.104960896 0.43180484 -0.05809552 0.51267636 0.7339266 -0.08893281 -0.35898104 -0.8504934 0.22971822 -0.07406424 0.27975836 0.7276918 -1.1627498 -0.10683576 -0.20669402 0.0037017558 -0.20108645 -0.3754801 -0.786696 -0.005976347 -0.124257274 -0.0013836857
294 -0.11626867 0.83384615 0.18120292 0.2372994 0.08030186 0.287835 -0.021973863 0.17484699 0.23534457 0.16657424 -0.30470136 -0.45343104 0.20823444 -0.72569066 -0.46692938 -0.15739085 0.17857143 -0.33478868 0.34465605 -0.5169954 -0.22984473 0.62230736 -0.36297002 0.35117364 -0.48600924 0.017510457 -0.7829368 -0.24496819 0.39764488 0.9265228 0.4886004 -0.46108884
379 -0.19254287 -0.13662736 -0.4349721 1.0678214 0.24406128 -0.15883912 0.18138859 0.0645271 -0.17030321 0.060809355 0.6872044 -0.21128136 -0.11910112 0.37659064 0.4729385 0.18859199 0.9980951 -0.21103875 0.030005079 -0.342771 0.033498246 0.5345148 -0.018312551 -0.66929555 -0.06454884 0.53094655 0.49297088 0.039548792 -0.20114107 0.19994643 0.5556329 -0.115642086
191 0.47947577 -0.21232376 -0.3057882 0.43833497 0.7038355 -0.31713846 -0.18213236 0.27414602 0.087717324 -0.015679758 -0.13292813 -0.01375569 -0.18609428 -0.08261042 -0.27796355 0.52327627 0.5190776 -0.4001859 -0.41644165 -0.1349167 0.6744661 0.35551012 0.46456516 -0.80242634 0.21104194 0.36122277 -0.68294936 0.2884979 0.74182826 -0.084361866 0.32526195 0.11222651
322 -0.16050705 0.43471202 0.3463793 0.89038265 -0.19504979 -0.2193892 0.022366034 0.79859596 0.5133719 -0.021282684 0.5637558 0.3827126 0.24947087 0.17435825 0.70679575 0.41429478 0.45753482 -0.288423 0.54346037 -0.4276335 -0.46278802 -0.21698868 -0.027015263 -0.24267015 0.12842926 0.13674593 -0.6678149 -0.0348028 0.28109524 -0.19181682 0.5585135 0.029527882
174 -0.032032005 0.2806218 0.48356175 0.6146706 0.31738064 -0.14996804 0.0067760516 0.61354196 0.48851442 0.20963468 0.046281308 0.48416218 0.15927123 0.07200082 0.1610749 0.23439287 1.0311903 -0.106730275 0.6877434 -0.2691547 0.011286913 0.46036905 0.1284314 -0.6038051 0.24033678 0.2666551 0.019072874 0.06302497 -0.39443508 0.30811334 0.31911108 0.11425909
466 -0.59496474 0.6566617 -0.27122155 -0.4859449 0.3109014 -0.68298656 0.22448123 -0.046575923 0.014854906 -0.3367579 -0.10618648 0.20008717 -0.20729248 -0.017385636 -0.297868 -0.05889763 0.50576454 -0.23097473 -0.75071836 -0.93850315 -0.15877426 0.43998876 -0.36221743 -0.7777792 0.40642878 0.101976626 -0.41082168 0.21707295 0.40222174 0.03664564 -0.086247824 -0.31572896
146 -0.07485325 -0.4397762 0.2777555 0.42356178 0.08574296 -0.34179544 0.2746786 0.33808208 0.39763513 0.2021235 -0.27450386 -0.24573909 -0.49573356 -0.9419792 -0.052330058 -0.35154766 0.6374888 -0.6783561 -0.37171495 -0.23783855 -0.057997186 -0.14511952 -0.76161927 -0.51429695 -0.3509689 -0.39905995 -0.12871028 0.1886905 -0.7613408 0.3950671 0.11642095 -0.107342154
307 0.818815 0.67730737 0.12732665 0.73589563 0.02911641 -0.16477524 0.21457313 0.288608 0.91066813 0.20786226 0.16199674 -0.3196632 0.0055126124 -0.22416618 0.80229634 0.06328657 0.6853145 -0.06382906 0.12337647 -0.28677037 -0.031684294 0.4723539 0.10264341 -0.49567068 0.36804983 0.6617722 -0.051577266 0.26886502 -0.5072496 -0.06587385 0.0023677272 -0.33874625
335 -0.26511544 0.90445185 -0.008987057 0.70664746 0.024311336 -0.08397282 0.37783355 0.36731347 0.10008468 0.31387618 0.26970094 0.90810597 0.042701766 0.2468835 0.3273786 0.29957387 0.5713433 0.20997906 0.6606294 0.056761 -0.516036 0.43037444 -0.37634248 -0.6647935 -0.14121704 -0.24110444 -0.407819 -0.050673738 -0.018315762 0.42176226 -0.060216125 0.5555581
298 -0.079874426 0.24000728 -0.8486121 0.10526232 0.5121868 -0.21252143 0.2196651 0.772346 -0.088511564 -0.29689044 0.65617234 0.5250859 -0.41917366 0.3952528 0.20739017 0.21298541 0.19917133 -0.5406833 -0.15778957 -0.043339886 0.26085165 0.4031809 -0.88941926 0.5703932 0.17481557 0.0127797425 -0.4789549 0.31375384 -0.3318916 -0.17462768 0.50941336 -0.42331687
474 -0.04372492 0.8407162 0.67025274 -0.008220075 0.49625093 0.19555213 -0.9961837 0.04054117 0.8665348 -0.2490419 -0.04690123 0.34169987 -0.2064395 -0.5105707 0.39881134 0.21006405 -0.16131172 -0.56136364 -0.28896374 -0.10865791 0.3643726 0.15382254 -0.32490006 -0.1514851 0.20587485 -0.22239001 0.06810331 0.31304082 0.08001647 0.013416089 0.011585246 0.26701772
261 0.011306177 0.5070311 -0.13699017 0.8737435 0.105405256 -0.19192047 0.1312515 0.26667082 0.44220072 0.27706674 0.48642644 0.21895859 -0.09807401 -0.2794583 0.37581778 0.030910026 0.75952494 -0.13418482 0.88453686 -0.08687911 -0.36700556 0.3784184 -0.07263042 -0.3585105 -0.28668913 0.46597207 -0.16927788 0.0517176 -0.23205525 0.09718578 0.3732121 0.47879034
61 0.78001744 0.2713321 -0.5041254 0.17024626 0.64465296 -0.37110534 -0.7978258 -0.30280712 0.31521136 -0.11544522 0.44453758 0.14146669 0.2395598 -0.13918766 0.3064894 0.09340479 -0.28473687 0.09098593 0.42843384 -0.2292085 -0.2508965 0.418794 -0.66995776 0.39894202 0.1674347 0.70723873 -0.840979 -0.689851 -0.100755036 0.1432195 -0.056160104 0.418845
347 -0.18500556 0.20265082 -0.34131002 -0.31411076 0.701623 -0.07284222 -0.0943924 0.21986099 -0.3462886 0.6889987 0.22707485 0.41105643 -0.7668776 -0.409185 -0.3839016 -0.3224116 0.014109524 -0.4845351 -0.35368434 -0.26714718 -0.2232398 0.35599333 -0.03478079 -0.95053864 0.005602162 0.26166984 -0.38439676 -0.11334675 0.22211337 -0.09008498 0.72507113 -0.0027365922
434 0.36789426 -0.09509245 0.054043952 0.5964786 0.01442765 -0.7224501 0.19705968 0.3525462 -0.07049324 0.37106046 0.07213553 0.108850755 0.06337972 -1.1715075 0.004356185 0.46572402 0.5038371 -0.028726399 -0.08727419 0.17086215 0.5069329 -0.17736012 -0.9521991 -0.84698653 0.17186342 -0.197216 -0.24025813 0.3032378 -0.5502232 -0.14780895 0.032728583 0.008919424
424 -0.012842033 0.54821545 0.070705965 0.81529456 -0.48883212 0.4058152 -0.562992 -0.2468563 0.26413348 -0.33424443 0.108606964 0.8376541 -0.04330513 -0.29588628 0.46883264 0.9273868 -0.36442056 0.16925831 -0.14829384 -0.18781304 0.61778504 0.094830334 -0.22269534 -0.38023478 0.42201987 0.24418831 -0.4637996 0.12834328 -0.051219 0.44591397 -0.32999524 0.26264805
223 -0.41725296 0.49945718 -0.15254031 0.023987329 -0.45548844 -0.06921066 -0.22185403 0.34063128 0.27013332 -0.14381005 0.17967375 -0.045603212 0.25309557 -0.45044166 0.43613818 0.61187524 0.539534 0.022211423 -0.41445693 -0.12844244 0.28440115 0.24193804 -0.5698536 0.73450637 -0.2943547 0.61836994 -0.68944925 0.16093917 0.58627456 0.8268612 0.6010093 0.08309342
148 -0.373692 0.02028776 -0.40265104 -0.10288566 0.61921847 0.11940888 -0.016567953 -0.34347552 0.031473517 -0.05060684 0.09919536 0.013074954 -0.2141659 -0.57576704 -0.05534616 0.09022 0.7699228 -0.15268353 -0.60445726 -0.831385 0.14653608 0.5300493 -0.10774761 -0.7045673 0.23844713 0.52906585 -0.47379795 0.3205317 0.1627581 -0.4874874 -0.06472198 0.2698042
389 0.5875676 -0.085114114 0.10449169 0.32190788 0.1467793 -0.29935423 -0.4238472 0.27427226 0.44709173 0.30029517 -0.19796938 0.271281 -0.2501702 -0.041831117 -0.19090018 -0.035783146 -0.115592495 -0.0011005087 -0.21469583 -0.065741815 -0.3042169 0.084399045 -0.028897712 -0.23931468 -0.030577047 0.6488254 -1.2245514 -1.0210785 -0.47065434 0.10209109 0.13155505 0.5806064
64 -0.25028783 0.47395095 0.065549836 0.19194816 0.06872608 -0.6287036 0.44827637 0.19217399 -0.046960957 -0.58657146 0.36343804 0.4639634 -0.031498503 0.0114704445 0.37834322 0.3249029 1.3266865 -0.021689381 0.43272334 -0.041465607 -0.09087725 0.06186559 -0.33152506 -0.60332924 -0.79633677 0.4705413 -0.40591162 0.34707934 -0.1358647 -0.13150163 0.30244476 -0.2114596
178 0.20578273 -0.057206795 0.20771179 0.5566536 0.16732611 0.21701306 -0.33027747 -0.015947698 0.22825058 0.08036543 -0.20246287 0.12191172 0.013910284 -0.057673376 0.69777155 0.97133625 -0.19100663 -0.77208847 -0.3930981 -0.5346021 0.59297866 -0.38260555 -0.13594887 -0.46277174 0.09034372 -0.032550614 0.2569729 -0.6764185 -0.21176042 0.20113158 0.87220937 0.01963423
411 -0.08022195 0.61978424 -0.42792013 0.13639595 -0.023976656 0.055771008 -0.019814959 0.47441852 0.2168164 0.31371662 0.3897205 0.07334813 0.23498915 -0.15840589 -0.22494844 0.27920625 0.5403221 -0.25125402 -0.22007553 -0.59268415 0.55940336 0.05102562 -0.18025838 -0.026106007 0.02791885 -0.2687287 -0.21920095 -0.44891083 0.31197613 1.2678233 0.0065596555 -0.098202735
337 0.3330372 0.20129994 -0.09633338 0.75832945 -0.013737185 -0.32944286 0.115929455 1.276976 0.4670689 -0.11854189 0.049048703 0.35370252 -0.22352037 0.26563722 0.17411163 -0.17449288 0.6812579 0.03736703 0.11002948 -0.17082505 -0.06547487 -0.13443528 -0.079853594 -0.4228761 -0.33432215 0.9104019 0.06335697 -0.2332544 -0.40843126 -0.0024607775 0.4720932 0.2175233
440 0.37794462 0.1894865 0.04210353 0.2459948 0.00015322391 -0.76227003 -1.1485362 -0.08718462 0.31441215 0.28553718 0.10810568 0.31685874 -0.4078126 -0.41618675 0.073319994 -0.14000483 0.10966592 0.09551832 0.110799715 -0.35380048 -0.7546451 -0.100588225 -0.1842208 -0.024633741 0.30856618 0.39169946 -0.48718208 -0.5433208 -0.2871192 0.24740767 0.42168295 0.27172056
88 -0.62978834 -0.10312737 0.12360062 0.08844127 0.11180137 -0.26298553 0.05137403 0.13105166 0.780637 -0.1948437 0.046110347 1.1206367 -0.3641543 0.32772377 0.3280037 -0.16304208 -0.6715132 -0.7512061 0.04041135 -0.36891088 0.7192554 0.38623443 -0.65833396 0.29516432 0.110715896 0.0130380085 -0.85049677 0.2770878 -0.48164335 0.22748433 0.45757705 0.052064147
60 0.062855974 0.057915553 0.24554163 -0.3226765 0.05898079 0.7941186 0.33512795 0.43873122 -0.06707854 -0.860894 0.39647153 -0.034480073 -0.75602096 -0.6861215 0.7196014 0.18216933 0.1998469 0.32028586 0.08896671 -0.12515335 0.38515767 0.29019722 -0.019278077 -0.75113297 -0.4709429 0.4198865 -0.45254925 0.08812591 -0.20790341 0.6331981 0.5453412 0.11215719
285 0.11042948 0.3021914 0.22961019 0.32341433 0.4316307 0.4395629 0.47778422 -0.066997714 0.10633997 -0.362829 -0.026876332 -0.22757016 -0.93784666 0.2868405 -0.05138574 0.16746314 0.028183302 -0.026286848 -0.0024257961 -1.0638406 0.141888 -0.29773277 -0.23877768 -0.4713457 0.49551308 0.015594466 -0.3308565 -0.3888779 -0.28731585 0.74734735 0.51635754 -0.89350146
280 0.20415533 0.7172463 0.0598624 0.091663346 0.34564096 -0.16876067 0.1815427 0.24457581 -0.1887783 -0.023554405 0.11694833 0.19941856 0.3021698 -1.2540431 -0.383974 0.8099424 0.18426545 -0.07830683 0.0130958315 -0.6616372 -0.18380679 0.22694063 -0.9116938 0.6997198 0.15225685 0.3158422 0.08562918 -0.5763922 0.20356335 0.47800586 -0.026588932 0.28944215
45 -0.5111857 0.03855007 -0.13231403 0.27628273 0.7712067 -0.33597988 0.23768736 -0.24627657 0.28658283 0.57029736 0.23534974 -0.10768814 -0.4682392 0.019511925 0.3239973 0.53062207 0.013983116 -0.5362672 -0.43313888 -0.9084758 0.2930704 0.3899572 -0.15433101 -0.59663534 0.12641981 0.22355984 -0.5505209 -0.043603044 0.5453237 -0.45219204 -0.13517179 0.34316066
494 -0.4887481 0.9412677 0.08118118 0.32762194 0.60528284 0.070478976 -0.6264283 0.23257154 -0.6038981 -0.048584934 -0.10961548 0.023650102 -0.020397617 -0.25435293 0.29600844 -0.40349254 -0.1427372 0.052482907 0.9009066 -0.6408405 0.16483489 -0.104877874 0.21046872 -0.57919806 0.32016155 -0.18203251 -0.61440825 -0.21803458 -0.38701466 -0.2522195 0.7004624 0.042325165
272 0.3182502 -0.09247373 -0.1364664 -0.09285978 0.28656486 -0.45068395 -0.717957 0.12333664 0.3734492 -0.12826972 0.057574634 0.47906676 0.24620856 -0.16468042 0.028092518 -0.4278254 0.12035359 0.5564481 -0.25089878 -0.32015255 -0.13909549 0.7701644 -0.09751127 -0.25865495 0.17185456 -0.056339215 -0.66401887 -0.82248276 -0.18271577 0.3832936 0.42250612 0.8671652
201 -0.16798262 0.30048144 0.49517217 0.17461099 0.060631197 -0.32930762 -0.5565692 -0.46424332 0.6472882 0.049531378 0.16089667 -0.15945217 -1.1821221 -0.5212186 0.55020404 0.47592056 -0.32252035 0.13674502 0.09767062 -0.40191948 -0.311322 0.030545464 -0.5704326 -0.20814678 0.3440644 -0.009018367 -0.4352458 -0.19681314 -0.15154006 0.6163018 -0.02869307 -0.40268877
296 0.089973256 0.7611138 0.3750579 0.518752 -0.2650539 0.09772965 -0.67620414 -0.4335408 0.94354516 -0.6005106 0.3451695 0.60756814 0.021962266 -0.43411246 -0.1358084 0.2547277 -0.11923282 -0.43354127 -0.45552084 -0.18610753 0.28672695 0.7865369 -0.1953119 -0.23057401 0.3275383 -0.29181805 0.10422317 0.12395933 0.22790535 0.23262528 -0.059900884 -0.19807106
91 0.22129007 -0.20483749 -0.32823128 0.6483383 -0.024881806 -0.64647305 -0.6611558 -0.3901995 0.72697407 0.12179042 -0.228141 0.060005993 -0.7128962 -0.3745273 -0.28369626 -0.927747 -0.104993604 0.17973883 0.093423665 0.033016723 -0.23258744 0.2877671 -0.5492842 -0.2575753 0.048195463 0.36813164 -0.77449286 -0.53553474 -0.5091231 0.28740278 0.3026247 -0.25984257
153 0.4843614 0.0870994 0.041663285 0.8419099 -0.018572694 -0.1156087 -0.10130291 0.13459823 0.18289076 0.2451662 -0.3659662 -0.2691454 0.080722615 -1.0758665 -0.32042044 0.23237953 0.3034885 0.20143902 -0.16474321 -0.28186592 0.7755914 0.2988853 -0.83354527 -0.23437183 0.3160259 -0.52423656 -0.74168044 0.48625332 -0.17713569 -0.58952737 0.17999095 -0.079554856
384 0.07111534 0.57767034 0.084113285 0.306342 0.10794921 -0.30486706 -0.68401843 0.5905805 0.5164589 -0.29507625 0.4696281 0.2843673 -0.07009599 -0.46836194 0.4707546 0.496495 -0.36862972 -0.63799936 -0.57978743 -0.5604457 0.30354342 -0.6879855 0.18155836 0.036611956 -0.17720552 0.70564955 -0.10784911 -0.049897753 0.015075299 -0.09778491 0.31239012 0.20654394
214 0.09134946 0.037725348 0.56006175 0.47784173 0.60228395 0.33700672 -0.16685656 -0.4562121 -0.08905878 -0.18205777 0.07808089 -0.3241758 -1.1814202 -0.158705 0.94341594 -0.107848056 0.18618098 -0.37893137 -0.033774417 -0.3619275 0.25403902 -0.5767907 -0.7042648 -0.22387177 -0.056966472 0.075601615 -0.22287488 -0.07549095 0.120237984 0.7896187 0.28459445 -0.054318585
71 0.5705166 0.39061546 0.5357696 -0.21037611 0.8451388 0.027579779 0.09162902 0.109709695 0.0491818 -0.45679632 0.3608733 -0.35588515 -0.65549976 -0.5894879 0.27712438 0.3012272 -0.10453783 -0.29854172 0.38631997 -0.45729864 0.29259232 0.1299713 -0.021247026 -0.18949668 0.22158134 0.14239942 -0.4123573 -0.37872437 0.2216813 0.5757203 0.42282048 -0.7435378
325 -0.16621278 0.3609994 -0.66823494 0.19272225 -0.4261146 0.13626212 0.07567313 0.5056911 0.39644706 0.2582297 0.069224 0.21039397 -0.49662736 -0.16219741 -0.41664273 0.37542078 0.20889573 -0.12264176 -0.18210287 -0.9674797 -0.2997468 0.1575755 -0.44767752 0.39672303 0.072076045 0.07172696 0.000404222 -0.69606364 -0.083377436 0.8072455 0.7016394 -0.10796316
17 0.11866206 -0.20176512 -0.055444688 0.2423452 0.42728075 0.35005924 0.32486913 0.33147368 -0.007946207 -0.101768024 -0.25040644 0.17655835 -0.027595993 -1.3727038 0.027418956 -0.17854285 0.021089872 -0.17333937 -0.49378523 -0.037592206 0.3036106 0.31856602 -1.1025776 -0.21305224 0.25847608 -0.23092556 -0.03532867 0.013889824 -0.31419685 -0.22585858 0.4552049 0.5091582
53 -0.21917266 0.24847084 0.23808542 -0.22792742 0.41800496 -0.0001126749 0.024165537 0.27357116 -0.009403802 -0.39082634 0.14975889 -0.75848174 -1.0479972 -0.3407453 0.65126204 0.1460118 0.4770534 0.015942512 0.031150658 -0.56661946 0.3355713 0.013596154 -0.048719175 -0.39295796 0.02620621 0.27627566 -0.16840819 -0.69296944 -0.25784683 0.6701987 0.15293579 -0.51000285
176 0.11231298 0.21560623 -0.94862056 0.11949779 0.40685764 -0.07192381 0.20158324 0.1038511 -0.08879326 -0.344488 0.36241364 0.24783565 -0.31147557 -0.20284753 -0.1298495 -0.107435524 -0.37545902 -0.6139697 -0.07680703 0.30352834 -0.25230986 0.5962604 -1.3068409 0.13491346 0.5789741 -0.28966543 -0.15224947 -0.014313476 -0.53686064 0.1375197 0.7533694 -0.48826194
199 -0.0018486591 0.28445625 0.26614863 1.145358 0.2645342 -0.65007764 0.3874411 0.7761135 0.053234145 -0.29443827 0.6683736 0.22639439 -0.18673877 -0.26865324 0.56522256 0.16616787 0.38717693 0.16364624 0.16084132 0.07526812 -0.71648705 0.4997943 -0.0044823885 -0.08935027 -0.15793975 0.4760818 0.08024013 0.3287824 -0.06263997 0.10447931 0.6241613 0.16850215
317 0.26459795 -0.01148927 -0.07281536 0.42787966 -0.20114331 -0.15557726 -0.2508003 -0.1595175 0.51230097 0.047338076 0.084341 0.12279744 -0.1450108 -0.26187608 -0.33011368 -0.36572865 -0.54723215 0.02551038 -0.14502172 -0.09477194 -0.7091687 0.7577917 -0.2685692 -0.5716398 0.035785146 0.29035485 -1.1299661 -0.7645842 -0.46545058 -0.21071516 0.38903114 0.28524983
34 -0.50746083 0.08948881 0.23169886 0.4372126 -0.007055893 0.13790993 -0.61739576 0.5479512 -0.78514946 -0.02499852 0.2207296 0.263435 -0.31753975 -0.6195137 0.35982263 -0.30452675 0.09624848 -0.18078223 0.58144015 -0.61279845 0.74543804 0.028204473 0.24859913 -0.20980772 0.4179727 -0.20515548 -0.6656382 -0.57330537 -0.3773857 -0.41859564 0.32865754 -0.14518112
421 0.41686067 0.6192288 -0.25105023 0.012333808 0.27174953 0.04794292 -0.5928695 0.32882538 0.014949522 -0.25498843 0.21256323 0.4711012 -0.5529466 0.11033399 -0.43270332 -0.6256557 -0.21096204 0.22107254 -0.28458506 0.2143385 -0.5623092 0.24100398 -0.117726795 -0.3395861 0.42138258 0.43088916 -0.5495941 -0.37768802 -0.46725607 0.6775228 0.08748147 0.7375237
197 0.4950812 0.33733422 -0.6147985 0.43110457 -0.023502005 0.073096044 0.010086236 0.3128384 -0.23952445 -0.02803537 0.8075102 0.4304451 -0.4677136 0.37490544 0.24595505 -0.065117635 -0.099663295 -0.8762549 -0.10435952 -0.091155194 0.20616427 0.3680912 -0.6735966 0.3644294 0.5714844 -0.32566646 -0.20820284 0.37050548 -0.64421153 0.050391227 0.858089 0.25329652
413 -0.13772711 0.6410548 -0.056220412 0.40668628 0.3238855 -0.1847501 0.04085546 0.11151505 -0.622595 0.1186177 -0.13162483 0.17120306 -0.54634845 0.14091943 -0.407479 0.46638855 0.09179457 -0.11031736 -0.7490638 -0.32105455 0.41910696 0.51915956 0.03585873 -0.44832155 0.32306063 0.06702468 -0.8156341 0.31386977 0.16153653 -0.5338289 0.09263675 0.02747764
397 0.063775696 0.29874542 -0.37154996 0.85883325 0.13068615 -0.37843832 -0.45243263 0.33267924 0.14420213 -0.18131514 -1.3158724 0.17033051 -0.18074875 -0.47414696 0.07967092 0.2567304 0.7411484 0.24862777 -0.48402017 -0.39224628 0.24813183 0.042650707 -0.6953575 -0.25879934 0.21051678 -0.2242054 0.42702034 -0.03842165 -0.18343735 -0.22114307 0.07642404 -0.053587038
3 -0.16829166 -0.07211542 -0.104774274 0.013406594 0.46412447 -0.39946303 -0.22392924 -0.041879777 -0.26795506 0.16517861 -0.22270083 0.17733738 -0.5137503 -0.22997178 -0.34022707 0.34920985 0.62126046 -0.5672477 -0.37499502 -0.13859268 0.09636778 0.7339861 0.2732761 -0.28499556 0.34516793 0.4505605 -1.0366696 0.25950915 0.5132446 0.11057187 -0.14065295 0.43941638
56 0.13501155 0.60705686 0.3187218 0.20068727 -0.38814938 -0.8149302 -0.05938713 0.17407396 -0.38417217 -0.6076513 0.6621888 -0.39910355 -0.12550248 0.15316795 -0.34139532 -0.29455566 -0.14268795 -0.55338126 -0.45750216 -0.48789036 0.03929462 0.18942574 0.045554556 -0.49375215 0.81397516 0.008700863 -0.20609213 0.22739784 -0.008977786 0.2980418 0.39400107 0.8543819
256 0.070674926 0.08303508 -0.58467394 0.707855 -0.10440996 -0.11652313 -0.49425775 0.042908333 -0.0888415 -0.5700931 0.5495315 0.5462872 -0.034980953 0.62934166 -0.081542954 0.098378286 -0.2937715 -0.39864585 -0.59483975 -0.016989594 0.1145188 0.33055943 -0.78259104 0.021380294 -0.016890999 -0.1483978 -0.7724005 0.57157654 -0.10433907 0.21822754 0.68243957 -0.3492266
134 -0.30568033 0.10991202 0.0004222116 0.47837597 0.04747445 -0.54040986 -0.5499935 -0.039220057 -0.13016275 -0.010895416 0.6313117 0.23400956 -0.61107016 0.7558586 0.06658522 0.04816114 -0.332788 -0.50133765 -0.18624249 -0.114592075 0.57322276 0.6734341 -0.9734348 0.27720344 0.14706461 -0.27172625 -0.32085493 0.2540677 -0.1645797 0.49195635 0.17172939 0.27176607
454 -0.4957761 0.36533192 0.12615064 0.063569956 0.728018 -0.2449858 0.13256289 0.3464736 -0.35601035 -0.25471485 0.3076608 0.45315355 -0.22621559 0.1760373 -0.08298031 -0.049656186 0.27717778 -0.5458635 -0.44700885 -0.08661261 0.43617922 0.67454475 0.2673746 -0.6561186 0.38956857 0.08056199 -0.6683633 -0.011009529 0.57208633 -0.37622458 0.082497045 0.1385403
165 0.28847244 0.41816458 -0.3292342 -0.52831715 0.42359012 0.26400086 -0.18898904 0.13830224 -0.15443788 -0.56416345 0.21500105 0.3264278 -0.1284346 0.11669848 0.38817227 0.1928562 0.1562954 -0.11039245 -0.21397468 0.05544177 0.13294871 0.38818005 -0.9634576 0.043437377 0.03794184 -0.33395675 -0.6309858 0.018565925 -0.86368006 0.21549994 0.6978591 -0.74626184
128 0.16180691 0.52448505 0.25871935 0.6644541 0.57359576 -0.66359824 0.1827511 0.64203376 0.48789984 0.13428593 0.4308892 0.16402654 0.18338597 0.03584215 0.5456755 -0.26488915 0.37684295 -0.107773595 0.71164376 -0.16761507 -0.35756132 0.337216 -0.032840274 -0.19806774 0.28830513 0.65919375 -0.21839955 -0.7110967 -0.031799916 -0.33599988 0.3332265 0.114383414
7 0.11884057 0.029458359 -0.2657901 0.4548927 0.062746376 0.45703864 -0.29755607 0.17297414 -0.00605433 -0.20350525 0.23159602 0.08501054 -0.58114094 0.04443542 -0.014143465 -0.75636554 0.23458263 -0.3299371 0.46688226 -0.37750828 0.25922135 0.52162635 -1.3499081 0.3850147 0.070603095 -0.48116967 -0.5600224 0.2706086 0.06175537 0.042805303 0.34469533 -0.066698834
380 0.087741084 0.73946637 -0.28533736 0.4239242 0.43089154 -0.119435705 0.26982743 0.43899155 0.2879768 0.23951462 -0.25658205 -0.12082204 -0.011109643 -0.41356075 -0.2697604 0.5622532 0.026566984 0.3172843 -0.099904194 -0.64024496 0.320988 0.2876177 -0.46842214 0.1787907 -0.20034531 -0.030175906 0.12359064 0.13700408 -0.06766864 1.1017381 0.4853948 -0.20521373
432 0.56767225 0.67915857 0.2647917 0.09983393 -0.18546309 -0.51001716 0.3993724 0.3730971 -0.7467903 -0.7873564 0.07482913 0.1687085 -0.32571605 -0.12961453 0.5488995 0.10666373 -0.059910316 -0.6119005 -0.1135017 -0.36484477 0.2640093 0.2922896 -0.30025366 0.18464693 0.07936546 0.37899822 0.008734426 0.030270115 0.06477544 0.831758 -0.17668004 0.7394432
135 -0.04274527 0.5491425 -0.04616268 0.54357594 0.070408985 0.15761095 -0.36695018 -0.2827364 0.6127703 -0.4548663 -0.33916715 0.7271867 0.36024776 -0.41840562 0.29851073 0.79665536 0.24773216 -0.32645947 -0.52643555 -0.15789904 0.3823673 -0.17593205 -0.291337 -0.6886446 0.19452909 -0.0024688174 -0.26501492 0.19542524 0.253085 -0.15203445 0.19267762 0.092184976
472 0.5179689 0.19653314 0.62839925 0.8815336 -0.013282944 0.33326402 -0.80964786 -0.20956454 0.23061438 -0.6123171 0.13367295 0.60935324 0.06321744 -0.816805 0.025941422 0.419755 0.27590632 -0.55273783 -0.3242482 -0.2873053 0.1857916 0.2455834 0.21519433 -0.19659585 -0.5024151 0.42203528 0.043385644 -0.016760865 0.036503304 0.10275126 0.2639414 0.15396759
281 -0.10574314 0.35940042 -0.796529 0.10890367 0.6245967 -0.11775308 0.021148227 0.12540069 -0.10964953 0.14423536 -0.15267266 0.12796585 -0.26189244 -0.8241827 -0.29659766 0.21584137 0.2515454 -0.11813841 -0.18791789 -0.032205895 -0.0019314914 0.704614 0.108526476 -0.903979 0.32803458 0.2968354 -0.692618 0.21536563 0.346635 -0.25512755 -0.13360913 0.3844472
149 -0.84934485 0.86196405 -0.20433189 0.5041724 0.40012184 -0.29408023 -0.37499815 0.6611058 -0.31209588 0.093130805 -0.16217795 -0.0468498 0.16003807 -0.2889808 0.3070042 -0.10752358 -0.13460124 -0.16785116 1.0382261 -0.46555364 0.19848976 -0.25471795 -0.56177455 -0.3250543 0.001487151 -0.34332463 -0.6998047 -0.3457858 -0.20102361 -0.22774044 -0.045289606 0.13236864
194 0.2084519 0.6232519 0.086333916 0.98083967 0.047541957 0.2648621 -0.13036756 -0.16357803 0.6647333 -0.29319435 -0.5668313 0.53772163 0.21851538 -0.37659323 -0.123527795 0.60579234 0.08747502 -0.65469146 -0.29957175 0.017260997 0.8059488 -0.27040982 0.35660845 -0.45413357 0.3248312 0.01725753 -0.34719107 0.1707985 -0.23382308 0.4127735 0.22443776 0.27255705
483 -0.2818644 0.773726 0.08844541 0.09074479 0.43938324 0.3052958 0.5115433 0.6321195 0.3626036 -0.09680777 -0.15695123 -0.46967903 0.5736613 -0.08726707 0.48142418 -0.093728215 0.2601286 -0.18228035 -0.2396015 -0.61876094 -0.33455965 0.083514586 -0.8357316 0.37276307 0.109623514 0.326061 -0.27205503 -0.6191942 0.13580339 0.78726053 0.08524937 0.15257145
209 0.12577027 -0.061335348 0.640055 -0.0735819 -0.15915129 0.12825514 0.014589262 -0.09015911 -0.18930146 -0.7039285 0.07975214 -0.49583694 -0.94545186 -0.13482507 0.59433115 0.41764185 0.16534571 -0.5084542 0.051492367 -0.3570986 -0.038093142 0.13560827 -0.8075459 0.0060974443 -0.048709467 0.33130172 -0.3222554 -0.6740735 0.075718515 0.3077843 0.6141218 -0.32337654
185 -0.34169805 0.7073495 -0.13325006 0.4310362 0.43142605 0.08049211 -0.67877465 0.93730944 -0.6102453 -0.20270553 0.118045606 0.28430748 -0.24802497 -0.13434929 0.83340245 -0.52902484 0.1525709 -0.5775494 0.5345628 -0.5009251 0.45202777 0.34993246 0.26447278 -0.10255984 0.10655796 -0.4985984 0.027490797 -0.47482333 -0.36386168 -0.08340589 -0.024732912 0.061317172
234 -0.29936534 0.45926368 0.092685916 -0.24377087 0.47355637 0.020819308 0.22337049 -0.06115197 -0.27661577 0.03614829 -0.01994967 0.39215362 -0.97644454 -0.19663976 -0.36143744 0.20374279 0.42465922 -0.20744248 -0.48534068 -0.23283131 -0.008838238 0.4720444 -0.14429149 -0.5634302 0.15001547 0.34573242 -1.1469643 0.07327167 0.16621016 -0.4388141 -0.12827314 0.116867535
414 0.52243036 0.7009276 -0.33415866 0.17048198 -0.47331417 -0.5626907 -0.29604077 0.26280206 -0.72181004 -0.7933761 -0.10274237 0.11650714 -0.0934933 0.06693354 0.32890478 0.2877726 -0.41013637 -0.53500384 0.13782449 0.15544556 -0.07731999 0.47725636 -0.32270995 -0.43266383 -0.051147267 0.1498633 0.050949704 -0.096247315 -0.20699826 0.53024065 0.40744966 1.083452
420 0.52352375 0.19014516 0.121487476 0.6717585 0.07605677 0.4184566 -0.82715195 0.2955414 0.56936264 -0.5697652 0.18950008 0.6514547 0.05313284 -0.6836718 0.594123 0.07455149 0.26967072 -0.6128871 -0.36858138 -0.63931847 0.4563731 -0.006855748 0.23098111 -0.21756244 -0.2150196 -0.37336856 -0.18538027 -0.14228354 0.12564275 0.12819254 -0.34246853 0.057943866
55 0.43479198 0.07357822 -0.123732865 0.09518262 -0.067858145 -0.6810624 -0.7933383 0.009363777 0.08056292 0.45107898 -0.0514994 0.5924798 -0.37093335 -0.11464647 0.22379948 0.21217844 -0.18291415 0.51741153 -0.6142194 -0.05387022 -0.539294 0.45152676 -0.7692447 -0.043872703 -0.021355033 0.20726697 -0.6113015 -0.7211896 -0.30922404 0.6372489 0.24166879 0.16784418
1 0.16634108 -0.27715543 -0.6534387 0.6932411 -0.095751576 0.07063002 -0.24485673 0.34871358 0.41389132 -0.22894444 0.41741157 0.22457999 -0.28632343 0.40788612 0.5168877 -0.5067662 -0.1885227 -0.27648672 0.044201422 -0.4453735 0.5790083 0.72088706 -0.57986206 0.1363142 0.48135355 0.3860618 -0.4435994 0.08376524 -0.3569612 -0.7011089 0.6256166 -0.3033878
460 -0.0061938213 0.01526222 -0.48855147 -0.26295364 0.40146267 0.22695635 -0.46282053 0.23607387 -0.04589335 -0.3527611 0.4186257 0.51071715 -0.50681525 0.48205438 0.27107692 0.025795955 -0.04700555 -0.50237024 -0.0979474 -0.15931909 0.0037998408 0.34279513 -0.8083204 -0.06254746 -0.0144620575 -0.19069842 -0.5436974 0.37541223 -0.94148904 -0.024617646 0.99979275 -0.054604273
248 0.16316113 -0.18298163 0.44275254 0.3609688 0.22704895 -0.72738135 -0.5910559 -0.124364 0.5496078 -0.059907146 0.7353635 0.20324577 -0.24998434 -0.35829988 -0.5066747 -0.3190409 0.24593346 0.18067269 -0.034038868 -0.050718177 -0.28889218 0.44955644 -0.28274333 0.061570767 0.17431231 0.24106476 -0.76691073 -0.41547573 -0.4025043 0.2314462 0.17544785 0.5714552
346 0.31237277 0.7510166 0.5398435 0.10808235 0.1599029 0.10477066 0.555066 -0.35407075 0.14037351 -0.8904612 -0.3468685 -0.4237846 -0.8483484 -0.6288628 0.3780416 0.37295544 -0.13137414 0.08415232 0.043435145 -0.019101566 0.31122923 0.24044994 -0.3260057 -0.18644479 -0.32331875 0.79111195 -0.6404809 -0.10681734 0.3723665 0.23926444 0.45499396 -0.40564328
269 0.17238618 -0.34978947 -0.099799074 0.77118415 0.10001716 0.5378348 0.056840543 -0.059480585 0.35524526 -0.09730027 0.8586582 0.23667327 0.09944956 0.33342338 0.36654425 -0.10819049 -0.23606282 -0.81819344 -0.041349888 0.035519373 0.39247409 1.0899738 -0.4986535 0.111058615 0.026509441 -0.38519186 -0.62416327 -0.030151734 -0.23551095 0.59448767 0.68103987 -0.08866877
310 0.087888606 0.5919642 -0.5004653 0.7951816 -0.07513164 0.35426736 0.38454542 0.32863024 0.6570343 0.32472804 0.526086 0.011297331 0.3576918 0.36708257 -0.013010446 -0.47947785 0.51288164 -0.030042736 0.651499 -0.33519074 0.47105634 0.3442343 -0.30613494 -0.5854304 0.19844063 0.53457505 -0.07680988 -0.37409532 -0.15193571 0.2744317 0.4677502 0.42662203
193 0.15859054 0.16864738 0.88297457 0.29446995 0.13519979 0.2583961 -0.13360126 -0.20656805 0.24793965 -0.7190629 0.38950187 -0.5663132 -0.9500816 -0.49477276 0.27933702 0.162076 0.048716422 0.1875002 0.22049703 -0.29484195 0.26820412 0.26908165 -0.43626198 -0.60312355 0.32823315 0.13310911 -0.11038894 -0.7198572 0.11106898 0.5224632 0.5762333 -0.3234223
375 -0.07083121 0.25154692 -0.42597407 -0.004209763 0.41880128 0.09189229 -0.27933872 0.52165145 0.29207724 -0.7408302 0.41604283 -0.019262578 -0.48740587 0.061749082 -0.16726181 0.087778874 -0.49585807 -0.59794813 -0.14449744 -0.11806625 -0.04349126 -0.013535229 -1.3388821 0.2624798 0.24145186 -0.015711775 0.031650618 0.31405708 -0.7408446 0.4655545 0.559268 -0.37911826
363 0.08423621 -0.123273894 0.19138251 0.7986532 0.33096123 -0.14429525 0.47817838 -0.06277138 0.21423896 -0.15654236 0.02750113 0.20199192 0.056657467 -0.9165092 -1.265516e-05 -0.29633865 0.054198354 0.4592199 -0.4975284 -0.24206184 -0.14591575 0.14758971 -1.2319446 -0.23049998 1.0258961 0.14933757 -0.35908857 -0.057404216 -0.090631664 -0.16085088 -0.095380865 -0.15087146
258 -0.48115906 0.15383933 -0.3309427 -0.13108622 0.32878768 -0.15520346 0.12458901 0.4351017 -0.32748324 -0.07063356 -0.33954215 0.31985584 -0.13735439 -0.15469155 -0.39470547 -0.27041844 -0.008766803 -0.29839188 -0.38700983 -0.07923334 0.014231598 0.44593173 0.08295608 -0.7323558 0.6049907 0.013907689 -1.1517526 -0.20480101 -0.16271164 -0.27101913 0.4236389 -0.21203336
308 -0.46292996 0.7392418 -0.8020231 0.30124626 -0.54839563 -0.11399616 0.33711687 0.4306659 0.111555025 0.25396746 -0.08408932 -0.09286737 0.035107475 0.11287604 -0.10050989 0.16870236 0.4158003 -0.2207393 -0.46414426 -0.31241238 0.45222607 0.49454868 -0.74521303 0.05352816 -0.52170265 0.48740676 0.059692502 -0.5110509 0.1860383 0.9231498 0.41094318 -0.08203414
286 0.17923959 0.42519104 0.5102992 0.821204 -0.15420902 -0.29848546 0.26838368 0.7046783 0.53057605 -0.075554274 0.3111013 0.28991398 0.04087156 -0.12894815 0.6050346 -0.25426096 0.7211644 -0.5883546 0.134038 -0.41664416 -0.24512303 0.6844292 0.074891604 -0.3249463 -0.089621395 0.4924984 0.18689878 -0.15803625 0.056755073 0.3148 -0.31098005 -0.018298335
254 -0.39544988 0.772708 0.98029536 0.22965379 0.5767861 0.05686581 -0.05577079 0.13267061 -0.04235007 -0.56286484 0.16053618 -0.54518473 -0.49762982 0.020349758 0.2856694 -0.0017068415 0.34909067 0.29944462 -0.122450314 -0.32984623 -0.11346292 0.40649164 0.09010294 -0.24788272 0.34997734 0.12040404 -0.17380023 -0.27457172 -0.3143865 0.51911044 0.41528645 -0.78780884
35 -0.123093985 0.08219043 0.11453257 0.66111684 0.26007682 0.014486366 0.4131338 0.22399716 0.0019533457 -0.2844209 0.075744234 -0.40534467 -0.21783805 -0.94063675 0.0677971 -0.7225541 0.15685649 -0.058324553 -0.24475929 0.038335532 0.5999179 -0.46240684 -1.4921037 0.05522482 0.21297021 -0.089574195 -0.627266 0.056172818 -0.12551036 0.035391964 0.090356395 -0.15049142
283 -0.5770675 0.6144441 -0.20718713 0.01443375 0.02803135 -0.2700805 0.16055755 0.14863442 -0.6773628 0.24832621 -0.05928738 0.4079051 -0.70523274 -0.12727872 -0.12890778 0.36437607 0.030515881 -1.062397 -0.8124425 -0.15250874 -0.18548451 0.18333189 -0.13893513 -0.31332153 0.12594701 0.40783697 -0.9352343 0.14239408 0.587821 0.0011940681 -0.06710168 -0.04362755
98 0.23641963 -0.07418611 0.21369083 0.33450967 0.12715839 0.2765949 -0.16982026 0.082858816 0.55932707 -0.566785 -0.3497474 -0.290533 -1.0411409 -0.23820353 0.74553984 0.41878816 0.1911552 -0.026301496 -0.16378453 -0.25061813 -0.33455563 0.30167392 -0.013376207 -0.6793309 0.3855074 -0.33926022 -0.38763568 -0.57445943 -0.0038601023 0.9072343 -0.32417837 -0.15799554
407 0.0754121 -0.05246313 0.14455779 0.49794364 -0.10348355 -0.15719801 0.16565971 0.34682223 -0.08172882 0.09361407 -0.18850073 0.09795406 0.18471543 -0.90812325 0.061598938 -0.54837763 0.7043441 0.18310402 -0.5108383 -0.21286072 0.16755201 0.20497712 -1.2488319 -0.43976817 -0.14108126 -0.0895637 -0.21452114 0.10066758 0.038550705 0.15848117 0.13757911 -0.22060703
480 -0.8488088 0.87026036 0.085097186 0.50786865 0.09580175 -0.16112989 -0.5737921 -0.07580277 -0.82658607 0.34909567 0.095522866 0.10157784 -0.74779516 -0.2722619 0.6783765 -0.38324222 0.11800916 -0.2753471 0.52867043 -0.44265118 0.44867846 0.35015595 0.0009882906 -0.11668034 -0.57001674 -0.08168482 -0.25273427 -0.36719427 -0.26363745 -0.01227959 0.1730313 0.25015038
447 0.32694352 0.22013654 0.013321145 0.80255634 0.39113662 -0.12655412 -0.2478674 -0.08804299 0.13588344 -0.15196894 -0.38321835 0.030039703 0.0100401975 -1.185346 -0.21263343 0.3719918 0.65621376 -0.06816862 -0.24043708 -0.16035382 -0.17433956 0.28854576 -1.0157262 -0.1424645 0.24553594 -0.3907216 0.04726438 0.08037238 -0.31875834 -0.56553817 -0.08912592 0.01348038
373 0.45945433 0.0971186 -0.615723 -0.07297555 -0.27429777 -0.47109842 0.079032786 0.10873709 0.4730231 -0.49082187 -0.3672554 -0.13987537 0.053361982 -0.18982439 0.19417402 -0.7050227 -0.25401235 -0.13588426 -0.16791928 -0.21785165 -0.4477639 0.090871036 -0.18992977 -0.48419547 0.13621144 0.5544189 -1.2158386 -0.72931176 -0.54297674 0.44389573 0.016878586 0.17493176
365 0.17963065 -0.19596979 -0.15620777 0.72840047 0.021526918 -0.38502973 0.035802864 0.5514029 -0.06636882 0.025817214 -0.25300726 -0.30614972 -0.06553268 -1.0297186 0.3914 -0.31318915 -0.17584585 -0.38766232 -0.28358904 0.45801622 0.07800088 0.15913789 -1.2493498 -0.1978996 0.17497836 -0.13736473 0.03172844 0.015112689 -0.36836126 -0.048439153 0.4848797 0.35802007
350 0.10215514 0.53854233 0.6151091 0.16917168 0.27823916 -0.09751368 0.31483766 -0.14736257 0.40022624 -0.9645769 0.08280871 -0.71634763 -0.24625832 -0.5937068 0.20528886 0.59512234 -0.11915746 -0.24483107 0.468775 -0.14765829 -0.014153973 0.15530846 -0.31564543 -0.24972342 -0.03999846 0.21843673 -0.6609986 -0.30469012 -0.08300799 0.46232316 0.339133 -0.7510929
301 -0.15277106 -0.12648684 -0.03218895 0.7761184 0.26188692 0.10326881 0.18813895 -0.012833585 0.25768334 -0.286573 -0.122449644 -0.016135473 -0.121948265 -0.6649414 0.1243505 0.2552335 0.4565154 0.10169902 0.054928392 0.21230915 -0.21049498 -0.065991506 -1.5354122 -0.53205496 -0.12004723 -0.095781684 0.08859613 -0.045157358 -0.03538563 -0.054245304 0.30364886 0.877183
396 0.17458488 0.32238647 0.080027126 0.962513 0.0027509374 0.3894038 -0.5992874 -0.17857505 0.23825333 -0.594644 0.12734912 0.6092839 -0.1738646 -0.24441288 -0.12874675 0.35766256 -0.027824838 -0.7924516 -0.6441567 -0.54575205 -0.25573424 -0.18254866 -0.38186702 -0.06622773 0.07785482 0.064226374 0.42255962 0.26941943 0.08785288 0.13868432 0.43453014 0.08441631
321 -0.38421467 -0.21002732 0.41121864 0.19136494 0.2923631 0.46870488 0.11389628 0.08857683 0.05659848 -0.22562051 0.56432563 -0.30161145 -0.95685244 -0.51802164 0.8856028 0.30202004 0.073819615 -0.21524759 0.6773551 -0.26230854 0.393974 -0.00063945405 -0.16317953 -0.45842865 0.15648906 0.21438876 -0.47003832 -0.82199425 -0.37535107 0.4548905 0.26034576 -0.07542589
112 0.12512715 0.11701033 -0.18759769 0.61965173 0.184751 -0.21396273 0.05365209 0.22409247 0.35240665 -0.012112981 -0.57194376 -0.029627446 -0.24564764 -0.5670233 0.3912221 -0.13587783 0.3304684 -0.048060995 -0.0065115835 0.48065487 0.5485654 0.3523545 -1.2969062 -0.71924555 -0.18311393 -0.18161719 -0.118271075 0.07294573 -0.15205407 -0.6212107 0.22143552 0.08114279
368 0.18139744 0.42026874 -0.44592917 -0.39450198 -0.1362602 -0.0134902345 0.08135944 0.16171 -0.015828498 -0.3044877 0.2379277 0.48725614 -0.76548254 0.05989398 -0.53086895 0.37916356 0.39626157 -0.66729367 0.19192296 -0.11568267 0.30286136 0.67514575 -0.74515307 0.2350622 -0.3057017 -0.6428405 -0.36515337 -0.24692199 -0.6106208 0.05682734 0.65821135 -0.14559032
54 0.38027212 0.12584467 -0.18647617 0.28044972 0.19646922 -0.17141174 -0.65622413 -0.13899162 0.4574941 0.2379492 -0.18676476 0.5396524 -0.42781615 0.0014613081 0.119071186 -0.66731745 0.44215655 0.08928744 -0.5262043 0.08355494 -0.16458182 0.39589208 -0.30656198 0.1626402 -0.3159466 0.12017223 -0.9720358 -0.35987294 -0.43944094 -0.14671464 0.42280692 0.33381826
58 0.52672327 0.20900494 0.06580493 0.07260442 -0.3202385 -0.9756335 -0.33234483 0.3969114 -0.22567405 -0.6041091 -0.5089112 0.14071175 -0.47092202 -0.021270096 0.4040013 -0.061227977 0.6325979 -0.36534902 -0.35034257 -0.14303552 0.26405603 0.10067429 -0.30910766 0.42252088 0.9117211 0.2925287 0.0775503 0.13116087 -0.20789005 0.72882795 0.05361207 0.7330471
203 0.4146672 0.7668609 0.32057416 0.1603047 -0.29146963 -0.5732078 0.2117803 -0.20263307 -0.55358773 -0.7210346 0.04721723 -0.13842702 -0.15351802 0.17192975 -0.024663629 0.018626826 0.299465 -0.83765316 -0.37436667 0.20743233 0.44672996 0.05525964 0.11385901 0.19202684 0.21865273 0.6552767 -0.48093534 -0.11262083 -0.57706356 0.3156015 0.40436894 0.88556325
426 0.45903054 0.4950395 0.27903342 -0.29256818 0.65783536 -0.38347644 -0.4607749 -0.330171 0.28310716 0.33277836 0.21817614 0.19135223 -0.2509084 -0.36554685 -0.2010154 -0.310719 0.6019325 0.11454957 -0.45706216 0.1263157 -0.58947104 0.6045853 -0.179082 -0.1613553 -0.24644099 0.20470156 -0.64923847 -0.32216033 -0.51756126 0.37307295 0.49904376 0.039110932
4 -0.5232114 0.7603394 -0.13490589 0.043324213 -0.5564441 0.7725602 0.18636306 0.3445849 0.21258703 0.12180181 -0.08215502 0.16647865 0.5484794 -0.46718013 0.0344312 0.3209978 0.13707705 -0.14993335 -0.22916359 -0.7458667 0.13694605 0.3291211 -0.33204222 -0.22384174 -0.36102438 0.20833747 -0.7212449 -0.09425248 -0.18128678 0.86251223 0.23579146 -0.16956717
353 -0.096666284 0.8001481 0.60386646 0.650386 -0.6872614 -0.66969985 -0.11002631 0.7481279 0.4201672 -0.55515593 -0.06622922 -0.31599796 -0.02224946 0.17018138 -0.031225944 0.16684197 0.009599639 -0.15168463 -0.35175925 0.2868063 -0.11029583 0.05721929 0.002086859 -0.28759044 0.19715454 -0.50166255 -0.4956946 0.21346085 -0.039686523 0.7796149 0.4883048 0.58055425
376 0.12454197 0.033998292 0.11416238 0.095466726 0.60495865 -0.4502781 -1.4423112 -0.17397293 0.009800602 0.12061459 -0.04823422 0.08267854 0.19803879 0.21729448 -0.1267488 0.09694081 0.3596965 -0.075311124 -0.23907106 0.40430212 -0.41039687 0.26328024 -0.62323403 -0.21247257 0.19946963 0.3067403 -0.70433307 -0.5003987 -0.47697765 0.14082643 0.3227814 0.21912214
129 -0.28612298 -0.025263079 0.06412204 0.9925785 -0.016150521 -0.42440474 -0.45546022 0.6997612 0.21696432 0.24785508 0.09216524 -0.17408854 0.20749034 -0.17261155 0.30651927 0.08688844 0.74372756 -0.4948681 0.72823054 -0.17357247 -0.4764945 0.13460661 -0.58795345 -0.41071177 -0.037184626 0.54415995 -0.045041252 0.17723654 -0.3686738 0.06720531 0.16490988 0.049026474
105 0.95243466 -0.099234834 -0.45436394 0.4892123 0.14398943 -0.50540435 -0.68004113 -0.12585771 0.56581324 0.39991015 0.3187698 0.13512354 0.033413924 -0.21813902 0.22532211 -0.27661908 -0.30174294 -0.40289608 0.48148844 -0.17172989 -0.24855752 0.62094265 -0.0029645648 -0.253528 0.17690435 0.4978712 -1.0546134 -0.32128245 -0.06009895 0.43841884 0.08954193 -0.23136988
360 -0.28867894 0.36459413 0.04114776 -0.019789802 -0.26880667 -0.026464859 -0.10398324 0.7051344 0.5826864 0.37133253 -0.4367837 -0.25703287 0.5399611 -0.05363759 0.5948703 0.53661656 0.14348878 -0.1625561 -0.11543214 -0.51443446 0.565935 0.57138854 -0.63801324 0.46242702 0.053851776 0.06733605 -0.5264571 -0.044556092 0.22229765 0.8341049 0.68249947 0.20216508
316 0.23026784 0.7406872 -0.029808994 0.40135178 0.0967316 -0.064694464 -0.45654327 -0.016198134 0.43329495 -0.41474444 0.062217508 0.96727294 -0.09400679 -0.5609245 0.13276367 0.55291015 -0.23978642 -0.96131855 -0.42557365 0.085444406 0.5033652 0.27882147 0.34744033 -0.112448454 0.029465916 0.18197446 0.13267824 -0.31940433 -0.018811204 0.19069591 0.11409898 -0.2409386
233 0.75447935 0.1349962 0.1472084 0.21611857 0.24121854 -0.1686822 -0.3123282 -0.49991623 0.08573937 -0.27632406 0.4037067 0.10484603 -0.14968733 -0.3708023 -0.28444964 0.014040816 0.39066136 0.14986098 -0.49590597 -0.12679626 -0.76871765 0.09627734 -0.3933053 -0.18877193 0.226487 0.17601326 -0.8026731 -0.80790114 -0.74697644 0.0762894 0.13471203 0.28868034
323 0.44357264 0.29931524 -0.12807989 0.50251114 0.67799157 -0.060459573 0.3922067 0.925371 0.071705185 0.12854065 0.2338244 0.18244615 -0.33839977 0.55979806 0.42952752 -0.05447388 0.8188092 -0.32659057 0.95339996 0.05040434 0.5286986 0.44458944 -0.32977024 -0.122912474 0.5751525 0.42641422 0.104144536 -0.19187587 -0.033054404 0.06264517 0.17729557 0.5646572
154 0.3824064 0.29075348 0.43346843 0.18117128 -0.6410941 -0.8231747 -0.0016410727 0.17727824 -0.14695467 -0.58133733 -0.12489682 -0.03547562 0.01879753 0.029693522 0.35215726 -0.5209574 0.29445884 -0.6315366 -0.31328535 -0.39614227 0.14636332 0.62415844 -0.083350375 -0.008055604 0.42782673 0.19470198 -0.42557728 0.35102016 -0.256279 0.56239426 0.08449098 1.1839952
292 0.25379106 0.06839874 0.013275068 -0.53323734 0.1987961 -0.5053935 -0.58060753 0.075088225 0.57694626 -0.09795891 -0.19922432 0.45793712 -0.055254873 -0.17635182 0.2751574 -0.110635296 0.6760551 -0.017785417 -0.10741977 -0.14629076 -0.47976846 0.2667682 -0.23432034 -0.4321752 -0.11091427 0.15756084 -0.97656983 -0.4788787 -0.5077343 0.70067996 -0.32863417 0.08442508
490 -0.056865834 0.89440066 -0.22926779 -0.29153448 0.9552791 -0.3129186 0.12118805 0.047838777 0.14356236 0.11388917 0.42371234 0.34515464 -0.46551514 -0.27977496 -0.34812933 0.015722454 0.19998555 -0.15927273 -0.8438848 0.17581522 0.45659697 0.18821539 0.23195484 -0.6159715 0.5401594 0.19042866 -0.558137 -0.3393439 0.07207689 -0.27016103 -0.03268977 0.3259949
69 -0.16744906 -0.21438125 -0.03390833 -0.17863014 0.18382105 -0.1381552 -0.32750008 0.106899634 0.030369418 0.21987994 -0.04849293 0.28801876 -0.7001318 -0.44186905 -0.9447434 0.21917991 0.34334314 -0.4347228 -0.30181506 0.18901928 0.3488599 0.47244203 0.028991478 -0.9393989 0.7594892 -0.0038622366 -0.60563195 -0.19184338 0.14485632 -0.059232246 0.48238662 0.5641453
429 -0.50408304 0.38659903 -0.57492006 0.6268057 0.51018167 -0.14083144 0.2732917 0.34780335 -0.053066947 -0.16140266 -0.7512891 -0.2750309 0.01879562 -0.69451463 -0.2200354 0.10093695 0.37408367 -0.10193347 -0.5046045 -0.5835609 0.45885423 0.22751205 0.28632528 0.50824404 -0.31613603 0.34188953 0.03055103 -0.08906101 -0.23431689 0.96799606 0.4373343 0.05617768
122 -0.14547735 0.9621912 -1.1682521 0.034273643 -0.4464564 -0.031829365 -0.096896544 0.1919699 0.25597122 0.3783912 0.29422715 -0.2920252 0.15389764 -0.36683032 -0.19424145 0.39833626 0.40024838 -0.5942406 0.029500421 -0.52393466 0.26151368 -0.039807532 -0.3066748 0.4260863 0.23195624 0.52361643 -0.5074837 -0.6494061 0.16224986 0.57531065 0.30485877 -0.0408201
